## LambdaMART
## No. of trees = 1000
## No. of leaves = 25
## No. of threshold candidates = 256
## Learning rate = 0.15
## Stop early = 50

<ensemble>
	<tree id="1" weight="0.15">
		<split>
			<feature> 134 </feature>
			<threshold> 0.0 </threshold>
			<split pos="left">
				<feature> 108 </feature>
				<threshold> 13.33966 </threshold>
				<split pos="left">
					<feature> 130 </feature>
					<threshold> 355.60547 </threshold>
					<split pos="left">
						<feature> 18 </feature>
						<threshold> 17.124624 </threshold>
						<split pos="left">
							<feature> 129 </feature>
							<threshold> 2.0 </threshold>
							<split pos="left">
								<feature> 18 </feature>
								<threshold> 4.5152473 </threshold>
								<split pos="left">
									<output> -1.7042770385742188 </output>
								</split>
								<split pos="right">
									<feature> 131 </feature>
									<threshold> 61439.125 </threshold>
									<split pos="left">
										<feature> 19 </feature>
										<threshold> 11.597238 </threshold>
										<split pos="left">
											<output> -0.5869371891021729 </output>
										</split>
										<split pos="right">
											<output> -0.4745264947414398 </output>
										</split>
									</split>
									<split pos="right">
										<output> -0.8187066912651062 </output>
									</split>
								</split>
							</split>
							<split pos="right">
								<output> -0.14200334250926971 </output>
							</split>
						</split>
						<split pos="right">
							<feature> 122 </feature>
							<threshold> -2.26364 </threshold>
							<split pos="left">
								<feature> 50 </feature>
								<threshold> 0.013437196 </threshold>
								<split pos="left">
									<output> -0.7437698245048523 </output>
								</split>
								<split pos="right">
									<feature> 26 </feature>
									<threshold> 48.5 </threshold>
									<split pos="left">
										<feature> 19 </feature>
										<threshold> 30.78923 </threshold>
										<split pos="left">
											<output> -0.32417523860931396 </output>
										</split>
										<split pos="right">
											<output> 0.05119595676660538 </output>
										</split>
									</split>
									<split pos="right">
										<output> 1.743722915649414 </output>
									</split>
								</split>
							</split>
							<split pos="right">
								<output> -0.011928258463740349 </output>
							</split>
						</split>
					</split>
					<split pos="right">
						<feature> 55 </feature>
						<threshold> 0.008875512 </threshold>
						<split pos="left">
							<output> -0.31812626123428345 </output>
						</split>
						<split pos="right">
							<output> 0.15278498828411102 </output>
						</split>
					</split>
				</split>
				<split pos="right">
					<feature> 109 </feature>
					<threshold> 19.084442 </threshold>
					<split pos="left">
						<feature> 18 </feature>
						<threshold> 7.0371227 </threshold>
						<split pos="left">
							<output> 1.4711542129516602 </output>
						</split>
						<split pos="right">
							<feature> 108 </feature>
							<threshold> 21.12113 </threshold>
							<split pos="left">
								<feature> 14 </feature>
								<threshold> 2.0 </threshold>
								<split pos="left">
									<output> 1.9828965663909912 </output>
								</split>
								<split pos="right">
									<feature> 130 </feature>
									<threshold> 355.60547 </threshold>
									<split pos="left">
										<feature> 14 </feature>
										<threshold> 9.0 </threshold>
										<split pos="left">
											<feature> 106 </feature>
											<threshold> -1.643089 </threshold>
											<split pos="left">
												<output> 1.2369564771652222 </output>
											</split>
											<split pos="right">
												<feature> 133 </feature>
												<threshold> 54.0 </threshold>
												<split pos="left">
													<feature> 64 </feature>
													<threshold> 0.057904415 </threshold>
													<split pos="left">
														<output> -0.22605367004871368 </output>
													</split>
													<split pos="right">
														<output> 0.14800399541854858 </output>
													</split>
												</split>
												<split pos="right">
													<output> -0.45906922221183777 </output>
												</split>
											</split>
										</split>
										<split pos="right">
											<output> 0.12876197695732117 </output>
										</split>
									</split>
									<split pos="right">
										<output> 0.2394571751356125 </output>
									</split>
								</split>
							</split>
							<split pos="right">
								<feature> 127 </feature>
								<threshold> 393.08594 </threshold>
								<split pos="left">
									<feature> 41 </feature>
									<threshold> 0.0 </threshold>
									<split pos="left">
										<output> 0.02729899436235428 </output>
									</split>
									<split pos="right">
										<output> 0.3591228127479553 </output>
									</split>
								</split>
								<split pos="right">
									<output> 1.9750027656555176 </output>
								</split>
							</split>
						</split>
					</split>
					<split pos="right">
						<output> 0.5264157056808472 </output>
					</split>
				</split>
			</split>
			<split pos="right">
				<output> 1.2064220905303955 </output>
			</split>
		</split>
	</tree>
	<tree id="2" weight="0.15">
		<split>
			<feature> 134 </feature>
			<threshold> 0.0 </threshold>
			<split pos="left">
				<feature> 109 </feature>
				<threshold> 19.309635 </threshold>
				<split pos="left">
					<feature> 108 </feature>
					<threshold> 13.33966 </threshold>
					<split pos="left">
						<output> -0.896755039691925 </output>
					</split>
					<split pos="right">
						<feature> 64 </feature>
						<threshold> 0.5718048 </threshold>
						<split pos="left">
							<feature> 18 </feature>
							<threshold> 27.212133 </threshold>
							<split pos="left">
								<feature> 14 </feature>
								<threshold> 2.0 </threshold>
								<split pos="left">
									<output> 1.2848272323608398 </output>
								</split>
								<split pos="right">
									<feature> 108 </feature>
									<threshold> 21.12113 </threshold>
									<split pos="left">
										<output> -0.4481233060359955 </output>
									</split>
									<split pos="right">
										<output> -0.007536898832768202 </output>
									</split>
								</split>
							</split>
							<split pos="right">
								<output> 0.2657163441181183 </output>
							</split>
						</split>
						<split pos="right">
							<output> 1.706268072128296 </output>
						</split>
					</split>
				</split>
				<split pos="right">
					<feature> 1 </feature>
					<threshold> 9.0 </threshold>
					<split pos="left">
						<feature> 3 </feature>
						<threshold> 3.0 </threshold>
						<split pos="left">
							<feature> 108 </feature>
							<threshold> 14.451298 </threshold>
							<split pos="left">
								<output> -0.17225080728530884 </output>
							</split>
							<split pos="right">
								<feature> 79 </feature>
								<threshold> 8.034971 </threshold>
								<split pos="left">
									<output> 0.5860811471939087 </output>
								</split>
								<split pos="right">
									<output> 0.295322060585022 </output>
								</split>
							</split>
						</split>
						<split pos="right">
							<output> 0.9772514700889587 </output>
						</split>
					</split>
					<split pos="right">
						<output> 1.7780176401138306 </output>
					</split>
				</split>
			</split>
			<split pos="right">
				<feature> 130 </feature>
				<threshold> 62723.34 </threshold>
				<split pos="left">
					<feature> 136 </feature>
					<threshold> 0.0 </threshold>
					<split pos="left">
						<feature> 46 </feature>
						<threshold> 0.03125 </threshold>
						<split pos="left">
							<output> 0.5297316312789917 </output>
						</split>
						<split pos="right">
							<output> 0.8340001106262207 </output>
						</split>
					</split>
					<split pos="right">
						<feature> 18 </feature>
						<threshold> 17.124624 </threshold>
						<split pos="left">
							<feature> 30 </feature>
							<threshold> 30.839844 </threshold>
							<split pos="left">
								<feature> 109 </feature>
								<threshold> 20.660793 </threshold>
								<split pos="left">
									<feature> 72 </feature>
									<threshold> 134.05469 </threshold>
									<split pos="left">
										<feature> 118 </feature>
										<threshold> -11.046108 </threshold>
										<split pos="left">
											<feature> 127 </feature>
											<threshold> 23.953125 </threshold>
											<split pos="left">
												<output> 1.0405941009521484 </output>
											</split>
											<split pos="right">
												<output> 0.8892866373062134 </output>
											</split>
										</split>
										<split pos="right">
											<output> 0.783818244934082 </output>
										</split>
									</split>
									<split pos="right">
										<output> 1.6344459056854248 </output>
									</split>
								</split>
								<split pos="right">
									<output> 1.3981553316116333 </output>
								</split>
							</split>
							<split pos="right">
								<output> 1.1461888551712036 </output>
							</split>
						</split>
						<split pos="right">
							<feature> 126 </feature>
							<threshold> 1.0 </threshold>
							<split pos="left">
								<output> 1.3153659105300903 </output>
							</split>
							<split pos="right">
								<output> 1.1534518003463745 </output>
							</split>
						</split>
					</split>
				</split>
				<split pos="right">
					<feature> 132 </feature>
					<threshold> 126.0 </threshold>
					<split pos="left">
						<feature> 14 </feature>
						<threshold> 4.0 </threshold>
						<split pos="left">
							<feature> 78 </feature>
							<threshold> 6.994291 </threshold>
							<split pos="left">
								<output> 1.3166908025741577 </output>
							</split>
							<split pos="right">
								<output> 1.5630866289138794 </output>
							</split>
						</split>
						<split pos="right">
							<output> 1.1403536796569824 </output>
						</split>
					</split>
					<split pos="right">
						<output> 1.8012347221374512 </output>
					</split>
				</split>
			</split>
		</split>
	</tree>
	<tree id="3" weight="0.15">
		<split>
			<feature> 134 </feature>
			<threshold> 0.0 </threshold>
			<split pos="left">
				<feature> 109 </feature>
				<threshold> 19.309635 </threshold>
				<split pos="left">
					<feature> 108 </feature>
					<threshold> 21.12113 </threshold>
					<split pos="left">
						<feature> 20 </feature>
						<threshold> 18.014826 </threshold>
						<split pos="left">
							<output> -0.7844443917274475 </output>
						</split>
						<split pos="right">
							<output> -0.19628873467445374 </output>
						</split>
					</split>
					<split pos="right">
						<output> 0.031102320179343224 </output>
					</split>
				</split>
				<split pos="right">
					<feature> 3 </feature>
					<threshold> 3.0 </threshold>
					<split pos="left">
						<output> 0.33302921056747437 </output>
					</split>
					<split pos="right">
						<output> 0.8341509103775024 </output>
					</split>
				</split>
			</split>
			<split pos="right">
				<feature> 130 </feature>
				<threshold> 62723.34 </threshold>
				<split pos="left">
					<feature> 136 </feature>
					<threshold> 0.0 </threshold>
					<split pos="left">
						<output> 0.608504056930542 </output>
					</split>
					<split pos="right">
						<feature> 49 </feature>
						<threshold> 0.6 </threshold>
						<split pos="left">
							<feature> 109 </feature>
							<threshold> 20.660793 </threshold>
							<split pos="left">
								<feature> 18 </feature>
								<threshold> 17.124624 </threshold>
								<split pos="left">
									<feature> 30 </feature>
									<threshold> 30.839844 </threshold>
									<split pos="left">
										<feature> 95 </feature>
										<threshold> 0.0 </threshold>
										<split pos="left">
											<output> 0.5694098472595215 </output>
										</split>
										<split pos="right">
											<feature> 127 </feature>
											<threshold> 23.953125 </threshold>
											<split pos="left">
												<output> 0.9500179290771484 </output>
											</split>
											<split pos="right">
												<output> 0.7325899600982666 </output>
											</split>
										</split>
									</split>
									<split pos="right">
										<output> 0.906997561454773 </output>
									</split>
								</split>
								<split pos="right">
									<feature> 126 </feature>
									<threshold> 1.0 </threshold>
									<split pos="left">
										<output> 1.0916533470153809 </output>
									</split>
									<split pos="right">
										<output> 0.9474924802780151 </output>
									</split>
								</split>
							</split>
							<split pos="right">
								<output> 1.1458500623703003 </output>
							</split>
						</split>
						<split pos="right">
							<output> 1.6134591102600098 </output>
						</split>
					</split>
				</split>
				<split pos="right">
					<feature> 14 </feature>
					<threshold> 4.0 </threshold>
					<split pos="left">
						<feature> 109 </feature>
						<threshold> 11.878266 </threshold>
						<split pos="left">
							<feature> 132 </feature>
							<threshold> 119.0 </threshold>
							<split pos="left">
								<feature> 108 </feature>
								<threshold> 21.12113 </threshold>
								<split pos="left">
									<feature> 78 </feature>
									<threshold> 6.994291 </threshold>
									<split pos="left">
										<feature> 111 </feature>
										<threshold> -8.289734 </threshold>
										<split pos="left">
											<feature> 88 </feature>
											<threshold> 20.156733 </threshold>
											<split pos="left">
												<feature> 134 </feature>
												<threshold> 52908.69 </threshold>
												<split pos="left">
													<feature> 55 </feature>
													<threshold> 0.014792521 </threshold>
													<split pos="left">
														<feature> 68 </feature>
														<threshold> 0.001953125 </threshold>
														<split pos="left">
															<output> 1.2525904178619385 </output>
														</split>
														<split pos="right">
															<output> 0.9866933226585388 </output>
														</split>
													</split>
													<split pos="right">
														<output> 0.5685470104217529 </output>
													</split>
												</split>
												<split pos="right">
													<output> 1.551206350326538 </output>
												</split>
											</split>
											<split pos="right">
												<output> 1.6008973121643066 </output>
											</split>
										</split>
										<split pos="right">
											<output> 0.8869753479957581 </output>
										</split>
									</split>
									<split pos="right">
										<output> 1.1329703330993652 </output>
									</split>
								</split>
								<split pos="right">
									<output> 1.4696506261825562 </output>
								</split>
							</split>
							<split pos="right">
								<output> 1.5037857294082642 </output>
							</split>
						</split>
						<split pos="right">
							<output> 1.4317700862884521 </output>
						</split>
					</split>
					<split pos="right">
						<output> 0.9370079636573792 </output>
					</split>
				</split>
			</split>
		</split>
	</tree>
	<tree id="4" weight="0.15">
		<split>
			<feature> 134 </feature>
			<threshold> 0.0 </threshold>
			<split pos="left">
				<feature> 109 </feature>
				<threshold> 19.309635 </threshold>
				<split pos="left">
					<feature> 108 </feature>
					<threshold> 13.33966 </threshold>
					<split pos="left">
						<output> -0.6844654679298401 </output>
					</split>
					<split pos="right">
						<feature> 117 </feature>
						<threshold> -2.8111572 </threshold>
						<split pos="left">
							<feature> 14 </feature>
							<threshold> 3.0 </threshold>
							<split pos="left">
								<output> 0.7554766535758972 </output>
							</split>
							<split pos="right">
								<feature> 118 </feature>
								<threshold> -17.949799 </threshold>
								<split pos="left">
									<feature> 16 </feature>
									<threshold> 0.9974825 </threshold>
									<split pos="left">
										<output> 1.602210521697998 </output>
									</split>
									<split pos="right">
										<feature> 129 </feature>
										<threshold> 88.0 </threshold>
										<split pos="left">
											<output> -0.03022915869951248 </output>
										</split>
										<split pos="right">
											<output> 1.608948826789856 </output>
										</split>
									</split>
								</split>
								<split pos="right">
									<output> -0.37069249153137207 </output>
								</split>
							</split>
						</split>
						<split pos="right">
							<output> 0.688553512096405 </output>
						</split>
					</split>
				</split>
				<split pos="right">
					<feature> 3 </feature>
					<threshold> 3.0 </threshold>
					<split pos="left">
						<output> 0.25757408142089844 </output>
					</split>
					<split pos="right">
						<output> 0.6822754144668579 </output>
					</split>
				</split>
			</split>
			<split pos="right">
				<feature> 130 </feature>
				<threshold> 62723.34 </threshold>
				<split pos="left">
					<feature> 109 </feature>
					<threshold> 20.660793 </threshold>
					<split pos="left">
						<feature> 136 </feature>
						<threshold> 0.0 </threshold>
						<split pos="left">
							<output> 0.4212712049484253 </output>
						</split>
						<split pos="right">
							<feature> 112 </feature>
							<threshold> -43.62979 </threshold>
							<split pos="left">
								<output> 1.532823920249939 </output>
							</split>
							<split pos="right">
								<feature> 18 </feature>
								<threshold> 17.124624 </threshold>
								<split pos="left">
									<feature> 30 </feature>
									<threshold> 30.839844 </threshold>
									<split pos="left">
										<feature> 95 </feature>
										<threshold> 0.0 </threshold>
										<split pos="left">
											<output> 0.4183398485183716 </output>
										</split>
										<split pos="right">
											<output> 0.6490080952644348 </output>
										</split>
									</split>
									<split pos="right">
										<output> 0.7411892414093018 </output>
									</split>
								</split>
								<split pos="right">
									<feature> 126 </feature>
									<threshold> 1.0 </threshold>
									<split pos="left">
										<output> 0.9067745804786682 </output>
									</split>
									<split pos="right">
										<output> 0.7731240391731262 </output>
									</split>
								</split>
							</split>
						</split>
					</split>
					<split pos="right">
						<output> 0.9643762707710266 </output>
					</split>
				</split>
				<split pos="right">
					<feature> 14 </feature>
					<threshold> 4.0 </threshold>
					<split pos="left">
						<feature> 109 </feature>
						<threshold> 11.878266 </threshold>
						<split pos="left">
							<feature> 132 </feature>
							<threshold> 119.0 </threshold>
							<split pos="left">
								<feature> 108 </feature>
								<threshold> 21.12113 </threshold>
								<split pos="left">
									<feature> 133 </feature>
									<threshold> 1.0 </threshold>
									<split pos="left">
										<output> 1.1654493808746338 </output>
									</split>
									<split pos="right">
										<feature> 78 </feature>
										<threshold> 6.994291 </threshold>
										<split pos="left">
											<feature> 125 </feature>
											<threshold> -6.8567524 </threshold>
											<split pos="left">
												<output> 0.9216570854187012 </output>
											</split>
											<split pos="right">
												<output> 0.5841608047485352 </output>
											</split>
										</split>
										<split pos="right">
											<output> 0.9289465546607971 </output>
										</split>
									</split>
								</split>
								<split pos="right">
									<output> 1.2796343564987183 </output>
								</split>
							</split>
							<split pos="right">
								<output> 1.3340226411819458 </output>
							</split>
						</split>
						<split pos="right">
							<output> 1.2466039657592773 </output>
						</split>
					</split>
					<split pos="right">
						<output> 0.749244749546051 </output>
					</split>
				</split>
			</split>
		</split>
	</tree>
	<tree id="5" weight="0.15">
		<split>
			<feature> 134 </feature>
			<threshold> 0.0 </threshold>
			<split pos="left">
				<feature> 109 </feature>
				<threshold> 20.4356 </threshold>
				<split pos="left">
					<feature> 108 </feature>
					<threshold> 13.33966 </threshold>
					<split pos="left">
						<feature> 115 </feature>
						<threshold> -5.2566366 </threshold>
						<split pos="left">
							<output> -0.6801165342330933 </output>
						</split>
						<split pos="right">
							<output> -0.2657708525657654 </output>
						</split>
					</split>
					<split pos="right">
						<feature> 14 </feature>
						<threshold> 3.0 </threshold>
						<split pos="left">
							<output> 0.701662540435791 </output>
						</split>
						<split pos="right">
							<feature> 18 </feature>
							<threshold> 23.429317 </threshold>
							<split pos="left">
								<feature> 125 </feature>
								<threshold> -28.11203 </threshold>
								<split pos="left">
									<output> 1.6045079231262207 </output>
								</split>
								<split pos="right">
									<feature> 129 </feature>
									<threshold> 88.0 </threshold>
									<split pos="left">
										<feature> 66 </feature>
										<threshold> 0.0 </threshold>
										<split pos="left">
											<output> -0.4658707082271576 </output>
										</split>
										<split pos="right">
											<output> -0.14706137776374817 </output>
										</split>
									</split>
									<split pos="right">
										<output> 1.4267818927764893 </output>
									</split>
								</split>
							</split>
							<split pos="right">
								<output> 0.11303175985813141 </output>
							</split>
						</split>
					</split>
				</split>
				<split pos="right">
					<feature> 117 </feature>
					<threshold> -70.28476 </threshold>
					<split pos="left">
						<output> 1.3244333267211914 </output>
					</split>
					<split pos="right">
						<feature> 3 </feature>
						<threshold> 3.0 </threshold>
						<split pos="left">
							<output> 0.2601048946380615 </output>
						</split>
						<split pos="right">
							<output> 0.5758934020996094 </output>
						</split>
					</split>
				</split>
			</split>
			<split pos="right">
				<feature> 130 </feature>
				<threshold> 62723.34 </threshold>
				<split pos="left">
					<feature> 109 </feature>
					<threshold> 20.660793 </threshold>
					<split pos="left">
						<feature> 19 </feature>
						<threshold> 21.193235 </threshold>
						<split pos="left">
							<feature> 30 </feature>
							<threshold> 30.839844 </threshold>
							<split pos="left">
								<feature> 95 </feature>
								<threshold> 0.0 </threshold>
								<split pos="left">
									<output> 0.2686474025249481 </output>
								</split>
								<split pos="right">
									<feature> 127 </feature>
									<threshold> 23.953125 </threshold>
									<split pos="left">
										<output> 0.641880989074707 </output>
									</split>
									<split pos="right">
										<output> 0.4285629093647003 </output>
									</split>
								</split>
							</split>
							<split pos="right">
								<output> 0.5890210866928101 </output>
							</split>
						</split>
						<split pos="right">
							<output> 0.7474863529205322 </output>
						</split>
					</split>
					<split pos="right">
						<output> 0.8197293877601624 </output>
					</split>
				</split>
				<split pos="right">
					<feature> 14 </feature>
					<threshold> 4.0 </threshold>
					<split pos="left">
						<feature> 109 </feature>
						<threshold> 12.779038 </threshold>
						<split pos="left">
							<feature> 132 </feature>
							<threshold> 126.0 </threshold>
							<split pos="left">
								<feature> 108 </feature>
								<threshold> 21.12113 </threshold>
								<split pos="left">
									<feature> 133 </feature>
									<threshold> 1.0 </threshold>
									<split pos="left">
										<output> 1.0107709169387817 </output>
									</split>
									<split pos="right">
										<feature> 78 </feature>
										<threshold> 6.994291 </threshold>
										<split pos="left">
											<feature> 125 </feature>
											<threshold> -6.8567524 </threshold>
											<split pos="left">
												<output> 0.7716633081436157 </output>
											</split>
											<split pos="right">
												<output> 0.5302376747131348 </output>
											</split>
										</split>
										<split pos="right">
											<output> 0.8042729496955872 </output>
										</split>
									</split>
								</split>
								<split pos="right">
									<output> 1.1611367464065552 </output>
								</split>
							</split>
							<split pos="right">
								<output> 1.2341574430465698 </output>
							</split>
						</split>
						<split pos="right">
							<output> 1.1346251964569092 </output>
						</split>
					</split>
					<split pos="right">
						<output> 0.5919564366340637 </output>
					</split>
				</split>
			</split>
		</split>
	</tree>
	<tree id="6" weight="0.15">
		<split>
			<feature> 134 </feature>
			<threshold> 0.0 </threshold>
			<split pos="left">
				<feature> 109 </feature>
				<threshold> 20.4356 </threshold>
				<split pos="left">
					<feature> 50 </feature>
					<threshold> 0.026874391 </threshold>
					<split pos="left">
						<feature> 120 </feature>
						<threshold> -6.5343747 </threshold>
						<split pos="left">
							<output> -0.6722312569618225 </output>
						</split>
						<split pos="right">
							<output> -0.1939067840576172 </output>
						</split>
					</split>
					<split pos="right">
						<feature> 14 </feature>
						<threshold> 3.0 </threshold>
						<split pos="left">
							<output> 0.5676367282867432 </output>
						</split>
						<split pos="right">
							<feature> 108 </feature>
							<threshold> 21.12113 </threshold>
							<split pos="left">
								<feature> 101 </feature>
								<threshold> 0.2890625 </threshold>
								<split pos="left">
									<output> 0.1236838549375534 </output>
								</split>
								<split pos="right">
									<feature> 108 </feature>
									<threshold> 8.893107 </threshold>
									<split pos="left">
										<output> -0.5192118287086487 </output>
									</split>
									<split pos="right">
										<output> -0.2288791686296463 </output>
									</split>
								</split>
							</split>
							<split pos="right">
								<output> 0.07300106436014175 </output>
							</split>
						</split>
					</split>
				</split>
				<split pos="right">
					<feature> 117 </feature>
					<threshold> -70.28476 </threshold>
					<split pos="left">
						<output> 1.1979974508285522 </output>
					</split>
					<split pos="right">
						<feature> 3 </feature>
						<threshold> 3.0 </threshold>
						<split pos="left">
							<output> 0.2074379175901413 </output>
						</split>
						<split pos="right">
							<output> 0.4756256639957428 </output>
						</split>
					</split>
				</split>
			</split>
			<split pos="right">
				<feature> 130 </feature>
				<threshold> 62723.34 </threshold>
				<split pos="left">
					<feature> 109 </feature>
					<threshold> 20.660793 </threshold>
					<split pos="left">
						<feature> 108 </feature>
						<threshold> 27.790964 </threshold>
						<split pos="left">
							<feature> 136 </feature>
							<threshold> 0.0 </threshold>
							<split pos="left">
								<output> 0.15554670989513397 </output>
							</split>
							<split pos="right">
								<feature> 30 </feature>
								<threshold> 37.007812 </threshold>
								<split pos="left">
									<feature> 116 </feature>
									<threshold> -10.153232 </threshold>
									<split pos="left">
										<feature> 127 </feature>
										<threshold> 23.953125 </threshold>
										<split pos="left">
											<output> 0.5800341963768005 </output>
										</split>
										<split pos="right">
											<output> 0.42445108294487 </output>
										</split>
									</split>
									<split pos="right">
										<output> 0.29273197054862976 </output>
									</split>
								</split>
								<split pos="right">
									<output> 0.5287272334098816 </output>
								</split>
							</split>
						</split>
						<split pos="right">
							<output> 0.8793681263923645 </output>
						</split>
					</split>
					<split pos="right">
						<output> 0.7099320292472839 </output>
					</split>
				</split>
				<split pos="right">
					<feature> 14 </feature>
					<threshold> 4.0 </threshold>
					<split pos="left">
						<feature> 109 </feature>
						<threshold> 12.779038 </threshold>
						<split pos="left">
							<feature> 132 </feature>
							<threshold> 126.0 </threshold>
							<split pos="left">
								<feature> 133 </feature>
								<threshold> 1.0 </threshold>
								<split pos="left">
									<output> 0.9236632585525513 </output>
								</split>
								<split pos="right">
									<feature> 108 </feature>
									<threshold> 28.902603 </threshold>
									<split pos="left">
										<feature> 23 </feature>
										<threshold> 1.0 </threshold>
										<split pos="left">
											<output> 0.5463009476661682 </output>
										</split>
										<split pos="right">
											<feature> 135 </feature>
											<threshold> 9175.684 </threshold>
											<split pos="left">
												<output> 0.6813017725944519 </output>
											</split>
											<split pos="right">
												<output> 1.0968180894851685 </output>
											</split>
										</split>
									</split>
									<split pos="right">
										<output> 1.2798157930374146 </output>
									</split>
								</split>
							</split>
							<split pos="right">
								<output> 1.162419319152832 </output>
							</split>
						</split>
						<split pos="right">
							<output> 1.0396238565444946 </output>
						</split>
					</split>
					<split pos="right">
						<output> 0.49163150787353516 </output>
					</split>
				</split>
			</split>
		</split>
	</tree>
	<tree id="7" weight="0.15">
		<split>
			<feature> 134 </feature>
			<threshold> 0.0 </threshold>
			<split pos="left">
				<feature> 3 </feature>
				<threshold> 2.0 </threshold>
				<split pos="left">
					<feature> 65 </feature>
					<threshold> 0.005917008 </threshold>
					<split pos="left">
						<output> -0.6335670351982117 </output>
					</split>
					<split pos="right">
						<feature> 14 </feature>
						<threshold> 3.0 </threshold>
						<split pos="left">
							<output> 0.355881929397583 </output>
						</split>
						<split pos="right">
							<feature> 16 </feature>
							<threshold> 18.947119 </threshold>
							<split pos="left">
								<feature> 49 </feature>
								<threshold> 0.227273 </threshold>
								<split pos="left">
									<feature> 127 </feature>
									<threshold> 33.929688 </threshold>
									<split pos="left">
										<output> -0.20231981575489044 </output>
									</split>
									<split pos="right">
										<output> -0.3618813455104828 </output>
									</split>
								</split>
								<split pos="right">
									<output> 0.05578422546386719 </output>
								</split>
							</split>
							<split pos="right">
								<output> 0.20697006583213806 </output>
							</split>
						</split>
					</split>
				</split>
				<split pos="right">
					<feature> 14 </feature>
					<threshold> 3.0 </threshold>
					<split pos="left">
						<output> 0.8776332139968872 </output>
					</split>
					<split pos="right">
						<feature> 129 </feature>
						<threshold> 88.0 </threshold>
						<split pos="left">
							<feature> 109 </feature>
							<threshold> 22.011951 </threshold>
							<split pos="left">
								<output> 0.10275670886039734 </output>
							</split>
							<split pos="right">
								<output> 0.396035373210907 </output>
							</split>
						</split>
						<split pos="right">
							<output> 1.3670134544372559 </output>
						</split>
					</split>
				</split>
			</split>
			<split pos="right">
				<feature> 130 </feature>
				<threshold> 65023.79 </threshold>
				<split pos="left">
					<feature> 127 </feature>
					<threshold> 18.964844 </threshold>
					<split pos="left">
						<feature> 106 </feature>
						<threshold> 31.134272 </threshold>
						<split pos="left">
							<feature> 130 </feature>
							<threshold> 54543.965 </threshold>
							<split pos="left">
								<output> 0.3376789391040802 </output>
							</split>
							<split pos="right">
								<output> 0.6218502521514893 </output>
							</split>
						</split>
						<split pos="right">
							<output> 1.0550404787063599 </output>
						</split>
					</split>
					<split pos="right">
						<feature> 108 </feature>
						<threshold> 27.790964 </threshold>
						<split pos="left">
							<feature> 136 </feature>
							<threshold> 0.0 </threshold>
							<split pos="left">
								<output> 0.056836891919374466 </output>
							</split>
							<split pos="right">
								<feature> 109 </feature>
								<threshold> 21.561565 </threshold>
								<split pos="left">
									<feature> 49 </feature>
									<threshold> 0.6 </threshold>
									<split pos="left">
										<feature> 129 </feature>
										<threshold> 0.0 </threshold>
										<split pos="left">
											<output> 0.15434525907039642 </output>
										</split>
										<split pos="right">
											<feature> 126 </feature>
											<threshold> 1.0 </threshold>
											<split pos="left">
												<output> 0.544593095779419 </output>
											</split>
											<split pos="right">
												<feature> 37 </feature>
												<threshold> 0.75 </threshold>
												<split pos="left">
													<output> 0.23526054620742798 </output>
												</split>
												<split pos="right">
													<output> 0.47950631380081177 </output>
												</split>
											</split>
										</split>
									</split>
									<split pos="right">
										<output> 1.2692381143569946 </output>
									</split>
								</split>
								<split pos="right">
									<output> 0.6014197468757629 </output>
								</split>
							</split>
						</split>
						<split pos="right">
							<output> 0.6913393139839172 </output>
						</split>
					</split>
				</split>
				<split pos="right">
					<feature> 54 </feature>
					<threshold> 0.222222 </threshold>
					<split pos="left">
						<feature> 14 </feature>
						<threshold> 4.0 </threshold>
						<split pos="left">
							<feature> 108 </feature>
							<threshold> 17.786213 </threshold>
							<split pos="left">
								<output> 0.6085621118545532 </output>
							</split>
							<split pos="right">
								<output> 1.1196515560150146 </output>
							</split>
						</split>
						<split pos="right">
							<output> 0.4925280213356018 </output>
						</split>
					</split>
					<split pos="right">
						<output> 1.0048702955245972 </output>
					</split>
				</split>
			</split>
		</split>
	</tree>
	<tree id="8" weight="0.15">
		<split>
			<feature> 134 </feature>
			<threshold> 0.0 </threshold>
			<split pos="left">
				<feature> 3 </feature>
				<threshold> 2.0 </threshold>
				<split pos="left">
					<feature> 65 </feature>
					<threshold> 0.005917008 </threshold>
					<split pos="left">
						<output> -0.5959144830703735 </output>
					</split>
					<split pos="right">
						<feature> 14 </feature>
						<threshold> 3.0 </threshold>
						<split pos="left">
							<output> 0.28822875022888184 </output>
						</split>
						<split pos="right">
							<feature> 16 </feature>
							<threshold> 18.947119 </threshold>
							<split pos="left">
								<feature> 49 </feature>
								<threshold> 0.227273 </threshold>
								<split pos="left">
									<feature> 127 </feature>
									<threshold> 33.929688 </threshold>
									<split pos="left">
										<output> -0.14096644520759583 </output>
									</split>
									<split pos="right">
										<output> -0.3514694273471832 </output>
									</split>
								</split>
								<split pos="right">
									<output> 0.0740119069814682 </output>
								</split>
							</split>
							<split pos="right">
								<output> 0.18172095715999603 </output>
							</split>
						</split>
					</split>
				</split>
				<split pos="right">
					<feature> 14 </feature>
					<threshold> 3.0 </threshold>
					<split pos="left">
						<output> 0.7908227443695068 </output>
					</split>
					<split pos="right">
						<feature> 129 </feature>
						<threshold> 88.0 </threshold>
						<split pos="left">
							<feature> 109 </feature>
							<threshold> 22.011951 </threshold>
							<split pos="left">
								<feature> 16 </feature>
								<threshold> 0.9974825 </threshold>
								<split pos="left">
									<output> 1.2176271677017212 </output>
								</split>
								<split pos="right">
									<output> 0.14163528382778168 </output>
								</split>
							</split>
							<split pos="right">
								<output> 0.3355514109134674 </output>
							</split>
						</split>
						<split pos="right">
							<output> 1.165223479270935 </output>
						</split>
					</split>
				</split>
			</split>
			<split pos="right">
				<feature> 130 </feature>
				<threshold> 65023.79 </threshold>
				<split pos="left">
					<feature> 127 </feature>
					<threshold> 18.964844 </threshold>
					<split pos="left">
						<feature> 106 </feature>
						<threshold> 31.134272 </threshold>
						<split pos="left">
							<feature> 129 </feature>
							<threshold> 2.0 </threshold>
							<split pos="left">
								<output> 0.2877725660800934 </output>
							</split>
							<split pos="right">
								<output> 0.6927919387817383 </output>
							</split>
						</split>
						<split pos="right">
							<output> 0.922167956829071 </output>
						</split>
					</split>
					<split pos="right">
						<feature> 108 </feature>
						<threshold> 27.790964 </threshold>
						<split pos="left">
							<feature> 129 </feature>
							<threshold> 3.0 </threshold>
							<split pos="left">
								<feature> 109 </feature>
								<threshold> 22.462337 </threshold>
								<split pos="left">
									<feature> 49 </feature>
									<threshold> 0.6 </threshold>
									<split pos="left">
										<feature> 117 </feature>
										<threshold> -14.056755 </threshold>
										<split pos="left">
											<feature> 130 </feature>
											<threshold> 57611.23 </threshold>
											<split pos="left">
												<output> 0.16332490742206573 </output>
											</split>
											<split pos="right">
												<output> 0.4888968765735626 </output>
											</split>
										</split>
										<split pos="right">
											<output> -0.02887004055082798 </output>
										</split>
									</split>
									<split pos="right">
										<output> 1.2286337614059448 </output>
									</split>
								</split>
								<split pos="right">
									<output> 0.5982518196105957 </output>
								</split>
							</split>
							<split pos="right">
								<feature> 126 </feature>
								<threshold> 1.0 </threshold>
								<split pos="left">
									<output> 0.5585576891899109 </output>
								</split>
								<split pos="right">
									<output> 0.33047354221343994 </output>
								</split>
							</split>
						</split>
						<split pos="right">
							<output> 0.5903772711753845 </output>
						</split>
					</split>
				</split>
				<split pos="right">
					<feature> 54 </feature>
					<threshold> 0.222222 </threshold>
					<split pos="left">
						<feature> 23 </feature>
						<threshold> 1.0 </threshold>
						<split pos="left">
							<output> 0.317417174577713 </output>
						</split>
						<split pos="right">
							<output> 0.7247217893600464 </output>
						</split>
					</split>
					<split pos="right">
						<output> 0.8999416828155518 </output>
					</split>
				</split>
			</split>
		</split>
	</tree>
	<tree id="9" weight="0.15">
		<split>
			<feature> 134 </feature>
			<threshold> 0.0 </threshold>
			<split pos="left">
				<feature> 3 </feature>
				<threshold> 2.0 </threshold>
				<split pos="left">
					<feature> 65 </feature>
					<threshold> 0.008875512 </threshold>
					<split pos="left">
						<output> -0.47425246238708496 </output>
					</split>
					<split pos="right">
						<feature> 14 </feature>
						<threshold> 3.0 </threshold>
						<split pos="left">
							<output> 0.2681279182434082 </output>
						</split>
						<split pos="right">
							<feature> 105 </feature>
							<threshold> 0.015625 </threshold>
							<split pos="left">
								<output> 1.2079288959503174 </output>
							</split>
							<split pos="right">
								<feature> 127 </feature>
								<threshold> 28.941406 </threshold>
								<split pos="left">
									<output> 0.03791099414229393 </output>
								</split>
								<split pos="right">
									<feature> 22 </feature>
									<threshold> 1.0 </threshold>
									<split pos="left">
										<feature> 129 </feature>
										<threshold> 17.0 </threshold>
										<split pos="left">
											<feature> 117 </feature>
											<threshold> -4.216857 </threshold>
											<split pos="left">
												<feature> 3 </feature>
												<threshold> 1.0 </threshold>
												<split pos="left">
													<output> -0.3586934506893158 </output>
												</split>
												<split pos="right">
													<output> -0.15114982426166534 </output>
												</split>
											</split>
											<split pos="right">
												<output> 0.18200653791427612 </output>
											</split>
										</split>
										<split pos="right">
											<output> 0.07758751511573792 </output>
										</split>
									</split>
									<split pos="right">
										<output> 0.1319376528263092 </output>
									</split>
								</split>
							</split>
						</split>
					</split>
				</split>
				<split pos="right">
					<feature> 14 </feature>
					<threshold> 3.0 </threshold>
					<split pos="left">
						<output> 0.6541084051132202 </output>
					</split>
					<split pos="right">
						<feature> 129 </feature>
						<threshold> 88.0 </threshold>
						<split pos="left">
							<feature> 122 </feature>
							<threshold> -2.26364 </threshold>
							<split pos="left">
								<feature> 74 </feature>
								<threshold> 22.58882 </threshold>
								<split pos="left">
									<output> 0.11784679442644119 </output>
								</split>
								<split pos="right">
									<output> 0.30179116129875183 </output>
								</split>
							</split>
							<split pos="right">
								<output> 0.9239276051521301 </output>
							</split>
						</split>
						<split pos="right">
							<output> 1.0131760835647583 </output>
						</split>
					</split>
				</split>
			</split>
			<split pos="right">
				<feature> 130 </feature>
				<threshold> 64512.58 </threshold>
				<split pos="left">
					<feature> 127 </feature>
					<threshold> 18.964844 </threshold>
					<split pos="left">
						<feature> 110 </feature>
						<threshold> 28.361145 </threshold>
						<split pos="left">
							<output> 0.2793149948120117 </output>
						</split>
						<split pos="right">
							<output> 0.8057608008384705 </output>
						</split>
					</split>
					<split pos="right">
						<feature> 108 </feature>
						<threshold> 27.790964 </threshold>
						<split pos="left">
							<feature> 49 </feature>
							<threshold> 0.6 </threshold>
							<split pos="left">
								<feature> 129 </feature>
								<threshold> 5.0 </threshold>
								<split pos="left">
									<feature> 19 </feature>
									<threshold> 17.354837 </threshold>
									<split pos="left">
										<output> 0.012148749083280563 </output>
									</split>
									<split pos="right">
										<output> 0.2898939251899719 </output>
									</split>
								</split>
								<split pos="right">
									<output> 0.33967381715774536 </output>
								</split>
							</split>
							<split pos="right">
								<output> 1.2085436582565308 </output>
							</split>
						</split>
						<split pos="right">
							<output> 0.5089650750160217 </output>
						</split>
					</split>
				</split>
				<split pos="right">
					<feature> 54 </feature>
					<threshold> 0.222222 </threshold>
					<split pos="left">
						<feature> 18 </feature>
						<threshold> 10.819936 </threshold>
						<split pos="left">
							<output> 0.06802062690258026 </output>
						</split>
						<split pos="right">
							<feature> 53 </feature>
							<threshold> 0.0390625 </threshold>
							<split pos="left">
								<output> 0.43732041120529175 </output>
							</split>
							<split pos="right">
								<output> 0.7985720634460449 </output>
							</split>
						</split>
					</split>
					<split pos="right">
						<output> 0.8090091943740845 </output>
					</split>
				</split>
			</split>
		</split>
	</tree>
	<tree id="10" weight="0.15">
		<split>
			<feature> 134 </feature>
			<threshold> 0.0 </threshold>
			<split pos="left">
				<feature> 3 </feature>
				<threshold> 1.0 </threshold>
				<split pos="left">
					<feature> 115 </feature>
					<threshold> -8.260539 </threshold>
					<split pos="left">
						<output> -0.44055405259132385 </output>
					</split>
					<split pos="right">
						<feature> 22 </feature>
						<threshold> 1.0 </threshold>
						<split pos="left">
							<output> -0.14238901436328888 </output>
						</split>
						<split pos="right">
							<output> 0.36930763721466064 </output>
						</split>
					</split>
				</split>
				<split pos="right">
					<feature> 14 </feature>
					<threshold> 3.0 </threshold>
					<split pos="left">
						<output> 0.4114249646663666 </output>
					</split>
					<split pos="right">
						<feature> 4 </feature>
						<threshold> 3.0 </threshold>
						<split pos="left">
							<feature> 117 </feature>
							<threshold> -7.0282564 </threshold>
							<split pos="left">
								<feature> 74 </feature>
								<threshold> 93.37333 </threshold>
								<split pos="left">
									<feature> 107 </feature>
									<threshold> 17.860775 </threshold>
									<split pos="left">
										<feature> 14 </feature>
										<threshold> 4.0 </threshold>
										<split pos="left">
											<output> 0.39651551842689514 </output>
										</split>
										<split pos="right">
											<feature> 74 </feature>
											<threshold> 22.58882 </threshold>
											<split pos="left">
												<feature> 20 </feature>
												<threshold> 19.808985 </threshold>
												<split pos="left">
													<feature> 3 </feature>
													<threshold> 6.0 </threshold>
													<split pos="left">
														<feature> 129 </feature>
														<threshold> 88.0 </threshold>
														<split pos="left">
															<output> -0.09018509089946747 </output>
														</split>
														<split pos="right">
															<output> 0.9631854295730591 </output>
														</split>
													</split>
													<split pos="right">
														<output> 1.381057858467102 </output>
													</split>
												</split>
												<split pos="right">
													<output> 0.2121051847934723 </output>
												</split>
											</split>
											<split pos="right">
												<output> 0.13625629246234894 </output>
											</split>
										</split>
									</split>
									<split pos="right">
										<output> 0.3654005825519562 </output>
									</split>
								</split>
								<split pos="right">
									<output> -4.026820182800293 </output>
								</split>
							</split>
							<split pos="right">
								<output> 0.6753436923027039 </output>
							</split>
						</split>
						<split pos="right">
							<output> 0.34340858459472656 </output>
						</split>
					</split>
				</split>
			</split>
			<split pos="right">
				<feature> 135 </feature>
				<threshold> 9175.684 </threshold>
				<split pos="left">
					<feature> 127 </feature>
					<threshold> 18.964844 </threshold>
					<split pos="left">
						<feature> 110 </feature>
						<threshold> 25.626888 </threshold>
						<split pos="left">
							<feature> 130 </feature>
							<threshold> 65279.395 </threshold>
							<split pos="left">
								<output> 0.20863910019397736 </output>
							</split>
							<split pos="right">
								<output> 0.5028523206710815 </output>
							</split>
						</split>
						<split pos="right">
							<output> 0.7142862677574158 </output>
						</split>
					</split>
					<split pos="right">
						<feature> 108 </feature>
						<threshold> 26.679325 </threshold>
						<split pos="left">
							<feature> 49 </feature>
							<threshold> 0.6 </threshold>
							<split pos="left">
								<feature> 136 </feature>
								<threshold> 0.0 </threshold>
								<split pos="left">
									<output> -0.10698654502630234 </output>
								</split>
								<split pos="right">
									<feature> 133 </feature>
									<threshold> 71.0 </threshold>
									<split pos="left">
										<feature> 129 </feature>
										<threshold> 3.0 </threshold>
										<split pos="left">
											<feature> 18 </feature>
											<threshold> 8.29806 </threshold>
											<split pos="left">
												<output> -0.33340293169021606 </output>
											</split>
											<split pos="right">
												<output> 0.21078753471374512 </output>
											</split>
										</split>
										<split pos="right">
											<output> 0.31223028898239136 </output>
										</split>
									</split>
									<split pos="right">
										<output> -0.11420553922653198 </output>
									</split>
								</split>
							</split>
							<split pos="right">
								<output> 1.1840170621871948 </output>
							</split>
						</split>
						<split pos="right">
							<output> 0.46083542704582214 </output>
						</split>
					</split>
				</split>
				<split pos="right">
					<output> 0.7721878886222839 </output>
				</split>
			</split>
		</split>
	</tree>
	<tree id="11" weight="0.15">
		<split>
			<feature> 134 </feature>
			<threshold> 0.0 </threshold>
			<split pos="left">
				<feature> 50 </feature>
				<threshold> 0.026874391 </threshold>
				<split pos="left">
					<output> -0.36064252257347107 </output>
				</split>
				<split pos="right">
					<feature> 14 </feature>
					<threshold> 3.0 </threshold>
					<split pos="left">
						<output> 0.2822286784648895 </output>
					</split>
					<split pos="right">
						<feature> 107 </feature>
						<threshold> 19.013084 </threshold>
						<split pos="left">
							<feature> 14 </feature>
							<threshold> 4.0 </threshold>
							<split pos="left">
								<output> 0.26171863079071045 </output>
							</split>
							<split pos="right">
								<feature> 4 </feature>
								<threshold> 3.0 </threshold>
								<split pos="left">
									<feature> 16 </feature>
									<threshold> 20.742083 </threshold>
									<split pos="left">
										<feature> 30 </feature>
										<threshold> 6.1679688 </threshold>
										<split pos="left">
											<feature> 3 </feature>
											<threshold> 6.0 </threshold>
											<split pos="left">
												<feature> 5 </feature>
												<threshold> 3.0 </threshold>
												<split pos="left">
													<feature> 101 </feature>
													<threshold> 0.1015625 </threshold>
													<split pos="left">
														<output> 0.1096966415643692 </output>
													</split>
													<split pos="right">
														<output> -0.23672659695148468 </output>
													</split>
												</split>
												<split pos="right">
													<output> 0.023714005947113037 </output>
												</split>
											</split>
											<split pos="right">
												<output> 1.3069416284561157 </output>
											</split>
										</split>
										<split pos="right">
											<output> 0.011851105839014053 </output>
										</split>
									</split>
									<split pos="right">
										<output> 0.18120771646499634 </output>
									</split>
								</split>
								<split pos="right">
									<output> 0.2730194926261902 </output>
								</split>
							</split>
						</split>
						<split pos="right">
							<output> 0.40600547194480896 </output>
						</split>
					</split>
				</split>
			</split>
			<split pos="right">
				<feature> 135 </feature>
				<threshold> 9175.684 </threshold>
				<split pos="left">
					<feature> 127 </feature>
					<threshold> 18.964844 </threshold>
					<split pos="left">
						<feature> 130 </feature>
						<threshold> 44830.957 </threshold>
						<split pos="left">
							<output> 0.040429212152957916 </output>
						</split>
						<split pos="right">
							<feature> 110 </feature>
							<threshold> 22.892632 </threshold>
							<split pos="left">
								<feature> 131 </feature>
								<threshold> 60927.14 </threshold>
								<split pos="left">
									<output> 0.33664822578430176 </output>
								</split>
								<split pos="right">
									<output> -0.4961671829223633 </output>
								</split>
							</split>
							<split pos="right">
								<output> 0.8573427200317383 </output>
							</split>
						</split>
					</split>
					<split pos="right">
						<feature> 3 </feature>
						<threshold> 2.0 </threshold>
						<split pos="left">
							<feature> 127 </feature>
							<threshold> 23.953125 </threshold>
							<split pos="left">
								<feature> 19 </feature>
								<threshold> 11.597238 </threshold>
								<split pos="left">
									<output> -0.1462259441614151 </output>
								</split>
								<split pos="right">
									<output> 0.39472243189811707 </output>
								</split>
							</split>
							<split pos="right">
								<feature> 102 </feature>
								<threshold> 0.6484375 </threshold>
								<split pos="left">
									<feature> 12 </feature>
									<threshold> 67.0 </threshold>
									<split pos="left">
										<feature> 49 </feature>
										<threshold> 0.6 </threshold>
										<split pos="left">
											<feature> 108 </feature>
											<threshold> 31.125881 </threshold>
											<split pos="left">
												<feature> 84 </feature>
												<threshold> 29.66989 </threshold>
												<split pos="left">
													<output> -0.056884098798036575 </output>
												</split>
												<split pos="right">
													<output> 1.1458148956298828 </output>
												</split>
											</split>
											<split pos="right">
												<output> 0.4541318714618683 </output>
											</split>
										</split>
										<split pos="right">
											<output> 1.2105445861816406 </output>
										</split>
									</split>
									<split pos="right">
										<output> -5.467326641082764 </output>
									</split>
								</split>
								<split pos="right">
									<output> 0.20909827947616577 </output>
								</split>
							</split>
						</split>
						<split pos="right">
							<output> 0.42298969626426697 </output>
						</split>
					</split>
				</split>
				<split pos="right">
					<output> 0.6844925284385681 </output>
				</split>
			</split>
		</split>
	</tree>
	<tree id="12" weight="0.15">
		<split>
			<feature> 134 </feature>
			<threshold> 0.0 </threshold>
			<split pos="left">
				<feature> 3 </feature>
				<threshold> 2.0 </threshold>
				<split pos="left">
					<feature> 65 </feature>
					<threshold> 0.011834016 </threshold>
					<split pos="left">
						<feature> 11 </feature>
						<threshold> 52.890625 </threshold>
						<split pos="left">
							<output> 0.37781959772109985 </output>
						</split>
						<split pos="right">
							<output> -0.38617026805877686 </output>
						</split>
					</split>
					<split pos="right">
						<feature> 14 </feature>
						<threshold> 4.0 </threshold>
						<split pos="left">
							<feature> 105 </feature>
							<threshold> 0.015625 </threshold>
							<split pos="left">
								<output> 1.6604994535446167 </output>
							</split>
							<split pos="right">
								<feature> 86 </feature>
								<threshold> -62.649963 </threshold>
								<split pos="left">
									<output> 1.4304884672164917 </output>
								</split>
								<split pos="right">
									<feature> 110 </feature>
									<threshold> 80.31204 </threshold>
									<split pos="left">
										<feature> 126 </feature>
										<threshold> 1.0 </threshold>
										<split pos="left">
											<output> 0.037939880043268204 </output>
										</split>
										<split pos="right">
											<output> 0.6497052311897278 </output>
										</split>
									</split>
									<split pos="right">
										<output> 1.405006766319275 </output>
									</split>
								</split>
							</split>
						</split>
						<split pos="right">
							<feature> 107 </feature>
							<threshold> 12.675388 </threshold>
							<split pos="left">
								<feature> 129 </feature>
								<threshold> 16.0 </threshold>
								<split pos="left">
									<feature> 130 </feature>
									<threshold> 17225.566 </threshold>
									<split pos="left">
										<output> -0.19991324841976166 </output>
									</split>
									<split pos="right">
										<output> -0.055497974157333374 </output>
									</split>
								</split>
								<split pos="right">
									<output> 0.15645703673362732 </output>
								</split>
							</split>
							<split pos="right">
								<output> 0.24088647961616516 </output>
							</split>
						</split>
					</split>
				</split>
				<split pos="right">
					<feature> 14 </feature>
					<threshold> 3.0 </threshold>
					<split pos="left">
						<output> 0.4305284321308136 </output>
					</split>
					<split pos="right">
						<feature> 47 </feature>
						<threshold> 0.6640624 </threshold>
						<split pos="left">
							<feature> 129 </feature>
							<threshold> 88.0 </threshold>
							<split pos="left">
								<feature> 16 </feature>
								<threshold> 0.9974825 </threshold>
								<split pos="left">
									<output> 1.094353199005127 </output>
								</split>
								<split pos="right">
									<output> 0.1332981288433075 </output>
								</split>
							</split>
							<split pos="right">
								<output> 0.8714398741722107 </output>
							</split>
						</split>
						<split pos="right">
							<output> 0.45579224824905396 </output>
						</split>
					</split>
				</split>
			</split>
			<split pos="right">
				<feature> 135 </feature>
				<threshold> 9175.684 </threshold>
				<split pos="left">
					<feature> 130 </feature>
					<threshold> 54543.965 </threshold>
					<split pos="left">
						<feature> 108 </feature>
						<threshold> 31.125881 </threshold>
						<split pos="left">
							<feature> 129 </feature>
							<threshold> 1.0 </threshold>
							<split pos="left">
								<output> -0.06291381269693375 </output>
							</split>
							<split pos="right">
								<feature> 14 </feature>
								<threshold> 4.0 </threshold>
								<split pos="left">
									<output> 0.40403804183006287 </output>
								</split>
								<split pos="right">
									<output> 0.12974078953266144 </output>
								</split>
							</split>
						</split>
						<split pos="right">
							<output> 0.45193493366241455 </output>
						</split>
					</split>
					<split pos="right">
						<feature> 110 </feature>
						<threshold> 22.892632 </threshold>
						<split pos="left">
							<feature> 133 </feature>
							<threshold> 5.0 </threshold>
							<split pos="left">
								<feature> 127 </feature>
								<threshold> 13.9765625 </threshold>
								<split pos="left">
									<output> 0.6421736478805542 </output>
								</split>
								<split pos="right">
									<output> 0.22739377617835999 </output>
								</split>
							</split>
							<split pos="right">
								<output> -0.018342165276408195 </output>
							</split>
						</split>
						<split pos="right">
							<output> 0.6312733292579651 </output>
						</split>
					</split>
				</split>
				<split pos="right">
					<output> 0.6095743179321289 </output>
				</split>
			</split>
		</split>
	</tree>
	<tree id="13" weight="0.15">
		<split>
			<feature> 134 </feature>
			<threshold> 0.0 </threshold>
			<split pos="left">
				<feature> 3 </feature>
				<threshold> 1.0 </threshold>
				<split pos="left">
					<feature> 124 </feature>
					<threshold> -14.175922 </threshold>
					<split pos="left">
						<output> -0.38206231594085693 </output>
					</split>
					<split pos="right">
						<feature> 14 </feature>
						<threshold> 2.0 </threshold>
						<split pos="left">
							<output> 1.3281161785125732 </output>
						</split>
						<split pos="right">
							<feature> 129 </feature>
							<threshold> 0.0 </threshold>
							<split pos="left">
								<output> -0.18240748345851898 </output>
							</split>
							<split pos="right">
								<output> 0.038734860718250275 </output>
							</split>
						</split>
					</split>
				</split>
				<split pos="right">
					<feature> 14 </feature>
					<threshold> 3.0 </threshold>
					<split pos="left">
						<output> 0.28545239567756653 </output>
					</split>
					<split pos="right">
						<feature> 107 </feature>
						<threshold> 19.013084 </threshold>
						<split pos="left">
							<feature> 14 </feature>
							<threshold> 4.0 </threshold>
							<split pos="left">
								<output> 0.3740634322166443 </output>
							</split>
							<split pos="right">
								<feature> 117 </feature>
								<threshold> -7.0282564 </threshold>
								<split pos="left">
									<feature> 4 </feature>
									<threshold> 7.0 </threshold>
									<split pos="left">
										<feature> 4 </feature>
										<threshold> 3.0 </threshold>
										<split pos="left">
											<feature> 107 </feature>
											<threshold> 10.370773 </threshold>
											<split pos="left">
												<feature> 24 </feature>
												<threshold> 10.0 </threshold>
												<split pos="left">
													<feature> 129 </feature>
													<threshold> 88.0 </threshold>
													<split pos="left">
														<feature> 132 </feature>
														<threshold> 149.0 </threshold>
														<split pos="left">
															<feature> 75 </feature>
															<threshold> 104.391174 </threshold>
															<split pos="left">
																<output> -0.09976137429475784 </output>
															</split>
															<split pos="right">
																<output> 0.05151832103729248 </output>
															</split>
														</split>
														<split pos="right">
															<output> -0.7700651288032532 </output>
														</split>
													</split>
													<split pos="right">
														<output> 0.9507494568824768 </output>
													</split>
												</split>
												<split pos="right">
													<output> -3.8238656520843506 </output>
												</split>
											</split>
											<split pos="right">
												<output> 0.18159879744052887 </output>
											</split>
										</split>
										<split pos="right">
											<output> 0.20081527531147003 </output>
										</split>
									</split>
									<split pos="right">
										<output> 0.9741926789283752 </output>
									</split>
								</split>
								<split pos="right">
									<output> 0.5974207520484924 </output>
								</split>
							</split>
						</split>
						<split pos="right">
							<output> 0.31794580817222595 </output>
						</split>
					</split>
				</split>
			</split>
			<split pos="right">
				<feature> 130 </feature>
				<threshold> 64512.58 </threshold>
				<split pos="left">
					<feature> 18 </feature>
					<threshold> 18.385563 </threshold>
					<split pos="left">
						<feature> 49 </feature>
						<threshold> 0.6 </threshold>
						<split pos="left">
							<feature> 129 </feature>
							<threshold> 0.0 </threshold>
							<split pos="left">
								<output> -0.1284446120262146 </output>
							</split>
							<split pos="right">
								<feature> 127 </feature>
								<threshold> 18.964844 </threshold>
								<split pos="left">
									<output> 0.35047098994255066 </output>
								</split>
								<split pos="right">
									<feature> 103 </feature>
									<threshold> 0.765625 </threshold>
									<split pos="left">
										<output> -0.24083490669727325 </output>
									</split>
									<split pos="right">
										<output> 0.1251869946718216 </output>
									</split>
								</split>
							</split>
						</split>
						<split pos="right">
							<output> 1.1571546792984009 </output>
						</split>
					</split>
					<split pos="right">
						<output> 0.3192223310470581 </output>
					</split>
				</split>
				<split pos="right">
					<feature> 54 </feature>
					<threshold> 0.222222 </threshold>
					<split pos="left">
						<feature> 18 </feature>
						<threshold> 10.819936 </threshold>
						<split pos="left">
							<output> -0.08961812406778336 </output>
						</split>
						<split pos="right">
							<output> 0.4441639184951782 </output>
						</split>
					</split>
					<split pos="right">
						<output> 0.6760541200637817 </output>
					</split>
				</split>
			</split>
		</split>
	</tree>
	<tree id="14" weight="0.15">
		<split>
			<feature> 134 </feature>
			<threshold> 0.0 </threshold>
			<split pos="left">
				<feature> 4 </feature>
				<threshold> 7.0 </threshold>
				<split pos="left">
					<feature> 65 </feature>
					<threshold> 0.008875512 </threshold>
					<split pos="left">
						<output> -0.32890433073043823 </output>
					</split>
					<split pos="right">
						<feature> 14 </feature>
						<threshold> 4.0 </threshold>
						<split pos="left">
							<feature> 105 </feature>
							<threshold> 0.015625 </threshold>
							<split pos="left">
								<output> 1.4436246156692505 </output>
							</split>
							<split pos="right">
								<feature> 126 </feature>
								<threshold> 1.0 </threshold>
								<split pos="left">
									<feature> 48 </feature>
									<threshold> 0.7421875 </threshold>
									<split pos="left">
										<output> 0.026343250647187233 </output>
									</split>
									<split pos="right">
										<output> 0.6109746694564819 </output>
									</split>
								</split>
								<split pos="right">
									<output> 0.6416816115379333 </output>
								</split>
							</split>
						</split>
						<split pos="right">
							<feature> 107 </feature>
							<threshold> 12.675388 </threshold>
							<split pos="left">
								<feature> 49 </feature>
								<threshold> 0.146341 </threshold>
								<split pos="left">
									<output> -0.13684454560279846 </output>
								</split>
								<split pos="right">
									<output> 0.04162868112325668 </output>
								</split>
							</split>
							<split pos="right">
								<output> 0.24580442905426025 </output>
							</split>
						</split>
					</split>
				</split>
				<split pos="right">
					<output> 1.154298186302185 </output>
				</split>
			</split>
			<split pos="right">
				<feature> 135 </feature>
				<threshold> 9175.684 </threshold>
				<split pos="left">
					<feature> 130 </feature>
					<threshold> 47131.406 </threshold>
					<split pos="left">
						<feature> 3 </feature>
						<threshold> 3.0 </threshold>
						<split pos="left">
							<feature> 129 </feature>
							<threshold> 9.0 </threshold>
							<split pos="left">
								<feature> 117 </feature>
								<threshold> -43.576447 </threshold>
								<split pos="left">
									<output> 1.1947152614593506 </output>
								</split>
								<split pos="right">
									<feature> 103 </feature>
									<threshold> 0.62109375 </threshold>
									<split pos="left">
										<output> -0.40157386660575867 </output>
									</split>
									<split pos="right">
										<feature> 14 </feature>
										<threshold> 3.0 </threshold>
										<split pos="left">
											<output> 0.40300413966178894 </output>
										</split>
										<split pos="right">
											<feature> 133 </feature>
											<threshold> 115.0 </threshold>
											<split pos="left">
												<output> 0.026029309257864952 </output>
											</split>
											<split pos="right">
												<output> -0.4100113809108734 </output>
											</split>
										</split>
									</split>
								</split>
							</split>
							<split pos="right">
								<output> 0.22134912014007568 </output>
							</split>
						</split>
						<split pos="right">
							<output> 0.5065377354621887 </output>
						</split>
					</split>
					<split pos="right">
						<feature> 109 </feature>
						<threshold> 17.057705 </threshold>
						<split pos="left">
							<feature> 108 </feature>
							<threshold> 20.009491 </threshold>
							<split pos="left">
								<feature> 136 </feature>
								<threshold> 0.0 </threshold>
								<split pos="left">
									<output> -1.0161768198013306 </output>
								</split>
								<split pos="right">
									<feature> 109 </feature>
									<threshold> 15.030969 </threshold>
									<split pos="left">
										<feature> 14 </feature>
										<threshold> 4.0 </threshold>
										<split pos="left">
											<feature> 16 </feature>
											<threshold> 1.8949642 </threshold>
											<split pos="left">
												<output> -0.7080565094947815 </output>
											</split>
											<split pos="right">
												<feature> 133 </feature>
												<threshold> 5.0 </threshold>
												<split pos="left">
													<output> 0.3719334006309509 </output>
												</split>
												<split pos="right">
													<output> 0.0718894973397255 </output>
												</split>
											</split>
										</split>
										<split pos="right">
											<output> -0.055582351982593536 </output>
										</split>
									</split>
									<split pos="right">
										<output> 0.5882225632667542 </output>
									</split>
								</split>
							</split>
							<split pos="right">
								<output> 0.5497420430183411 </output>
							</split>
						</split>
						<split pos="right">
							<output> 0.7512153387069702 </output>
						</split>
					</split>
				</split>
				<split pos="right">
					<output> 0.5166501998901367 </output>
				</split>
			</split>
		</split>
	</tree>
	<tree id="15" weight="0.15">
		<split>
			<feature> 134 </feature>
			<threshold> 52908.69 </threshold>
			<split pos="left">
				<feature> 134 </feature>
				<threshold> 0.0 </threshold>
				<split pos="left">
					<feature> 4 </feature>
					<threshold> 7.0 </threshold>
					<split pos="left">
						<feature> 65 </feature>
						<threshold> 0.005917008 </threshold>
						<split pos="left">
							<output> -0.36625584959983826 </output>
						</split>
						<split pos="right">
							<feature> 14 </feature>
							<threshold> 4.0 </threshold>
							<split pos="left">
								<feature> 126 </feature>
								<threshold> 1.0 </threshold>
								<split pos="left">
									<feature> 105 </feature>
									<threshold> 0.015625 </threshold>
									<split pos="left">
										<output> 1.246707797050476 </output>
									</split>
									<split pos="right">
										<feature> 86 </feature>
										<threshold> -62.649963 </threshold>
										<split pos="left">
											<output> 1.0849579572677612 </output>
										</split>
										<split pos="right">
											<output> 0.04736873134970665 </output>
										</split>
									</split>
								</split>
								<split pos="right">
									<output> 0.5575127601623535 </output>
								</split>
							</split>
							<split pos="right">
								<feature> 72 </feature>
								<threshold> 26.810936 </threshold>
								<split pos="left">
									<feature> 3 </feature>
									<threshold> 2.0 </threshold>
									<split pos="left">
										<feature> 129 </feature>
										<threshold> 17.0 </threshold>
										<split pos="left">
											<feature> 130 </feature>
											<threshold> 32306.29 </threshold>
											<split pos="left">
												<feature> 117 </feature>
												<threshold> -4.216857 </threshold>
												<split pos="left">
													<feature> 124 </feature>
													<threshold> -0.7464102 </threshold>
													<split pos="left">
														<feature> 55 </feature>
														<threshold> 0.005917008 </threshold>
														<split pos="left">
															<output> -0.2373272329568863 </output>
														</split>
														<split pos="right">
															<output> -0.1293501853942871 </output>
														</split>
													</split>
													<split pos="right">
														<output> 0.7889541387557983 </output>
													</split>
												</split>
												<split pos="right">
													<output> 0.14358726143836975 </output>
												</split>
											</split>
											<split pos="right">
												<output> -0.00435206713154912 </output>
											</split>
										</split>
										<split pos="right">
											<output> 0.19280721247196198 </output>
										</split>
									</split>
									<split pos="right">
										<output> 0.09972291439771652 </output>
									</split>
								</split>
								<split pos="right">
									<output> 0.40487655997276306 </output>
								</split>
							</split>
						</split>
					</split>
					<split pos="right">
						<output> 1.0679705142974854 </output>
					</split>
				</split>
				<split pos="right">
					<feature> 130 </feature>
					<threshold> 57100.02 </threshold>
					<split pos="left">
						<feature> 3 </feature>
						<threshold> 3.0 </threshold>
						<split pos="left">
							<feature> 49 </feature>
							<threshold> 0.6 </threshold>
							<split pos="left">
								<feature> 129 </feature>
								<threshold> 5.0 </threshold>
								<split pos="left">
									<feature> 117 </feature>
									<threshold> -43.576447 </threshold>
									<split pos="left">
										<output> 1.1673721075057983 </output>
									</split>
									<split pos="right">
										<feature> 133 </feature>
										<threshold> 10.0 </threshold>
										<split pos="left">
											<output> 0.06300189346075058 </output>
										</split>
										<split pos="right">
											<output> -0.13792090117931366 </output>
										</split>
									</split>
								</split>
								<split pos="right">
									<output> 0.1620532125234604 </output>
								</split>
							</split>
							<split pos="right">
								<output> 1.1308635473251343 </output>
							</split>
						</split>
						<split pos="right">
							<output> 0.5368834733963013 </output>
						</split>
					</split>
					<split pos="right">
						<feature> 110 </feature>
						<threshold> 22.892632 </threshold>
						<split pos="left">
							<feature> 54 </feature>
							<threshold> 0.222222 </threshold>
							<split pos="left">
								<feature> 18 </feature>
								<threshold> 10.819936 </threshold>
								<split pos="left">
									<output> -0.2295869141817093 </output>
								</split>
								<split pos="right">
									<output> 0.20423440635204315 </output>
								</split>
							</split>
							<split pos="right">
								<output> 0.38266420364379883 </output>
							</split>
						</split>
						<split pos="right">
							<output> 0.5475640296936035 </output>
						</split>
					</split>
				</split>
			</split>
			<split pos="right">
				<output> 0.6682862639427185 </output>
			</split>
		</split>
	</tree>
	<tree id="16" weight="0.15">
		<split>
			<feature> 134 </feature>
			<threshold> 105817.38 </threshold>
			<split pos="left">
				<feature> 134 </feature>
				<threshold> 0.0 </threshold>
				<split pos="left">
					<feature> 4 </feature>
					<threshold> 7.0 </threshold>
					<split pos="left">
						<feature> 108 </feature>
						<threshold> 10.0047455 </threshold>
						<split pos="left">
							<feature> 11 </feature>
							<threshold> 793.3594 </threshold>
							<split pos="left">
								<feature> 101 </feature>
								<threshold> 0.28515625 </threshold>
								<split pos="left">
									<output> 0.093547523021698 </output>
								</split>
								<split pos="right">
									<output> -0.22473815083503723 </output>
								</split>
							</split>
							<split pos="right">
								<output> -0.46530774235725403 </output>
							</split>
						</split>
						<split pos="right">
							<feature> 86 </feature>
							<threshold> -62.649963 </threshold>
							<split pos="left">
								<output> 1.084066390991211 </output>
							</split>
							<split pos="right">
								<feature> 14 </feature>
								<threshold> 4.0 </threshold>
								<split pos="left">
									<feature> 126 </feature>
									<threshold> 1.0 </threshold>
									<split pos="left">
										<output> 0.10244910418987274 </output>
									</split>
									<split pos="right">
										<output> 0.4977867305278778 </output>
									</split>
								</split>
								<split pos="right">
									<feature> 72 </feature>
									<threshold> 26.810936 </threshold>
									<split pos="left">
										<feature> 117 </feature>
										<threshold> -5.6225567 </threshold>
										<split pos="left">
											<feature> 47 </feature>
											<threshold> 0.7194008 </threshold>
											<split pos="left">
												<feature> 30 </feature>
												<threshold> 6.1679688 </threshold>
												<split pos="left">
													<feature> 24 </feature>
													<threshold> 5.0 </threshold>
													<split pos="left">
														<feature> 3 </feature>
														<threshold> 4.0 </threshold>
														<split pos="left">
															<output> -0.09450254589319229 </output>
														</split>
														<split pos="right">
															<output> 0.5018896460533142 </output>
														</split>
													</split>
													<split pos="right">
														<output> -0.6456799507141113 </output>
													</split>
												</split>
												<split pos="right">
													<output> 0.054404549300670624 </output>
												</split>
											</split>
											<split pos="right">
												<output> 0.18848846852779388 </output>
											</split>
										</split>
										<split pos="right">
											<output> 0.3583995997905731 </output>
										</split>
									</split>
									<split pos="right">
										<output> 0.36490297317504883 </output>
									</split>
								</split>
							</split>
						</split>
					</split>
					<split pos="right">
						<output> 0.995199978351593 </output>
					</split>
				</split>
				<split pos="right">
					<feature> 126 </feature>
					<threshold> 1.0 </threshold>
					<split pos="left">
						<feature> 108 </feature>
						<threshold> 28.902603 </threshold>
						<split pos="left">
							<feature> 130 </feature>
							<threshold> 34862.344 </threshold>
							<split pos="left">
								<output> -0.06827262043952942 </output>
							</split>
							<split pos="right">
								<feature> 109 </feature>
								<threshold> 17.057705 </threshold>
								<split pos="left">
									<feature> 133 </feature>
									<threshold> 3.0 </threshold>
									<split pos="left">
										<output> 0.3908471167087555 </output>
									</split>
									<split pos="right">
										<feature> 131 </feature>
										<threshold> 55295.312 </threshold>
										<split pos="left">
											<feature> 129 </feature>
											<threshold> 0.0 </threshold>
											<split pos="left">
												<output> -0.012448550201952457 </output>
											</split>
											<split pos="right">
												<output> 0.30427971482276917 </output>
											</split>
										</split>
										<split pos="right">
											<output> -0.5738880634307861 </output>
										</split>
									</split>
								</split>
								<split pos="right">
									<output> 0.8310375809669495 </output>
								</split>
							</split>
						</split>
						<split pos="right">
							<output> 0.7744333148002625 </output>
						</split>
					</split>
					<split pos="right">
						<feature> 14 </feature>
						<threshold> 3.0 </threshold>
						<split pos="left">
							<output> 1.2047922611236572 </output>
						</split>
						<split pos="right">
							<feature> 107 </feature>
							<threshold> 6.9138503 </threshold>
							<split pos="left">
								<output> -0.11710409820079803 </output>
							</split>
							<split pos="right">
								<output> 0.16724248230457306 </output>
							</split>
						</split>
					</split>
				</split>
			</split>
			<split pos="right">
				<output> 0.7241291403770447 </output>
			</split>
		</split>
	</tree>
	<tree id="17" weight="0.15">
		<split>
			<feature> 134 </feature>
			<threshold> 105817.38 </threshold>
			<split pos="left">
				<feature> 134 </feature>
				<threshold> 0.0 </threshold>
				<split pos="left">
					<feature> 4 </feature>
					<threshold> 7.0 </threshold>
					<split pos="left">
						<feature> 55 </feature>
						<threshold> 0.005917008 </threshold>
						<split pos="left">
							<feature> 15 </feature>
							<threshold> 372.5625 </threshold>
							<split pos="left">
								<feature> 14 </feature>
								<threshold> 2.0 </threshold>
								<split pos="left">
									<output> 1.3179062604904175 </output>
								</split>
								<split pos="right">
									<feature> 132 </feature>
									<threshold> 15.0 </threshold>
									<split pos="left">
										<output> -0.0991130918264389 </output>
									</split>
									<split pos="right">
										<output> 0.20872493088245392 </output>
									</split>
								</split>
							</split>
							<split pos="right">
								<feature> 48 </feature>
								<threshold> 0.09277344 </threshold>
								<split pos="left">
									<output> -0.4687596559524536 </output>
								</split>
								<split pos="right">
									<feature> 119 </feature>
									<threshold> -3.1512136 </threshold>
									<split pos="left">
										<feature> 112 </feature>
										<threshold> -7.9327393 </threshold>
										<split pos="left">
											<output> -0.14116249978542328 </output>
										</split>
										<split pos="right">
											<output> 0.1791585385799408 </output>
										</split>
									</split>
									<split pos="right">
										<output> 0.988149106502533 </output>
									</split>
								</split>
							</split>
						</split>
						<split pos="right">
							<feature> 72 </feature>
							<threshold> 26.810936 </threshold>
							<split pos="left">
								<feature> 14 </feature>
								<threshold> 4.0 </threshold>
								<split pos="left">
									<feature> 86 </feature>
									<threshold> -62.649963 </threshold>
									<split pos="left">
										<output> 1.0226657390594482 </output>
									</split>
									<split pos="right">
										<output> 0.20673443377017975 </output>
									</split>
								</split>
								<split pos="right">
									<feature> 105 </feature>
									<threshold> 0.390625 </threshold>
									<split pos="left">
										<output> 1.3090922832489014 </output>
									</split>
									<split pos="right">
										<feature> 125 </feature>
										<threshold> -14.398953 </threshold>
										<split pos="left">
											<output> 0.27123957872390747 </output>
										</split>
										<split pos="right">
											<output> -0.02469530887901783 </output>
										</split>
									</split>
								</split>
							</split>
							<split pos="right">
								<output> 0.4389496445655823 </output>
							</split>
						</split>
					</split>
					<split pos="right">
						<output> 0.8924218416213989 </output>
					</split>
				</split>
				<split pos="right">
					<feature> 126 </feature>
					<threshold> 1.0 </threshold>
					<split pos="left">
						<feature> 108 </feature>
						<threshold> 22.232769 </threshold>
						<split pos="left">
							<feature> 129 </feature>
							<threshold> 0.0 </threshold>
							<split pos="left">
								<output> -0.04810011386871338 </output>
							</split>
							<split pos="right">
								<feature> 109 </feature>
								<threshold> 13.905004 </threshold>
								<split pos="left">
									<feature> 28 </feature>
									<threshold> 2.0 </threshold>
									<split pos="left">
										<feature> 132 </feature>
										<threshold> 13.0 </threshold>
										<split pos="left">
											<output> 0.20528095960617065 </output>
										</split>
										<split pos="right">
											<output> -0.17309851944446564 </output>
										</split>
									</split>
									<split pos="right">
										<output> 0.618772029876709 </output>
									</split>
								</split>
								<split pos="right">
									<output> 0.5578151941299438 </output>
								</split>
							</split>
						</split>
						<split pos="right">
							<output> 0.5560283064842224 </output>
						</split>
					</split>
					<split pos="right">
						<feature> 2 </feature>
						<threshold> 2.0 </threshold>
						<split pos="left">
							<feature> 14 </feature>
							<threshold> 3.0 </threshold>
							<split pos="left">
								<output> 1.1711360216140747 </output>
							</split>
							<split pos="right">
								<feature> 104 </feature>
								<threshold> 0.765625 </threshold>
								<split pos="left">
									<output> -0.14912091195583344 </output>
								</split>
								<split pos="right">
									<output> 0.07485266029834747 </output>
								</split>
							</split>
						</split>
						<split pos="right">
							<output> 0.42882904410362244 </output>
						</split>
					</split>
				</split>
			</split>
			<split pos="right">
				<output> 0.6147812008857727 </output>
			</split>
		</split>
	</tree>
	<tree id="18" weight="0.15">
		<split>
			<feature> 134 </feature>
			<threshold> 105817.38 </threshold>
			<split pos="left">
				<feature> 134 </feature>
				<threshold> 0.0 </threshold>
				<split pos="left">
					<feature> 4 </feature>
					<threshold> 7.0 </threshold>
					<split pos="left">
						<feature> 3 </feature>
						<threshold> 2.0 </threshold>
						<split pos="left">
							<feature> 115 </feature>
							<threshold> -9.76249 </threshold>
							<split pos="left">
								<feature> 15 </feature>
								<threshold> 54.9375 </threshold>
								<split pos="left">
									<output> 0.4296889305114746 </output>
								</split>
								<split pos="right">
									<feature> 65 </feature>
									<threshold> 0.002958504 </threshold>
									<split pos="left">
										<output> -0.718727707862854 </output>
									</split>
									<split pos="right">
										<feature> 110 </feature>
										<threshold> 36.563915 </threshold>
										<split pos="left">
											<output> -0.18501128256320953 </output>
										</split>
										<split pos="right">
											<output> 0.21053488552570343 </output>
										</split>
									</split>
								</split>
							</split>
							<split pos="right">
								<feature> 14 </feature>
								<threshold> 2.0 </threshold>
								<split pos="left">
									<output> 1.0035779476165771 </output>
								</split>
								<split pos="right">
									<feature> 129 </feature>
									<threshold> 2.0 </threshold>
									<split pos="left">
										<feature> 130 </feature>
										<threshold> 63745.76 </threshold>
										<split pos="left">
											<feature> 86 </feature>
											<threshold> -62.649963 </threshold>
											<split pos="left">
												<output> 0.6815096735954285 </output>
											</split>
											<split pos="right">
												<feature> 133 </feature>
												<threshold> 135.0 </threshold>
												<split pos="left">
													<feature> 20 </feature>
													<threshold> 32.3681 </threshold>
													<split pos="left">
														<feature> 93 </feature>
														<threshold> 0.0 </threshold>
														<split pos="left">
															<output> -0.17425408959388733 </output>
														</split>
														<split pos="right">
															<output> -4.813152481801808E-4 </output>
														</split>
													</split>
													<split pos="right">
														<output> 1.2243452072143555 </output>
													</split>
												</split>
												<split pos="right">
													<output> -0.49103596806526184 </output>
												</split>
											</split>
										</split>
										<split pos="right">
											<output> 0.36797070503234863 </output>
										</split>
									</split>
									<split pos="right">
										<output> 0.19367191195487976 </output>
									</split>
								</split>
							</split>
						</split>
						<split pos="right">
							<feature> 14 </feature>
							<threshold> 4.0 </threshold>
							<split pos="left">
								<output> 0.4200623631477356 </output>
							</split>
							<split pos="right">
								<output> 0.1103195995092392 </output>
							</split>
						</split>
					</split>
					<split pos="right">
						<output> 0.8221242427825928 </output>
					</split>
				</split>
				<split pos="right">
					<feature> 130 </feature>
					<threshold> 57100.02 </threshold>
					<split pos="left">
						<feature> 17 </feature>
						<threshold> 26.652317 </threshold>
						<split pos="left">
							<feature> 49 </feature>
							<threshold> 0.6 </threshold>
							<split pos="left">
								<feature> 60 </feature>
								<threshold> 0.029585043 </threshold>
								<split pos="left">
									<output> -0.15337345004081726 </output>
								</split>
								<split pos="right">
									<feature> 129 </feature>
									<threshold> 6.0 </threshold>
									<split pos="left">
										<output> -7.943976088427007E-4 </output>
									</split>
									<split pos="right">
										<output> 0.18329483270645142 </output>
									</split>
								</split>
							</split>
							<split pos="right">
								<output> 1.1144052743911743 </output>
							</split>
						</split>
						<split pos="right">
							<output> 0.3033611476421356 </output>
						</split>
					</split>
					<split pos="right">
						<feature> 108 </feature>
						<threshold> 22.232769 </threshold>
						<split pos="left">
							<feature> 54 </feature>
							<threshold> 0.222222 </threshold>
							<split pos="left">
								<feature> 108 </feature>
								<threshold> 13.33966 </threshold>
								<split pos="left">
									<output> -0.05988721922039986 </output>
								</split>
								<split pos="right">
									<output> 0.2774469554424286 </output>
								</split>
							</split>
							<split pos="right">
								<output> 0.4095694422721863 </output>
							</split>
						</split>
						<split pos="right">
							<output> 0.6049067378044128 </output>
						</split>
					</split>
				</split>
			</split>
			<split pos="right">
				<output> 0.560488224029541 </output>
			</split>
		</split>
	</tree>
	<tree id="19" weight="0.15">
		<split>
			<feature> 134 </feature>
			<threshold> 105817.38 </threshold>
			<split pos="left">
				<feature> 14 </feature>
				<threshold> 4.0 </threshold>
				<split pos="left">
					<feature> 108 </feature>
					<threshold> 24.456047 </threshold>
					<split pos="left">
						<feature> 109 </feature>
						<threshold> 17.057705 </threshold>
						<split pos="left">
							<feature> 86 </feature>
							<threshold> -62.649963 </threshold>
							<split pos="left">
								<output> 0.8058777451515198 </output>
							</split>
							<split pos="right">
								<feature> 126 </feature>
								<threshold> 1.0 </threshold>
								<split pos="left">
									<feature> 134 </feature>
									<threshold> 0.0 </threshold>
									<split pos="left">
										<feature> 48 </feature>
										<threshold> 1.5029297 </threshold>
										<split pos="left">
											<feature> 69 </feature>
											<threshold> 0.017929686 </threshold>
											<split pos="left">
												<output> -0.05166562274098396 </output>
											</split>
											<split pos="right">
												<output> 1.0120775699615479 </output>
											</split>
										</split>
										<split pos="right">
											<output> 1.1797624826431274 </output>
										</split>
									</split>
									<split pos="right">
										<feature> 130 </feature>
										<threshold> 65023.79 </threshold>
										<split pos="left">
											<feature> 131 </feature>
											<threshold> 47103.562 </threshold>
											<split pos="left">
												<feature> 129 </feature>
												<threshold> 5.0 </threshold>
												<split pos="left">
													<feature> 133 </feature>
													<threshold> 5.0 </threshold>
													<split pos="left">
														<output> 0.2644179165363312 </output>
													</split>
													<split pos="right">
														<output> -0.07612577080726624 </output>
													</split>
												</split>
												<split pos="right">
													<output> 0.39518287777900696 </output>
												</split>
											</split>
											<split pos="right">
												<output> -0.8432435989379883 </output>
											</split>
										</split>
										<split pos="right">
											<output> 0.22136040031909943 </output>
										</split>
									</split>
								</split>
								<split pos="right">
									<feature> 5 </feature>
									<threshold> 6.0 </threshold>
									<split pos="left">
										<output> 0.39495131373405457 </output>
									</split>
									<split pos="right">
										<output> 1.3275326490402222 </output>
									</split>
								</split>
							</split>
						</split>
						<split pos="right">
							<output> 0.4508786201477051 </output>
						</split>
					</split>
					<split pos="right">
						<output> 0.48600348830223083 </output>
					</split>
				</split>
				<split pos="right">
					<feature> 72 </feature>
					<threshold> 26.810936 </threshold>
					<split pos="left">
						<feature> 4 </feature>
						<threshold> 7.0 </threshold>
						<split pos="left">
							<feature> 74 </feature>
							<threshold> 4.0657396 </threshold>
							<split pos="left">
								<feature> 108 </feature>
								<threshold> 16.674574 </threshold>
								<split pos="left">
									<feature> 134 </feature>
									<threshold> 0.0 </threshold>
									<split pos="left">
										<output> -0.26597675681114197 </output>
									</split>
									<split pos="right">
										<output> -0.2177528291940689 </output>
									</split>
								</split>
								<split pos="right">
									<output> 0.024510972201824188 </output>
								</split>
							</split>
							<split pos="right">
								<feature> 133 </feature>
								<threshold> 39.0 </threshold>
								<split pos="left">
									<feature> 135 </feature>
									<threshold> 82581.16 </threshold>
									<split pos="left">
										<feature> 3 </feature>
										<threshold> 2.0 </threshold>
										<split pos="left">
											<feature> 129 </feature>
											<threshold> 0.0 </threshold>
											<split pos="left">
												<output> -0.09935794025659561 </output>
											</split>
											<split pos="right">
												<feature> 109 </feature>
												<threshold> 15.256162 </threshold>
												<split pos="left">
													<output> 0.059533633291721344 </output>
												</split>
												<split pos="right">
													<output> 0.2392425835132599 </output>
												</split>
											</split>
										</split>
										<split pos="right">
											<output> 0.19663891196250916 </output>
										</split>
									</split>
									<split pos="right">
										<output> 0.8474663496017456 </output>
									</split>
								</split>
								<split pos="right">
									<output> -0.17347261309623718 </output>
								</split>
							</split>
						</split>
						<split pos="right">
							<output> 0.7637062072753906 </output>
						</split>
					</split>
					<split pos="right">
						<output> 0.2654488980770111 </output>
					</split>
				</split>
			</split>
			<split pos="right">
				<output> 0.5313343405723572 </output>
			</split>
		</split>
	</tree>
	<tree id="20" weight="0.15">
		<split>
			<feature> 134 </feature>
			<threshold> 52908.69 </threshold>
			<split pos="left">
				<feature> 14 </feature>
				<threshold> 4.0 </threshold>
				<split pos="left">
					<feature> 108 </feature>
					<threshold> 24.456047 </threshold>
					<split pos="left">
						<feature> 84 </feature>
						<threshold> 12.527294 </threshold>
						<split pos="left">
							<feature> 86 </feature>
							<threshold> -62.649963 </threshold>
							<split pos="left">
								<output> 0.7402543425559998 </output>
							</split>
							<split pos="right">
								<feature> 126 </feature>
								<threshold> 1.0 </threshold>
								<split pos="left">
									<feature> 134 </feature>
									<threshold> 0.0 </threshold>
									<split pos="left">
										<output> -0.041286688297986984 </output>
									</split>
									<split pos="right">
										<feature> 133 </feature>
										<threshold> 3.0 </threshold>
										<split pos="left">
											<output> 0.26065096259117126 </output>
										</split>
										<split pos="right">
											<feature> 18 </feature>
											<threshold> 10.819936 </threshold>
											<split pos="left">
												<output> -0.17974935472011566 </output>
											</split>
											<split pos="right">
												<output> 0.11950072646141052 </output>
											</split>
										</split>
									</split>
								</split>
								<split pos="right">
									<output> 0.3320196270942688 </output>
								</split>
							</split>
						</split>
						<split pos="right">
							<output> 0.4554823040962219 </output>
						</split>
					</split>
					<split pos="right">
						<output> 0.3995324969291687 </output>
					</split>
				</split>
				<split pos="right">
					<feature> 22 </feature>
					<threshold> 2.0 </threshold>
					<split pos="left">
						<feature> 84 </feature>
						<threshold> 4.615319 </threshold>
						<split pos="left">
							<feature> 3 </feature>
							<threshold> 1.0 </threshold>
							<split pos="left">
								<output> -0.27788472175598145 </output>
							</split>
							<split pos="right">
								<output> -0.03325225040316582 </output>
							</split>
						</split>
						<split pos="right">
							<feature> 4 </feature>
							<threshold> 7.0 </threshold>
							<split pos="left">
								<feature> 133 </feature>
								<threshold> 44.0 </threshold>
								<split pos="left">
									<feature> 109 </feature>
									<threshold> 24.263882 </threshold>
									<split pos="left">
										<feature> 135 </feature>
										<threshold> 82581.16 </threshold>
										<split pos="left">
											<feature> 129 </feature>
											<threshold> 21.0 </threshold>
											<split pos="left">
												<feature> 49 </feature>
												<threshold> 0.6 </threshold>
												<split pos="left">
													<feature> 23 </feature>
													<threshold> 4.0 </threshold>
													<split pos="left">
														<feature> 130 </feature>
														<threshold> 64512.58 </threshold>
														<split pos="left">
															<feature> 129 </feature>
															<threshold> 0.0 </threshold>
															<split pos="left">
																<output> -0.09329816699028015 </output>
															</split>
															<split pos="right">
																<feature> 127 </feature>
																<threshold> 28.941406 </threshold>
																<split pos="left">
																	<output> 0.2738630771636963 </output>
																</split>
																<split pos="right">
																	<output> 0.011281810700893402 </output>
																</split>
															</split>
														</split>
														<split pos="right">
