## LambdaMART
## No. of trees = 1000
## No. of leaves = 25
## No. of threshold candidates = 256
## Learning rate = 0.15
## Stop early = 50

<ensemble>
	<tree id="1" weight="0.15">
		<split>
			<feature> 8 </feature>
			<threshold> 0.571429 </threshold>
			<split pos="left">
				<feature> 130 </feature>
				<threshold> 355.60156 </threshold>
				<split pos="left">
					<feature> 18 </feature>
					<threshold> 15.537808 </threshold>
					<split pos="left">
						<feature> 65 </feature>
						<threshold> 0.021901498 </threshold>
						<split pos="left">
							<output> -0.7419060468673706 </output>
						</split>
						<split pos="right">
							<output> -0.3064233362674713 </output>
						</split>
					</split>
					<split pos="right">
						<feature> 128 </feature>
						<threshold> 6.1222736E7 </threshold>
						<split pos="left">
							<feature> 24 </feature>
							<threshold> 1.0 </threshold>
							<split pos="left">
								<feature> 122 </feature>
								<threshold> -2.6270418 </threshold>
								<split pos="left">
									<feature> 60 </feature>
									<threshold> 0.009386355 </threshold>
									<split pos="left">
										<output> -0.7243287563323975 </output>
									</split>
									<split pos="right">
										<output> -0.2599683701992035 </output>
									</split>
								</split>
								<split pos="right">
									<output> -0.09923498332500458 </output>
								</split>
							</split>
							<split pos="right">
								<output> 0.25014400482177734 </output>
							</split>
						</split>
						<split pos="right">
							<output> 1.3815460205078125 </output>
						</split>
					</split>
				</split>
				<split pos="right">
					<output> -0.19130583107471466 </output>
				</split>
			</split>
			<split pos="right">
				<feature> 49 </feature>
				<threshold> 0.21093754 </threshold>
				<split pos="left">
					<feature> 130 </feature>
					<threshold> 355.60156 </threshold>
					<split pos="left">
						<feature> 108 </feature>
						<threshold> 15.529402 </threshold>
						<split pos="left">
							<feature> 26 </feature>
							<threshold> 123.34766 </threshold>
							<split pos="left">
								<feature> 48 </feature>
								<threshold> 0.57421875 </threshold>
								<split pos="left">
									<output> -0.3115232586860657 </output>
								</split>
								<split pos="right">
									<output> 0.9555861949920654 </output>
								</split>
							</split>
							<split pos="right">
								<output> 1.525630235671997 </output>
							</split>
						</split>
						<split pos="right">
							<feature> 70 </feature>
							<threshold> 0.0 </threshold>
							<split pos="left">
								<output> -0.21786928176879883 </output>
							</split>
							<split pos="right">
								<feature> 19 </feature>
								<threshold> 9.041388 </threshold>
								<split pos="left">
									<output> 1.9834903478622437 </output>
								</split>
								<split pos="right">
									<feature> 48 </feature>
									<threshold> 0.1171875 </threshold>
									<split pos="left">
										<output> 2.0 </output>
									</split>
									<split pos="right">
										<feature> 118 </feature>
										<threshold> -11.247004 </threshold>
										<split pos="left">
											<feature> 117 </feature>
											<threshold> -12.957026 </threshold>
											<split pos="left">
												<feature> 40 </feature>
												<threshold> 140.96875 </threshold>
												<split pos="left">
													<feature> 131 </feature>
													<threshold> 64255.04 </threshold>
													<split pos="left">
														<output> 0.14564809203147888 </output>
													</split>
													<split pos="right">
														<output> -0.32763826847076416 </output>
													</split>
												</split>
												<split pos="right">
													<output> -1.3486390113830566 </output>
												</split>
											</split>
											<split pos="right">
												<output> 1.2256195545196533 </output>
											</split>
										</split>
										<split pos="right">
											<output> 1.471659541130066 </output>
										</split>
									</split>
								</split>
							</split>
						</split>
					</split>
					<split pos="right">
						<output> 0.3176325261592865 </output>
					</split>
				</split>
				<split pos="right">
					<feature> 130 </feature>
					<threshold> 355.60156 </threshold>
					<split pos="left">
						<feature> 16 </feature>
						<threshold> 1.6553899 </threshold>
						<split pos="left">
							<output> 1.5081758499145508 </output>
						</split>
						<split pos="right">
							<feature> 55 </feature>
							<threshold> 0.07196205 </threshold>
							<split pos="left">
								<feature> 118 </feature>
								<threshold> -6.748177 </threshold>
								<split pos="left">
									<output> 0.39695194363594055 </output>
								</split>
								<split pos="right">
									<output> 1.8074153661727905 </output>
								</split>
							</split>
							<split pos="right">
								<output> -0.5026687383651733 </output>
							</split>
						</split>
					</split>
					<split pos="right">
						<output> 0.6111955046653748 </output>
					</split>
				</split>
			</split>
		</split>
	</tree>
	<tree id="2" weight="0.15">
		<split>
			<feature> 49 </feature>
			<threshold> 0.2045455 </threshold>
			<split pos="left">
				<feature> 3 </feature>
				<threshold> 1.0 </threshold>
				<split pos="left">
					<feature> 119 </feature>
					<threshold> -18.276474 </threshold>
					<split pos="left">
						<output> -0.8903517723083496 </output>
					</split>
					<split pos="right">
						<output> -0.3795483410358429 </output>
					</split>
				</split>
				<split pos="right">
					<feature> 117 </feature>
					<threshold> -7.0185776 </threshold>
					<split pos="left">
						<feature> 3 </feature>
						<threshold> 9.0 </threshold>
						<split pos="left">
							<feature> 108 </feature>
							<threshold> 12.886099 </threshold>
							<split pos="left">
								<output> -0.2756454050540924 </output>
							</split>
							<split pos="right">
								<feature> 14 </feature>
								<threshold> 4.0 </threshold>
								<split pos="left">
									<output> 0.6545075178146362 </output>
								</split>
								<split pos="right">
									<feature> 109 </feature>
									<threshold> 24.818195 </threshold>
									<split pos="left">
										<output> 0.0941799208521843 </output>
									</split>
									<split pos="right">
										<output> 1.6202582120895386 </output>
									</split>
								</split>
							</split>
						</split>
						<split pos="right">
							<output> 1.8053287267684937 </output>
						</split>
					</split>
					<split pos="right">
						<output> 0.9559504389762878 </output>
					</split>
				</split>
			</split>
			<split pos="right">
				<feature> 120 </feature>
				<threshold> -6.757618 </threshold>
				<split pos="left">
					<feature> 8 </feature>
					<threshold> 0.571429 </threshold>
					<split pos="left">
						<output> 0.0016221614787355065 </output>
					</split>
					<split pos="right">
						<feature> 107 </feature>
						<threshold> 18.302614 </threshold>
						<split pos="left">
							<feature> 127 </feature>
							<threshold> 22.105469 </threshold>
							<split pos="left">
								<output> 0.9101884365081787 </output>
							</split>
							<split pos="right">
								<feature> 1 </feature>
								<threshold> 12.0 </threshold>
								<split pos="left">
									<feature> 109 </feature>
									<threshold> 19.459732 </threshold>
									<split pos="left">
										<feature> 71 </feature>
										<threshold> 56.361206 </threshold>
										<split pos="left">
											<output> 0.047669678926467896 </output>
										</split>
										<split pos="right">
											<feature> 133 </feature>
											<threshold> 6.0 </threshold>
											<split pos="left">
												<output> 0.5316628813743591 </output>
											</split>
											<split pos="right">
												<output> 0.24910803139209747 </output>
											</split>
										</split>
									</split>
									<split pos="right">
										<feature> 65 </feature>
										<threshold> 0.078219615 </threshold>
										<split pos="left">
											<feature> 117 </feature>
											<threshold> -51.826923 </threshold>
											<split pos="left">
												<output> 1.3661364316940308 </output>
											</split>
											<split pos="right">
												<feature> 133 </feature>
												<threshold> 13.0 </threshold>
												<split pos="left">
													<output> 0.752357542514801 </output>
												</split>
												<split pos="right">
													<output> 0.5328249335289001 </output>
												</split>
											</split>
										</split>
										<split pos="right">
											<output> 0.028696605935692787 </output>
										</split>
									</split>
								</split>
								<split pos="right">
									<output> 1.7796871662139893 </output>
								</split>
							</split>
						</split>
						<split pos="right">
							<output> 0.8896384239196777 </output>
						</split>
					</split>
				</split>
				<split pos="right">
					<feature> 130 </feature>
					<threshold> 65022.797 </threshold>
					<split pos="left">
						<feature> 127 </feature>
						<threshold> 22.105469 </threshold>
						<split pos="left">
							<feature> 129 </feature>
							<threshold> 2.0 </threshold>
							<split pos="left">
								<feature> 130 </feature>
								<threshold> 54798.734 </threshold>
								<split pos="left">
									<output> 0.2168516367673874 </output>
								</split>
								<split pos="right">
									<output> 1.0068304538726807 </output>
								</split>
							</split>
							<split pos="right">
								<output> 1.4239693880081177 </output>
							</split>
						</split>
						<split pos="right">
							<output> 0.11027608066797256 </output>
						</split>
					</split>
					<split pos="right">
						<feature> 132 </feature>
						<threshold> 96.0 </threshold>
						<split pos="left">
							<output> 1.5240933895111084 </output>
						</split>
						<split pos="right">
							<output> 1.8326257467269897 </output>
						</split>
					</split>
				</split>
			</split>
		</split>
	</tree>
	<tree id="3" weight="0.15">
		<split>
			<feature> 54 </feature>
			<threshold> 0.235294 </threshold>
			<split pos="left">
				<feature> 49 </feature>
				<threshold> 0.23011369 </threshold>
				<split pos="left">
					<feature> 3 </feature>
					<threshold> 1.0 </threshold>
					<split pos="left">
						<output> -0.6627851724624634 </output>
					</split>
					<split pos="right">
						<feature> 14 </feature>
						<threshold> 4.0 </threshold>
						<split pos="left">
							<feature> 108 </feature>
							<threshold> 15.859815 </threshold>
							<split pos="left">
								<output> 0.2431369125843048 </output>
							</split>
							<split pos="right">
								<feature> 133 </feature>
								<threshold> 12.0 </threshold>
								<split pos="left">
									<output> 1.1190348863601685 </output>
								</split>
								<split pos="right">
									<output> 0.57365483045578 </output>
								</split>
							</split>
						</split>
						<split pos="right">
							<feature> 49 </feature>
							<threshold> 0.2045455 </threshold>
							<split pos="left">
								<feature> 117 </feature>
								<threshold> -9.178014 </threshold>
								<split pos="left">
									<output> -0.1863400787115097 </output>
								</split>
								<split pos="right">
									<output> 0.7168786525726318 </output>
								</split>
							</split>
							<split pos="right">
								<output> 0.37227851152420044 </output>
							</split>
						</split>
					</split>
				</split>
				<split pos="right">
					<feature> 107 </feature>
					<threshold> 18.302614 </threshold>
					<split pos="left">
						<feature> 127 </feature>
						<threshold> 22.105469 </threshold>
						<split pos="left">
							<feature> 8 </feature>
							<threshold> 0.5 </threshold>
							<split pos="left">
								<output> 0.017875809222459793 </output>
							</split>
							<split pos="right">
								<feature> 130 </feature>
								<threshold> 35373.016 </threshold>
								<split pos="left">
									<output> 0.4053158760070801 </output>
								</split>
								<split pos="right">
									<feature> 84 </feature>
									<threshold> 8.516936 </threshold>
									<split pos="left">
										<output> 0.7470727562904358 </output>
									</split>
									<split pos="right">
										<output> 1.3909754753112793 </output>
									</split>
								</split>
							</split>
						</split>
						<split pos="right">
							<feature> 112 </feature>
							<threshold> -141.71242 </threshold>
							<split pos="left">
								<output> 1.491628885269165 </output>
							</split>
							<split pos="right">
								<feature> 109 </feature>
								<threshold> 19.459732 </threshold>
								<split pos="left">
									<output> 0.23599225282669067 </output>
								</split>
								<split pos="right">
									<output> 0.5465649962425232 </output>
								</split>
							</split>
						</split>
					</split>
					<split pos="right">
						<feature> 133 </feature>
						<threshold> 1.0 </threshold>
						<split pos="left">
							<output> 1.2976524829864502 </output>
						</split>
						<split pos="right">
							<output> 0.5752891302108765 </output>
						</split>
					</split>
				</split>
			</split>
			<split pos="right">
				<feature> 130 </feature>
				<threshold> 65022.797 </threshold>
				<split pos="left">
					<feature> 129 </feature>
					<threshold> 2.0 </threshold>
					<split pos="left">
						<feature> 130 </feature>
						<threshold> 54798.734 </threshold>
						<split pos="left">
							<output> 0.12038717418909073 </output>
						</split>
						<split pos="right">
							<output> 0.7811396718025208 </output>
						</split>
					</split>
					<split pos="right">
						<feature> 127 </feature>
						<threshold> 22.105469 </threshold>
						<split pos="left">
							<feature> 131 </feature>
							<threshold> 45823.6 </threshold>
							<split pos="left">
								<output> 1.3805525302886963 </output>
							</split>
							<split pos="right">
								<output> 0.6695374250411987 </output>
							</split>
						</split>
						<split pos="right">
							<output> 0.19560645520687103 </output>
						</split>
					</split>
				</split>
				<split pos="right">
					<feature> 78 </feature>
					<threshold> 8.04277 </threshold>
					<split pos="left">
						<output> 1.1505165100097656 </output>
					</split>
					<split pos="right">
						<feature> 132 </feature>
						<threshold> 114.0 </threshold>
						<split pos="left">
							<feature> 131 </feature>
							<threshold> 56575.273 </threshold>
							<split pos="left">
								<output> 1.4582703113555908 </output>
							</split>
							<split pos="right">
								<output> 1.1435555219650269 </output>
							</split>
						</split>
						<split pos="right">
							<output> 1.6401387453079224 </output>
						</split>
					</split>
				</split>
			</split>
		</split>
	</tree>
	<tree id="4" weight="0.15">
		<split>
			<feature> 54 </feature>
			<threshold> 0.230769 </threshold>
			<split pos="left">
				<feature> 49 </feature>
				<threshold> 0.23011369 </threshold>
				<split pos="left">
					<feature> 108 </feature>
					<threshold> 15.859815 </threshold>
					<split pos="left">
						<feature> 123 </feature>
						<threshold> -13.6905575 </threshold>
						<split pos="left">
							<output> -0.726087212562561 </output>
						</split>
						<split pos="right">
							<output> -0.40996772050857544 </output>
						</split>
					</split>
					<split pos="right">
						<feature> 14 </feature>
						<threshold> 4.0 </threshold>
						<split pos="left">
							<feature> 133 </feature>
							<threshold> 12.0 </threshold>
							<split pos="left">
								<feature> 108 </feature>
								<threshold> 26.102585 </threshold>
								<split pos="left">
									<feature> 129 </feature>
									<threshold> 5.0 </threshold>
									<split pos="left">
										<feature> 114 </feature>
										<threshold> -13.999872 </threshold>
										<split pos="left">
											<feature> 55 </feature>
											<threshold> 0.03441664 </threshold>
											<split pos="left">
												<feature> 130 </feature>
												<threshold> 59143.96 </threshold>
												<split pos="left">
													<output> 0.41453295946121216 </output>
												</split>
												<split pos="right">
													<output> 0.9393672943115234 </output>
												</split>
											</split>
											<split pos="right">
												<output> 0.9644242525100708 </output>
											</split>
										</split>
										<split pos="right">
											<output> 0.2595067024230957 </output>
										</split>
									</split>
									<split pos="right">
										<output> 1.1703720092773438 </output>
									</split>
								</split>
								<split pos="right">
									<output> 1.2522486448287964 </output>
								</split>
							</split>
							<split pos="right">
								<output> 0.37411341071128845 </output>
							</split>
						</split>
						<split pos="right">
							<output> -0.14798149466514587 </output>
						</split>
					</split>
				</split>
				<split pos="right">
					<feature> 107 </feature>
					<threshold> 19.065226 </threshold>
					<split pos="left">
						<feature> 127 </feature>
						<threshold> 22.105469 </threshold>
						<split pos="left">
							<feature> 8 </feature>
							<threshold> 0.6 </threshold>
							<split pos="left">
								<output> -0.023567473515868187 </output>
							</split>
							<split pos="right">
								<feature> 130 </feature>
								<threshold> 35373.016 </threshold>
								<split pos="left">
									<output> 0.46304595470428467 </output>
								</split>
								<split pos="right">
									<output> 0.857700765132904 </output>
								</split>
							</split>
						</split>
						<split pos="right">
							<feature> 109 </feature>
							<threshold> 19.459732 </threshold>
							<split pos="left">
								<output> 0.13074171543121338 </output>
							</split>
							<split pos="right">
								<output> 0.4577848017215729 </output>
							</split>
						</split>
					</split>
					<split pos="right">
						<feature> 133 </feature>
						<threshold> 1.0 </threshold>
						<split pos="left">
							<output> 1.1762418746948242 </output>
						</split>
						<split pos="right">
							<output> 0.5702471733093262 </output>
						</split>
					</split>
				</split>
			</split>
			<split pos="right">
				<feature> 130 </feature>
				<threshold> 65022.797 </threshold>
				<split pos="left">
					<feature> 129 </feature>
					<threshold> 2.0 </threshold>
					<split pos="left">
						<feature> 130 </feature>
						<threshold> 54798.734 </threshold>
						<split pos="left">
							<output> 0.03989577665925026 </output>
						</split>
						<split pos="right">
							<output> 0.657130241394043 </output>
						</split>
					</split>
					<split pos="right">
						<feature> 127 </feature>
						<threshold> 16.070312 </threshold>
						<split pos="left">
							<output> 1.1344048976898193 </output>
						</split>
						<split pos="right">
							<output> 0.6544179916381836 </output>
						</split>
					</split>
				</split>
				<split pos="right">
					<feature> 131 </feature>
					<threshold> 56063.29 </threshold>
					<split pos="left">
						<feature> 118 </feature>
						<threshold> -6.1858234 </threshold>
						<split pos="left">
							<feature> 129 </feature>
							<threshold> 9.0 </threshold>
							<split pos="left">
								<output> 1.150280237197876 </output>
							</split>
							<split pos="right">
								<output> 1.422196626663208 </output>
							</split>
						</split>
						<split pos="right">
							<output> 1.4134386777877808 </output>
						</split>
					</split>
					<split pos="right">
						<output> 1.0656319856643677 </output>
					</split>
				</split>
			</split>
		</split>
	</tree>
	<tree id="5" weight="0.15">
		<split>
			<feature> 54 </feature>
			<threshold> 0.230769 </threshold>
			<split pos="left">
				<feature> 49 </feature>
				<threshold> 0.23011369 </threshold>
				<split pos="left">
					<feature> 108 </feature>
					<threshold> 15.859815 </threshold>
					<split pos="left">
						<feature> 60 </feature>
						<threshold> 0.015643926 </threshold>
						<split pos="left">
							<output> -0.6829843521118164 </output>
						</split>
						<split pos="right">
							<output> -0.38186827301979065 </output>
						</split>
					</split>
					<split pos="right">
						<feature> 14 </feature>
						<threshold> 4.0 </threshold>
						<split pos="left">
							<feature> 133 </feature>
							<threshold> 12.0 </threshold>
							<split pos="left">
								<feature> 108 </feature>
								<threshold> 26.432997 </threshold>
								<split pos="left">
									<feature> 129 </feature>
									<threshold> 5.0 </threshold>
									<split pos="left">
										<feature> 130 </feature>
										<threshold> 59910.766 </threshold>
										<split pos="left">
											<feature> 36 </feature>
											<threshold> 88.10547 </threshold>
											<split pos="left">
												<feature> 31 </feature>
												<threshold> 105.72656 </threshold>
												<split pos="left">
													<feature> 55 </feature>
													<threshold> 0.03441664 </threshold>
													<split pos="left">
														<output> 0.35282623767852783 </output>
													</split>
													<split pos="right">
														<output> 0.6321110725402832 </output>
													</split>
												</split>
												<split pos="right">
													<output> 1.634613037109375 </output>
												</split>
											</split>
											<split pos="right">
												<output> 1.364620566368103 </output>
											</split>
										</split>
										<split pos="right">
											<output> 0.8437051773071289 </output>
										</split>
									</split>
									<split pos="right">
										<output> 0.8720725774765015 </output>
									</split>
								</split>
								<split pos="right">
									<output> 1.0620357990264893 </output>
								</split>
							</split>
							<split pos="right">
								<output> 0.2890821397304535 </output>
							</split>
						</split>
						<split pos="right">
							<output> -0.07874123752117157 </output>
						</split>
					</split>
				</split>
				<split pos="right">
					<feature> 107 </feature>
					<threshold> 19.065226 </threshold>
					<split pos="left">
						<feature> 127 </feature>
						<threshold> 22.105469 </threshold>
						<split pos="left">
							<feature> 103 </feature>
							<threshold> 0.91015625 </threshold>
							<split pos="left">
								<output> 0.11424974352121353 </output>
							</split>
							<split pos="right">
								<output> 0.6593253016471863 </output>
							</split>
						</split>
						<split pos="right">
							<feature> 112 </feature>
							<threshold> -141.71242 </threshold>
							<split pos="left">
								<output> 1.2367404699325562 </output>
							</split>
							<split pos="right">
								<feature> 109 </feature>
								<threshold> 19.459732 </threshold>
								<split pos="left">
									<output> 0.1067354679107666 </output>
								</split>
								<split pos="right">
									<output> 0.33819276094436646 </output>
								</split>
							</split>
						</split>
					</split>
					<split pos="right">
						<feature> 133 </feature>
						<threshold> 1.0 </threshold>
						<split pos="left">
							<output> 1.0235122442245483 </output>
						</split>
						<split pos="right">
							<output> 0.40582260489463806 </output>
						</split>
					</split>
				</split>
			</split>
			<split pos="right">
				<feature> 130 </feature>
				<threshold> 65022.797 </threshold>
				<split pos="left">
					<feature> 20 </feature>
					<threshold> 10.143426 </threshold>
					<split pos="left">
						<feature> 129 </feature>
						<threshold> 2.0 </threshold>
						<split pos="left">
							<feature> 130 </feature>
							<threshold> 54798.734 </threshold>
							<split pos="left">
								<output> -0.11803022772073746 </output>
							</split>
							<split pos="right">
								<output> 0.38474366068840027 </output>
							</split>
						</split>
						<split pos="right">
							<output> 0.563008189201355 </output>
						</split>
					</split>
					<split pos="right">
						<output> 0.9734218716621399 </output>
					</split>
				</split>
				<split pos="right">
					<feature> 131 </feature>
					<threshold> 56063.29 </threshold>
					<split pos="left">
						<feature> 118 </feature>
						<threshold> -6.1858234 </threshold>
						<split pos="left">
							<output> 1.0515042543411255 </output>
						</split>
						<split pos="right">
							<output> 1.2622480392456055 </output>
						</split>
					</split>
					<split pos="right">
						<output> 0.942995548248291 </output>
					</split>
				</split>
			</split>
		</split>
	</tree>
	<tree id="6" weight="0.15">
		<split>
			<feature> 54 </feature>
			<threshold> 0.230769 </threshold>
			<split pos="left">
				<feature> 108 </feature>
				<threshold> 15.859815 </threshold>
				<split pos="left">
					<feature> 49 </feature>
					<threshold> 0.24289778 </threshold>
					<split pos="left">
						<feature> 60 </feature>
						<threshold> 0.015643926 </threshold>
						<split pos="left">
							<output> -0.6380550265312195 </output>
						</split>
						<split pos="right">
							<output> -0.27622175216674805 </output>
						</split>
					</split>
					<split pos="right">
						<feature> 62 </feature>
						<threshold> 0.359375 </threshold>
						<split pos="left">
							<feature> 110 </feature>
							<threshold> 76.317154 </threshold>
							<split pos="left">
								<feature> 77 </feature>
								<threshold> 67.96218 </threshold>
								<split pos="left">
									<feature> 76 </feature>
									<threshold> 14.477245 </threshold>
									<split pos="left">
										<output> -0.005506976041942835 </output>
									</split>
									<split pos="right">
										<output> 0.37281233072280884 </output>
									</split>
								</split>
								<split pos="right">
									<output> 1.6364089250564575 </output>
								</split>
							</split>
							<split pos="right">
								<output> 1.6702758073806763 </output>
							</split>
						</split>
						<split pos="right">
							<output> 0.7670119404792786 </output>
						</split>
					</split>
				</split>
				<split pos="right">
					<feature> 14 </feature>
					<threshold> 4.0 </threshold>
					<split pos="left">
						<feature> 130 </feature>
						<threshold> 60933.17 </threshold>
						<split pos="left">
							<feature> 133 </feature>
							<threshold> 12.0 </threshold>
							<split pos="left">
								<feature> 129 </feature>
								<threshold> 6.0 </threshold>
								<split pos="left">
									<feature> 108 </feature>
									<threshold> 26.432997 </threshold>
									<split pos="left">
										<feature> 56 </feature>
										<threshold> 0.03515625 </threshold>
										<split pos="left">
											<output> 0.2170819491147995 </output>
										</split>
										<split pos="right">
											<output> 0.4867298901081085 </output>
										</split>
									</split>
									<split pos="right">
										<output> 0.7452095746994019 </output>
									</split>
								</split>
								<split pos="right">
									<output> 0.9574117660522461 </output>
								</split>
							</split>
							<split pos="right">
								<output> 0.19044895470142365 </output>
							</split>
						</split>
						<split pos="right">
							<feature> 108 </feature>
							<threshold> 26.102585 </threshold>
							<split pos="left">
								<output> 0.7249376177787781 </output>
							</split>
							<split pos="right">
								<output> 1.2483906745910645 </output>
							</split>
						</split>
					</split>
					<split pos="right">
						<feature> 49 </feature>
						<threshold> 0.26207393 </threshold>
						<split pos="left">
							<feature> 109 </feature>
							<threshold> 19.459732 </threshold>
							<split pos="left">
								<output> -0.0497359074652195 </output>
							</split>
							<split pos="right">
								<output> 0.32709527015686035 </output>
							</split>
						</split>
						<split pos="right">
							<feature> 107 </feature>
							<threshold> 18.811022 </threshold>
							<split pos="left">
								<output> 0.2876761257648468 </output>
							</split>
							<split pos="right">
								<output> 0.6056339144706726 </output>
							</split>
						</split>
					</split>
				</split>
			</split>
			<split pos="right">
				<feature> 130 </feature>
				<threshold> 65022.797 </threshold>
				<split pos="left">
					<feature> 20 </feature>
					<threshold> 10.143426 </threshold>
					<split pos="left">
						<feature> 127 </feature>
						<threshold> 22.105469 </threshold>
						<split pos="left">
							<feature> 129 </feature>
							<threshold> 2.0 </threshold>
							<split pos="left">
								<output> 0.15662188827991486 </output>
							</split>
							<split pos="right">
								<output> 0.6773902773857117 </output>
							</split>
						</split>
						<split pos="right">
							<output> -0.42472290992736816 </output>
						</split>
					</split>
					<split pos="right">
						<output> 0.8175153136253357 </output>
					</split>
				</split>
				<split pos="right">
					<feature> 18 </feature>
					<threshold> 11.66797 </threshold>
					<split pos="left">
						<feature> 23 </feature>
						<threshold> 2.0 </threshold>
						<split pos="left">
							<output> 0.7842493057250977 </output>
						</split>
						<split pos="right">
							<output> 1.1184601783752441 </output>
						</split>
					</split>
					<split pos="right">
						<output> 1.2723019123077393 </output>
					</split>
				</split>
			</split>
		</split>
	</tree>
	<tree id="7" weight="0.15">
		<split>
			<feature> 54 </feature>
			<threshold> 0.230769 </threshold>
			<split pos="left">
				<feature> 108 </feature>
				<threshold> 18.833523 </threshold>
				<split pos="left">
					<feature> 107 </feature>
					<threshold> 19.065226 </threshold>
					<split pos="left">
						<feature> 65 </feature>
						<threshold> 0.009386355 </threshold>
						<split pos="left">
							<output> -0.5293868184089661 </output>
						</split>
						<split pos="right">
							<feature> 130 </feature>
							<threshold> 62977.984 </threshold>
							<split pos="left">
								<feature> 49 </feature>
								<threshold> 0.268466 </threshold>
								<split pos="left">
									<feature> 20 </feature>
									<threshold> 17.98446 </threshold>
									<split pos="left">
										<feature> 14 </feature>
										<threshold> 4.0 </threshold>
										<split pos="left">
											<output> 0.014631216414272785 </output>
										</split>
										<split pos="right">
											<output> -0.30682721734046936 </output>
										</split>
									</split>
									<split pos="right">
										<output> 0.14294512569904327 </output>
									</split>
								</split>
								<split pos="right">
									<output> 0.12969142198562622 </output>
								</split>
							</split>
							<split pos="right">
								<output> 0.3402487635612488 </output>
							</split>
						</split>
					</split>
					<split pos="right">
						<output> 0.48960572481155396 </output>
					</split>
				</split>
				<split pos="right">
					<feature> 14 </feature>
					<threshold> 4.0 </threshold>
					<split pos="left">
						<feature> 130 </feature>
						<threshold> 59910.766 </threshold>
						<split pos="left">
							<feature> 133 </feature>
							<threshold> 12.0 </threshold>
							<split pos="left">
								<feature> 129 </feature>
								<threshold> 5.0 </threshold>
								<split pos="left">
									<output> 0.4744498133659363 </output>
								</split>
								<split pos="right">
									<output> 0.9529322981834412 </output>
								</split>
							</split>
							<split pos="right">
								<output> 0.33824020624160767 </output>
							</split>
						</split>
						<split pos="right">
							<output> 0.9287803769111633 </output>
						</split>
					</split>
					<split pos="right">
						<feature> 49 </feature>
						<threshold> 0.28125012 </threshold>
						<split pos="left">
							<output> 0.023535676300525665 </output>
						</split>
						<split pos="right">
							<feature> 133 </feature>
							<threshold> 1.0 </threshold>
							<split pos="left">
								<output> 0.8774086833000183 </output>
							</split>
							<split pos="right">
								<feature> 2 </feature>
								<threshold> 2.0 </threshold>
								<split pos="left">
									<output> 0.2530888617038727 </output>
								</split>
								<split pos="right">
									<output> 0.5203269720077515 </output>
								</split>
							</split>
						</split>
					</split>
				</split>
			</split>
			<split pos="right">
				<feature> 130 </feature>
				<threshold> 65022.797 </threshold>
				<split pos="left">
					<feature> 130 </feature>
					<threshold> 27960.57 </threshold>
					<split pos="left">
						<output> -0.12154100835323334 </output>
					</split>
					<split pos="right">
						<feature> 16 </feature>
						<threshold> 11.133559 </threshold>
						<split pos="left">
							<feature> 19 </feature>
							<threshold> 11.857447 </threshold>
							<split pos="left">
								<feature> 14 </feature>
								<threshold> 3.0 </threshold>
								<split pos="left">
									<output> 1.0239726305007935 </output>
								</split>
								<split pos="right">
									<feature> 127 </feature>
									<threshold> 16.070312 </threshold>
									<split pos="left">
										<output> 0.3714609742164612 </output>
									</split>
									<split pos="right">
										<output> -0.09308010339736938 </output>
									</split>
								</split>
							</split>
							<split pos="right">
								<output> 0.7856284976005554 </output>
							</split>
						</split>
						<split pos="right">
							<output> 1.1968480348587036 </output>
						</split>
					</split>
				</split>
				<split pos="right">
					<feature> 19 </feature>
					<threshold> 10.449417 </threshold>
					<split pos="left">
						<feature> 132 </feature>
						<threshold> 113.0 </threshold>
						<split pos="left">
							<feature> 23 </feature>
							<threshold> 4.0 </threshold>
							<split pos="left">
								<output> 0.6314702033996582 </output>
							</split>
							<split pos="right">
								<output> 1.2402937412261963 </output>
							</split>
						</split>
						<split pos="right">
							<output> 1.1233726739883423 </output>
						</split>
					</split>
					<split pos="right">
						<output> 1.0978672504425049 </output>
					</split>
				</split>
			</split>
		</split>
	</tree>
	<tree id="8" weight="0.15">
		<split>
			<feature> 49 </feature>
			<threshold> 0.24289778 </threshold>
			<split pos="left">
				<feature> 108 </feature>
				<threshold> 19.824759 </threshold>
				<split pos="left">
					<feature> 65 </feature>
					<threshold> 0.009386355 </threshold>
					<split pos="left">
						<output> -0.5248543620109558 </output>
					</split>
					<split pos="right">
						<feature> 130 </feature>
						<threshold> 62977.984 </threshold>
						<split pos="left">
							<feature> 14 </feature>
							<threshold> 3.0 </threshold>
							<split pos="left">
								<output> 0.3096044957637787 </output>
							</split>
							<split pos="right">
								<feature> 107 </feature>
								<threshold> 13.726954 </threshold>
								<split pos="left">
									<feature> 20 </feature>
									<threshold> 17.98446 </threshold>
									<split pos="left">
										<feature> 127 </feature>
										<threshold> 28.140625 </threshold>
										<split pos="left">
											<output> -0.07449790835380554 </output>
										</split>
										<split pos="right">
											<output> -0.3222847878932953 </output>
										</split>
									</split>
									<split pos="right">
										<output> 0.11496453732252121 </output>
									</split>
								</split>
								<split pos="right">
									<output> 0.265521764755249 </output>
								</split>
							</split>
						</split>
						<split pos="right">
							<output> 0.33037269115448 </output>
						</split>
					</split>
				</split>
				<split pos="right">
					<feature> 14 </feature>
					<threshold> 4.0 </threshold>
					<split pos="left">
						<feature> 130 </feature>
						<threshold> 59910.766 </threshold>
						<split pos="left">
							<feature> 133 </feature>
							<threshold> 12.0 </threshold>
							<split pos="left">
								<output> 0.48781198263168335 </output>
							</split>
							<split pos="right">
								<output> 0.2697471082210541 </output>
							</split>
						</split>
						<split pos="right">
							<output> 0.8158152103424072 </output>
						</split>
					</split>
					<split pos="right">
						<output> 0.05913179740309715 </output>
					</split>
				</split>
			</split>
			<split pos="right">
				<feature> 130 </feature>
				<threshold> 64000.39 </threshold>
				<split pos="left">
					<feature> 107 </feature>
					<threshold> 19.065226 </threshold>
					<split pos="left">
						<feature> 118 </feature>
						<threshold> -3.936409 </threshold>
						<split pos="left">
							<feature> 129 </feature>
							<threshold> 0.0 </threshold>
							<split pos="left">
								<feature> 71 </feature>
								<threshold> 56.361206 </threshold>
								<split pos="left">
									<feature> 123 </feature>
									<threshold> -1.3508121 </threshold>
									<split pos="left">
										<output> -0.19521455466747284 </output>
									</split>
									<split pos="right">
										<output> -0.3693580627441406 </output>
									</split>
								</split>
								<split pos="right">
									<output> 0.12583881616592407 </output>
								</split>
							</split>
							<split pos="right">
								<feature> 127 </feature>
								<threshold> 22.105469 </threshold>
								<split pos="left">
									<feature> 84 </feature>
									<threshold> 13.6271 </threshold>
									<split pos="left">
										<output> 0.41597533226013184 </output>
									</split>
									<split pos="right">
										<output> 1.0389163494110107 </output>
									</split>
								</split>
								<split pos="right">
									<output> 0.14585955440998077 </output>
								</split>
							</split>
						</split>
						<split pos="right">
							<output> 0.7824663519859314 </output>
						</split>
					</split>
					<split pos="right">
						<feature> 133 </feature>
						<threshold> 1.0 </threshold>
						<split pos="left">
							<output> 0.802955687046051 </output>
						</split>
						<split pos="right">
							<output> 0.24693603813648224 </output>
						</split>
					</split>
				</split>
				<split pos="right">
					<feature> 123 </feature>
					<threshold> -6.1496034 </threshold>
					<split pos="left">
						<output> 0.5090470910072327 </output>
					</split>
					<split pos="right">
						<feature> 16 </feature>
						<threshold> 8.192056 </threshold>
						<split pos="left">
							<feature> 127 </feature>
							<threshold> 22.105469 </threshold>
							<split pos="left">
								<feature> 129 </feature>
								<threshold> 3.0 </threshold>
								<split pos="left">
									<output> 0.5088018178939819 </output>
								</split>
								<split pos="right">
									<output> 0.9590774774551392 </output>
								</split>
							</split>
							<split pos="right">
								<output> 0.18969933688640594 </output>
							</split>
						</split>
						<split pos="right">
							<output> 1.1044939756393433 </output>
						</split>
					</split>
				</split>
			</split>
		</split>
	</tree>
	<tree id="9" weight="0.15">
		<split>
			<feature> 64 </feature>
			<threshold> 0.23437478 </threshold>
			<split pos="left">
				<feature> 108 </feature>
				<threshold> 20.15517 </threshold>
				<split pos="left">
					<feature> 107 </feature>
					<threshold> 19.065226 </threshold>
					<split pos="left">
						<feature> 130 </feature>
						<threshold> 62977.984 </threshold>
						<split pos="left">
							<feature> 65 </feature>
							<threshold> 0.009386355 </threshold>
							<split pos="left">
								<output> -0.48447179794311523 </output>
							</split>
							<split pos="right">
								<feature> 14 </feature>
								<threshold> 3.0 </threshold>
								<split pos="left">
									<output> 0.278508722782135 </output>
								</split>
								<split pos="right">
									<feature> 129 </feature>
									<threshold> 8.0 </threshold>
									<split pos="left">
										<feature> 106 </feature>
										<threshold> 84.45244 </threshold>
										<split pos="left">
											<feature> 3 </feature>
											<threshold> 2.0 </threshold>
											<split pos="left">
												<feature> 133 </feature>
												<threshold> 129.0 </threshold>
												<split pos="left">
													<feature> 127 </feature>
													<threshold> 28.140625 </threshold>
													<split pos="left">
														<output> -0.04958562180399895 </output>
													</split>
													<split pos="right">
														<feature> 69 </feature>
														<threshold> 0.037265655 </threshold>
														<split pos="left">
															<output> -0.2462245374917984 </output>
														</split>
														<split pos="right">
															<output> 1.1550896167755127 </output>
														</split>
													</split>
												</split>
												<split pos="right">
													<output> -0.47690916061401367 </output>
												</split>
											</split>
											<split pos="right">
												<output> 0.08875979483127594 </output>
											</split>
										</split>
										<split pos="right">
											<output> 1.4083250761032104 </output>
										</split>
									</split>
									<split pos="right">
										<output> 0.10521075129508972 </output>
									</split>
								</split>
							</split>
						</split>
						<split pos="right">
							<feature> 49 </feature>
							<threshold> 0.22372164 </threshold>
							<split pos="left">
								<output> 0.1663954108953476 </output>
							</split>
							<split pos="right">
								<output> 0.5188581943511963 </output>
							</split>
						</split>
					</split>
					<split pos="right">
						<output> 0.3859297037124634 </output>
					</split>
				</split>
				<split pos="right">
					<feature> 14 </feature>
					<threshold> 4.0 </threshold>
					<split pos="left">
						<feature> 130 </feature>
						<threshold> 59910.766 </threshold>
						<split pos="left">
							<feature> 108 </feature>
							<threshold> 34.69331 </threshold>
							<split pos="left">
								<feature> 133 </feature>
								<threshold> 12.0 </threshold>
								<split pos="left">
									<output> 0.36664533615112305 </output>
								</split>
								<split pos="right">
									<output> 0.23600228130817413 </output>
								</split>
							</split>
							<split pos="right">
								<output> 1.0361799001693726 </output>
							</split>
						</split>
						<split pos="right">
							<output> 0.7597945928573608 </output>
						</split>
					</split>
					<split pos="right">
						<feature> 49 </feature>
						<threshold> 0.28125012 </threshold>
						<split pos="left">
							<output> 0.06938903778791428 </output>
						</split>
						<split pos="right">
							<feature> 87 </feature>
							<threshold> 22.07855 </threshold>
							<split pos="left">
								<output> 0.2766956090927124 </output>
							</split>
							<split pos="right">
								<output> 0.999190092086792 </output>
							</split>
						</split>
					</split>
				</split>
			</split>
			<split pos="right">
				<feature> 130 </feature>
				<threshold> 65022.797 </threshold>
				<split pos="left">
					<feature> 18 </feature>
					<threshold> 11.66797 </threshold>
					<split pos="left">
						<feature> 130 </feature>
						<threshold> 30005.383 </threshold>
						<split pos="left">
							<output> -0.3461565375328064 </output>
						</split>
						<split pos="right">
							<feature> 14 </feature>
							<threshold> 3.0 </threshold>
							<split pos="left">
								<output> 0.9067272543907166 </output>
							</split>
							<split pos="right">
								<output> 0.08723866194486618 </output>
							</split>
						</split>
					</split>
					<split pos="right">
						<output> 0.4856165051460266 </output>
					</split>
				</split>
				<split pos="right">
					<feature> 19 </feature>
					<threshold> 9.041388 </threshold>
					<split pos="left">
						<output> 0.5023641586303711 </output>
					</split>
					<split pos="right">
						<output> 0.862002968788147 </output>
					</split>
				</split>
			</split>
		</split>
	</tree>
	<tree id="10" weight="0.15">
		<split>
			<feature> 49 </feature>
			<threshold> 0.23011369 </threshold>
			<split pos="left">
				<feature> 108 </feature>
				<threshold> 18.833523 </threshold>
				<split pos="left">
					<feature> 65 </feature>
					<threshold> 0.009386355 </threshold>
					<split pos="left">
						<output> -0.43852585554122925 </output>
					</split>
					<split pos="right">
						<feature> 130 </feature>
						<threshold> 62977.984 </threshold>
						<split pos="left">
							<feature> 107 </feature>
							<threshold> 19.065226 </threshold>
							<split pos="left">
								<feature> 14 </feature>
								<threshold> 3.0 </threshold>
								<split pos="left">
									<output> 0.21261891722679138 </output>
								</split>
								<split pos="right">
									<output> -0.17342697083950043 </output>
								</split>
							</split>
							<split pos="right">
								<output> 0.46697452664375305 </output>
							</split>
						</split>
						<split pos="right">
							<output> 0.2420617789030075 </output>
						</split>
					</split>
				</split>
				<split pos="right">
					<feature> 14 </feature>
					<threshold> 4.0 </threshold>
					<split pos="left">
						<feature> 130 </feature>
						<threshold> 59910.766 </threshold>
						<split pos="left">
							<output> 0.29649025201797485 </output>
						</split>
						<split pos="right">
							<output> 0.5841547846794128 </output>
						</split>
					</split>
					<split pos="right">
						<output> 0.04519004002213478 </output>
					</split>
				</split>
			</split>
			<split pos="right">
				<feature> 130 </feature>
				<threshold> 64000.39 </threshold>
				<split pos="left">
					<feature> 129 </feature>
					<threshold> 10.0 </threshold>
					<split pos="left">
						<feature> 106 </feature>
						<threshold> 83.2863 </threshold>
						<split pos="left">
							<feature> 110 </feature>
							<threshold> 21.72062 </threshold>
							<split pos="left">
								<feature> 118 </feature>
								<threshold> -3.936409 </threshold>
								<split pos="left">
									<feature> 107 </feature>
									<threshold> 24.911913 </threshold>
									<split pos="left">
										<feature> 122 </feature>
										<threshold> -1.2940817 </threshold>
										<split pos="left">
											<feature> 105 </feature>
											<threshold> 0.078125 </threshold>
											<split pos="left">
												<output> -1.3795156478881836 </output>
											</split>
											<split pos="right">
												<feature> 60 </feature>
												<threshold> 0.015643926 </threshold>
												<split pos="left">
													<output> -0.47954872250556946 </output>
												</split>
												<split pos="right">
													<feature> 127 </feature>
													<threshold> 16.070312 </threshold>
													<split pos="left">
														<output> 0.1954345554113388 </output>
													</split>
													<split pos="right">
														<output> -0.12163165956735611 </output>
													</split>
												</split>
											</split>
										</split>
										<split pos="right">
											<output> -0.6522598266601562 </output>
										</split>
									</split>
									<split pos="right">
										<output> -2.5828230381011963 </output>
									</split>
								</split>
								<split pos="right">
									<output> 1.0760717391967773 </output>
								</split>
							</split>
							<split pos="right">
								<feature> 130 </feature>
								<threshold> 54543.133 </threshold>
								<split pos="left">
									<feature> 132 </feature>
									<threshold> 135.0 </threshold>
									<split pos="left">
										<feature> 3 </feature>
										<threshold> 3.0 </threshold>
										<split pos="left">
											<output> 0.09647875279188156 </output>
										</split>
										<split pos="right">
											<output> 0.4973474144935608 </output>
										</split>
									</split>
									<split pos="right">
										<output> -0.8210408091545105 </output>
									</split>
								</split>
								<split pos="right">
									<output> 0.6147063374519348 </output>
								</split>
							</split>
						</split>
						<split pos="right">
							<output> 1.1904914379119873 </output>
						</split>
					</split>
					<split pos="right">
						<output> 0.465771347284317 </output>
					</split>
				</split>
				<split pos="right">
					<feature> 123 </feature>
					<threshold> -6.1496034 </threshold>
					<split pos="left">
						<output> 0.40272650122642517 </output>
					</split>
					<split pos="right">
						<feature> 16 </feature>
						<threshold> 8.192056 </threshold>
						<split pos="left">
							<feature> 127 </feature>
							<threshold> 22.105469 </threshold>
							<split pos="left">
								<output> 0.5826408267021179 </output>
							</split>
							<split pos="right">
								<output> 0.13252770900726318 </output>
							</split>
						</split>
						<split pos="right">
							<output> 0.9838595390319824 </output>
						</split>
					</split>
				</split>
			</split>
		</split>
	</tree>
	<tree id="11" weight="0.15">
		<split>
			<feature> 49 </feature>
			<threshold> 0.23011369 </threshold>
			<split pos="left">
				<feature> 108 </feature>
				<threshold> 21.80723 </threshold>
				<split pos="left">
					<feature> 60 </feature>
					<threshold> 0.018772712 </threshold>
					<split pos="left">
						<output> -0.3480016887187958 </output>
					</split>
					<split pos="right">
						<feature> 130 </feature>
						<threshold> 61188.773 </threshold>
						<split pos="left">
							<feature> 107 </feature>
							<threshold> 18.302614 </threshold>
							<split pos="left">
								<feature> 14 </feature>
								<threshold> 3.0 </threshold>
								<split pos="left">
									<output> 0.196711927652359 </output>
								</split>
								<split pos="right">
									<feature> 112 </feature>
									<threshold> -1.6605129 </threshold>
									<split pos="left">
										<feature> 14 </feature>
										<threshold> 4.0 </threshold>
										<split pos="left">
											<output> 0.033974114805459976 </output>
										</split>
										<split pos="right">
											<output> -0.19279679656028748 </output>
										</split>
									</split>
									<split pos="right">
										<output> 0.27230337262153625 </output>
									</split>
								</split>
							</split>
							<split pos="right">
								<output> 0.3959100544452667 </output>
							</split>
						</split>
						<split pos="right">
							<output> 0.23869532346725464 </output>
						</split>
					</split>
				</split>
				<split pos="right">
					<feature> 14 </feature>
					<threshold> 4.0 </threshold>
					<split pos="left">
						<output> 0.4424670934677124 </output>
					</split>
					<split pos="right">
						<output> 0.07912175357341766 </output>
					</split>
				</split>
			</split>
			<split pos="right">
				<feature> 130 </feature>
				<threshold> 64511.594 </threshold>
				<split pos="left">
					<feature> 87 </feature>
					<threshold> 13.799094 </threshold>
					<split pos="left">
						<feature> 129 </feature>
						<threshold> 13.0 </threshold>
						<split pos="left">
							<feature> 130 </feature>
							<threshold> 54543.133 </threshold>
							<split pos="left">
								<feature> 106 </feature>
								<threshold> 83.2863 </threshold>
								<split pos="left">
									<feature> 3 </feature>
									<threshold> 3.0 </threshold>
									<split pos="left">
										<feature> 127 </feature>
										<threshold> 10.035156 </threshold>
										<split pos="left">
											<output> -0.9025455713272095 </output>
										</split>
										<split pos="right">
											<feature> 29 </feature>
											<threshold> 1.0 </threshold>
											<split pos="left">
												<feature> 65 </feature>
												<threshold> 0.36606812 </threshold>
												<split pos="left">
													<feature> 125 </feature>
													<threshold> -2.5535698 </threshold>
													<split pos="left">
														<feature> 124 </feature>
														<threshold> -0.7464102 </threshold>
														<split pos="left">
															<feature> 111 </feature>
															<threshold> -3.7539487 </threshold>
															<split pos="left">
																<feature> 71 </feature>
																<threshold> 56.361206 </threshold>
																<split pos="left">
																	<output> -0.16157500445842743 </output>
																</split>
																<split pos="right">
																	<output> 0.08417433500289917 </output>
																</split>
															</split>
															<split pos="right">
																<output> 0.24821440875530243 </output>
															</split>
														</split>
														<split pos="right">
															<output> 0.7190603613853455 </output>
														</split>
													</split>
													<split pos="right">
														<output> -0.4319353997707367 </output>
													</split>
												</split>
												<split pos="right">
													<output> 0.7808027267456055 </output>
												</split>
											</split>
											<split pos="right">
												<output> -0.49421900510787964 </output>
											</split>
										</split>
									</split>
									<split pos="right">
										<output> 0.4149496853351593 </output>
									</split>
								</split>
								<split pos="right">
									<output> 1.0999536514282227 </output>
								</split>
							</split>
							<split pos="right">
								<output> 0.24407880008220673 </output>
							</split>
						</split>
						<split pos="right">
							<output> 0.33438384532928467 </output>
						</split>
					</split>
					<split pos="right">
						<output> 0.5547816157341003 </output>
					</split>
				</split>
				<split pos="right">
					<feature> 123 </feature>
					<threshold> -6.1496034 </threshold>
					<split pos="left">
						<output> 0.32397550344467163 </output>
					</split>
					<split pos="right">
						<feature> 127 </feature>
						<threshold> 22.105469 </threshold>
						<split pos="left">
							<output> 0.6276530623435974 </output>
						</split>
						<split pos="right">
							<output> 0.31788358092308044 </output>
						</split>
					</split>
				</split>
			</split>
		</split>
	</tree>
	<tree id="12" weight="0.15">
		<split>
			<feature> 49 </feature>
			<threshold> 0.24289778 </threshold>
			<split pos="left">
				<feature> 3 </feature>
				<threshold> 2.0 </threshold>
				<split pos="left">
					<feature> 130 </feature>
					<threshold> 48153.094 </threshold>
					<split pos="left">
						<feature> 107 </feature>
						<threshold> 16.268984 </threshold>
						<split pos="left">
							<feature> 14 </feature>
							<threshold> 3.0 </threshold>
							<split pos="left">
								<output> 0.1781262308359146 </output>
							</split>
							<split pos="right">
								<feature> 115 </feature>
								<threshold> -28.185966 </threshold>
								<split pos="left">
									<output> -0.6623217463493347 </output>
								</split>
								<split pos="right">
									<feature> 129 </feature>
									<threshold> 5.0 </threshold>
									<split pos="left">
										<feature> 11 </feature>
										<threshold> 0.0 </threshold>
										<split pos="left">
											<output> 0.2843847870826721 </output>
										</split>
										<split pos="right">
											<feature> 65 </feature>
											<threshold> 0.0062575703 </threshold>
											<split pos="left">
												<output> -0.4788685441017151 </output>
											</split>
											<split pos="right">
												<feature> 20 </feature>
												<threshold> 13.410523 </threshold>
												<split pos="left">
													<output> -0.25556236505508423 </output>
												</split>
												<split pos="right">
													<output> -0.010178755968809128 </output>
												</split>
											</split>
										</split>
									</split>
									<split pos="right">
										<output> -0.03859077766537666 </output>
									</split>
								</split>
							</split>
						</split>
						<split pos="right">
							<output> 0.25280866026878357 </output>
						</split>
					</split>
					<split pos="right">
						<feature> 108 </feature>
						<threshold> 17.181463 </threshold>
						<split pos="left">
							<output> 0.04228701442480087 </output>
						</split>
						<split pos="right">
							<output> 0.35782694816589355 </output>
						</split>
					</split>
				</split>
				<split pos="right">
					<feature> 14 </feature>
					<threshold> 4.0 </threshold>
					<split pos="left">
						<output> 0.4289196729660034 </output>
					</split>
					<split pos="right">
						<output> 0.1778176724910736 </output>
					</split>
				</split>
			</split>
			<split pos="right">
				<feature> 130 </feature>
				<threshold> 64511.594 </threshold>
				<split pos="left">
					<feature> 87 </feature>
					<threshold> 22.07855 </threshold>
					<split pos="left">
						<feature> 129 </feature>
						<threshold> 15.0 </threshold>
						<split pos="left">
							<feature> 127 </feature>
							<threshold> 16.070312 </threshold>
							<split pos="left">
								<feature> 129 </feature>
								<threshold> 2.0 </threshold>
								<split pos="left">
									<output> 0.08221247792243958 </output>
								</split>
								<split pos="right">
									<output> 0.5715363621711731 </output>
								</split>
							</split>
							<split pos="right">
								<feature> 109 </feature>
								<threshold> 15.793415 </threshold>
								<split pos="left">
									<output> -0.2332449108362198 </output>
								</split>
								<split pos="right">
									<feature> 127 </feature>
									<threshold> 22.105469 </threshold>
									<split pos="left">
										<output> 0.36338678002357483 </output>
									</split>
									<split pos="right">
										<feature> 3 </feature>
										<threshold> 3.0 </threshold>
										<split pos="left">
											<feature> 106 </feature>
											<threshold> 84.45244 </threshold>
											<split pos="left">
												<feature> 11 </feature>
												<threshold> 5148.211 </threshold>
												<split pos="left">
													<output> 0.004696721211075783 </output>
												</split>
												<split pos="right">
													<output> -3.7664124965667725 </output>
												</split>
											</split>
											<split pos="right">
												<output> 1.129667043685913 </output>
											</split>
										</split>
										<split pos="right">
											<output> 0.39321672916412354 </output>
										</split>
									</split>
								</split>
							</split>
						</split>
						<split pos="right">
							<output> 0.3217485845088959 </output>
						</split>
					</split>
					<split pos="right">
						<output> 0.6640329360961914 </output>
					</split>
				</split>
				<split pos="right">
					<feature> 123 </feature>
					<threshold> -6.1496034 </threshold>
					<split pos="left">
						<output> 0.2549215853214264 </output>
					</split>
					<split pos="right">
						<feature> 110 </feature>
						<threshold> 19.445766 </threshold>
						<split pos="left">
							<output> 0.3643888831138611 </output>
						</split>
						<split pos="right">
							<output> 0.8325279355049133 </output>
						</split>
					</split>
				</split>
			</split>
		</split>
	</tree>
	<tree id="13" weight="0.15">
		<split>
			<feature> 49 </feature>
			<threshold> 0.24289778 </threshold>
			<split pos="left">
				<feature> 108 </feature>
				<threshold> 21.80723 </threshold>
				<split pos="left">
					<feature> 72 </feature>
					<threshold> 16.558912 </threshold>
					<split pos="left">
						<feature> 14 </feature>
						<threshold> 4.0 </threshold>
						<split pos="left">
							<feature> 126 </feature>
							<threshold> 1.0 </threshold>
							<split pos="left">
								<feature> 48 </feature>
								<threshold> 0.515625 </threshold>
								<split pos="left">
									<output> 0.03628924489021301 </output>
								</split>
								<split pos="right">
									<output> -0.27128979563713074 </output>
								</split>
							</split>
							<split pos="right">
								<output> 0.42705419659614563 </output>
							</split>
						</split>
						<split pos="right">
							<feature> 49 </feature>
							<threshold> 0.12784094 </threshold>
							<split pos="left">
								<feature> 125 </feature>
								<threshold> -31.921421 </threshold>
								<split pos="left">
									<output> -0.762913167476654 </output>
								</split>
								<split pos="right">
									<feature> 19 </feature>
									<threshold> 56.914425 </threshold>
									<split pos="left">
										<feature> 128 </feature>
										<threshold> 6.1222736E7 </threshold>
										<split pos="left">
											<output> -0.2650150656700134 </output>
										</split>
										<split pos="right">
											<output> 0.7175778746604919 </output>
										</split>
									</split>
									<split pos="right">
										<output> 1.7702993154525757 </output>
									</split>
								</split>
							</split>
							<split pos="right">
								<output> -0.0038625430315732956 </output>
							</split>
						</split>
					</split>
					<split pos="right">
						<output> 0.3359302878379822 </output>
					</split>
				</split>
				<split pos="right">
					<feature> 14 </feature>
					<threshold> 4.0 </threshold>
					<split pos="left">
						<output> 0.337938517332077 </output>
					</split>
					<split pos="right">
						<output> 0.11319652199745178 </output>
					</split>
				</split>
			</split>
			<split pos="right">
				<feature> 130 </feature>
				<threshold> 64511.594 </threshold>
				<split pos="left">
					<feature> 87 </feature>
					<threshold> 22.07855 </threshold>
					<split pos="left">
						<feature> 129 </feature>
						<threshold> 15.0 </threshold>
						<split pos="left">
							<feature> 130 </feature>
							<threshold> 43552.266 </threshold>
							<split pos="left">
								<feature> 3 </feature>
								<threshold> 2.0 </threshold>
								<split pos="left">
									<feature> 82 </feature>
									<threshold> 42.170155 </threshold>
									<split pos="left">
										<feature> 106 </feature>
										<threshold> 82.12016 </threshold>
										<split pos="left">
											<feature> 132 </feature>
											<threshold> 96.0 </threshold>
											<split pos="left">
												<feature> 16 </feature>
												<threshold> 1.0017232 </threshold>
												<split pos="left">
													<output> 0.891879141330719 </output>
												</split>
												<split pos="right">
													<feature> 55 </feature>
													<threshold> 0.44741684 </threshold>
													<split pos="left">
														<feature> 105 </feature>
														<threshold> 0.0703125 </threshold>
														<split pos="left">
															<output> -1.2364327907562256 </output>
														</split>
														<split pos="right">
															<feature> 44 </feature>
															<threshold> 1.6875 </threshold>
															<split pos="left">
																<output> -0.05173342302441597 </output>
															</split>
															<split pos="right">
																<output> -1.0824031829833984 </output>
															</split>
														</split>
													</split>
													<split pos="right">
														<output> 0.6576716303825378 </output>
													</split>
												</split>
											</split>
											<split pos="right">
												<output> -0.6651241183280945 </output>
											</split>
										</split>
										<split pos="right">
											<output> 1.153010606765747 </output>
										</split>
									</split>
									<split pos="right">
										<output> 1.3194416761398315 </output>
									</split>
								</split>
								<split pos="right">
									<output> 0.19718046486377716 </output>
								</split>
							</split>
							<split pos="right">
								<output> 0.20124270021915436 </output>
							</split>
						</split>
						<split pos="right">
							<output> 0.2684963643550873 </output>
						</split>
					</split>
					<split pos="right">
						<output> 0.5539132952690125 </output>
					</split>
				</split>
				<split pos="right">
					<feature> 109 </feature>
					<threshold> 14.383288 </threshold>
					<split pos="left">
						<output> 0.23190796375274658 </output>
					</split>
					<split pos="right">
						<output> 0.6812217831611633 </output>
					</split>
				</split>
			</split>
		</split>
	</tree>
	<tree id="14" weight="0.15">
		<split>
			<feature> 127 </feature>
			<threshold> 22.105469 </threshold>
			<split pos="left">
				<feature> 109 </feature>
				<threshold> 18.04961 </threshold>
				<split pos="left">
					<feature> 48 </feature>
					<threshold> 0.7265625 </threshold>
					<split pos="left">
						<feature> 129 </feature>
						<threshold> 1.0 </threshold>
						<split pos="left">
							<feature> 79 </feature>
							<threshold> 17.971697 </threshold>
							<split pos="left">
								<feature> 130 </feature>
								<threshold> 65278.4 </threshold>
								<split pos="left">
									<feature> 126 </feature>
									<threshold> 1.0 </threshold>
									<split pos="left">
										<feature> 108 </feature>
										<threshold> 38.32786 </threshold>
										<split pos="left">
											<feature> 79 </feature>
											<threshold> 7.8421926 </threshold>
											<split pos="left">
												<feature> 54 </feature>
												<threshold> 0.25 </threshold>
												<split pos="left">
													<feature> 15 </feature>
													<threshold> 106.25781 </threshold>
													<split pos="left">
														<output> 0.15751616656780243 </output>
													</split>
													<split pos="right">
														<output> -0.17193344235420227 </output>
													</split>
												</split>
												<split pos="right">
													<output> 1.1812196969985962 </output>
												</split>
											</split>
											<split pos="right">
												<output> -0.2903541028499603 </output>
											</split>
										</split>
										<split pos="right">
											<output> 1.1383821964263916 </output>
										</split>
									</split>
									<split pos="right">
										<output> 0.1976923793554306 </output>
									</split>
								</split>
								<split pos="right">
									<output> 0.36952170729637146 </output>
								</split>
							</split>
							<split pos="right">
								<output> 1.4577714204788208 </output>
							</split>
						</split>
						<split pos="right">
							<feature> 64 </feature>
							<threshold> 0.21562482 </threshold>
							<split pos="left">
								<feature> 108 </feature>
								<threshold> 16.190228 </threshold>
								<split pos="left">
									<output> 0.1643858700990677 </output>
								</split>
								<split pos="right">
									<output> 0.4735557734966278 </output>
								</split>
							</split>
							<split pos="right">
								<output> 0.44397851824760437 </output>
							</split>
						</split>
					</split>
					<split pos="right">
						<output> 0.4989432096481323 </output>
					</split>
				</split>
				<split pos="right">
					<output> 0.5176237225532532 </output>
				</split>
			</split>
			<split pos="right">
				<feature> 72 </feature>
				<threshold> 16.558912 </threshold>
				<split pos="left">
					<feature> 3 </feature>
					<threshold> 2.0 </threshold>
					<split pos="left">
						<feature> 54 </feature>
						<threshold> 0.235294 </threshold>
						<split pos="left">
							<feature> 55 </feature>
							<threshold> 0.0062575703 </threshold>
							<split pos="left">
								<feature> 69 </feature>
								<threshold> 0.037265655 </threshold>
								<split pos="left">
									<feature> 11 </feature>
									<threshold> 151.41797 </threshold>
									<split pos="left">
										<output> 0.055685508996248245 </output>
									</split>
									<split pos="right">
										<feature> 115 </feature>
										<threshold> -5.6375055 </threshold>
										<split pos="left">
											<output> -0.37893006205558777 </output>
										</split>
										<split pos="right">
											<output> -0.007782830856740475 </output>
										</split>
									</split>
								</split>
								<split pos="right">
									<output> 1.3272428512573242 </output>
								</split>
							</split>
							<split pos="right">
								<feature> 129 </feature>
								<threshold> 29.0 </threshold>
								<split pos="left">
									<feature> 71 </feature>
									<threshold> 56.361206 </threshold>
									<split pos="left">
										<output> -0.188864603638649 </output>
									</split>
									<split pos="right">
										<output> -0.009526928886771202 </output>
									</split>
								</split>
								<split pos="right">
									<output> 0.39812079071998596 </output>
								</split>
							</split>
						</split>
						<split pos="right">
							<output> -0.42364537715911865 </output>
						</split>
					</split>
					<split pos="right">
						<output> 0.1635507047176361 </output>
					</split>
				</split>
				<split pos="right">
					<feature> 133 </feature>
					<threshold> 1.0 </threshold>
					<split pos="left">
						<output> 0.5569855570793152 </output>
					</split>
					<split pos="right">
						<feature> 133 </feature>
						<threshold> 15.0 </threshold>
						<split pos="left">
							<output> 0.33424049615859985 </output>
						</split>
						<split pos="right">
							<output> 0.009446288459002972 </output>
						</split>
					</split>
				</split>
			</split>
		</split>
	</tree>
	<tree id="15" weight="0.15">
		<split>
			<feature> 72 </feature>
			<threshold> 22.07855 </threshold>
			<split pos="left">
				<feature> 127 </feature>
				<threshold> 22.105469 </threshold>
				<split pos="left">
					<feature> 109 </feature>
					<threshold> 15.229364 </threshold>
					<split pos="left">
						<feature> 108 </feature>
						<threshold> 25.772173 </threshold>
						<split pos="left">
							<feature> 65 </feature>
							<threshold> 0.50060636 </threshold>
							<split pos="left">
								<feature> 64 </feature>
								<threshold> 0.28593716 </threshold>
								<split pos="left">
									<feature> 15 </feature>
									<threshold> 627.5469 </threshold>
									<split pos="left">
										<feature> 129 </feature>
										<threshold> 0.0 </threshold>
										<split pos="left">
											<feature> 126 </feature>
											<threshold> 1.0 </threshold>
											<split pos="left">
												<feature> 49 </feature>
												<threshold> 0.33877867 </threshold>
												<split pos="left">
													<feature> 51 </feature>
													<threshold> 0.27734375 </threshold>
													<split pos="left">
														<feature> 13 </feature>
														<threshold> 0.0 </threshold>
														<split pos="left">
															<output> 0.5947293639183044 </output>
														</split>
														<split pos="right">
															<output> -0.06198430806398392 </output>
														</split>
													</split>
													<split pos="right">
														<output> -0.6193283796310425 </output>
													</split>
												</split>
												<split pos="right">
													<output> 1.0081803798675537 </output>
												</split>
											</split>
											<split pos="right">
												<output> 0.23879306018352509 </output>
											</split>
										</split>
										<split pos="right">
											<feature> 64 </feature>
											<threshold> 0.20156236 </threshold>
											<split pos="left">
												<output> 0.26685914397239685 </output>
											</split>
											<split pos="right">
												<output> 0.3858508765697479 </output>
											</split>
										</split>
									</split>
									<split pos="right">
										<output> -0.22886121273040771 </output>
									</split>
								</split>
								<split pos="right">
									<output> 0.5280734896659851 </output>
								</split>
							</split>
							<split pos="right">
								<output> -3.387507200241089 </output>
							</split>
						</split>
						<split pos="right">
							<output> 0.5011467337608337 </output>
						</split>
					</split>
					<split pos="right">
						<output> 0.36420270800590515 </output>
					</split>
				</split>
				<split pos="right">
					<feature> 3 </feature>
					<threshold> 2.0 </threshold>
					<split pos="left">
						<feature> 72 </feature>
						<threshold> 11.039275 </threshold>
						<split pos="left">
							<feature> 115 </feature>
							<threshold> -26.933273 </threshold>
							<split pos="left">
								<output> -0.5643666982650757 </output>
							</split>
							<split pos="right">
								<feature> 127 </feature>
								<threshold> 28.140625 </threshold>
								<split pos="left">
									<output> 0.015366985462605953 </output>
								</split>
								<split pos="right">
									<feature> 54 </feature>
									<threshold> 0.235294 </threshold>
									<split pos="left">
										<feature> 129 </feature>
										<threshold> 27.0 </threshold>
										<split pos="left">
											<feature> 69 </feature>
											<threshold> 0.037265655 </threshold>
											<split pos="left">
												<feature> 128 </feature>
												<threshold> 3.312224E7 </threshold>
												<split pos="left">
													<feature> 110 </feature>
													<threshold> 38.782024 </threshold>
													<split pos="left">
														<feature> 101 </feature>
														<threshold> 0.08984375 </threshold>
														<split pos="left">
															<output> -0.08286555111408234 </output>
														</split>
														<split pos="right">
															<output> -0.25805968046188354 </output>
														</split>
													</split>
													<split pos="right">
														<output> 0.061307549476623535 </output>
													</split>
												</split>
												<split pos="right">
													<output> 0.5604647397994995 </output>
												</split>
											</split>
											<split pos="right">
												<output> 0.94441157579422 </output>
											</split>
										</split>
										<split pos="right">
											<output> 0.1349232941865921 </output>
										</split>
									</split>
									<split pos="right">
										<output> -0.5355512499809265 </output>
									</split>
								</split>
							</split>
						</split>
						<split pos="right">
							<output> 0.10444729775190353 </output>
						</split>
					</split>
					<split pos="right">
						<output> 0.14645764231681824 </output>
					</split>
				</split>
			</split>
			<split pos="right">
				<feature> 54 </feature>
				<threshold> 0.125 </threshold>
				<split pos="left">
					<output> 0.25779402256011963 </output>
				</split>
				<split pos="right">
					<output> 0.5945104956626892 </output>
				</split>
			</split>
		</split>
	</tree>
	<tree id="16" weight="0.15">
		<split>
			<feature> 72 </feature>
			<threshold> 33.117825 </threshold>
			<split pos="left">
				<feature> 127 </feature>
				<threshold> 22.105469 </threshold>
				<split pos="left">
					<feature> 109 </feature>
					<threshold> 18.04961 </threshold>
					<split pos="left">
						<feature> 108 </feature>
						<threshold> 28.415468 </threshold>
						<split pos="left">
							<feature> 129 </feature>
							<threshold> 2.0 </threshold>
							<split pos="left">
								<feature> 126 </feature>
								<threshold> 1.0 </threshold>
								<split pos="left">
									<feature> 63 </feature>
									<threshold> 0.5 </threshold>
									<split pos="left">
										<feature> 48 </feature>
										<threshold> 0.7265625 </threshold>
										<split pos="left">
											<feature> 65 </feature>
											<threshold> 0.306621 </threshold>
											<split pos="left">
												<feature> 113 </feature>
												<threshold> -1.7192001 </threshold>
												<split pos="left">
													<feature> 59 </feature>
													<threshold> 0.4 </threshold>
													<split pos="left">
														<feature> 28 </feature>
														<threshold> 8.0 </threshold>
														<split pos="left">
															<feature> 11 </feature>
															<threshold> 454.2539 </threshold>
															<split pos="left">
																<feature> 59 </feature>
																<threshold> 0.25 </threshold>
																<split pos="left">
																	<output> -0.01622617430984974 </output>
																</split>
																<split pos="right">
																	<output> 0.6555951833724976 </output>
																</split>
															</split>
															<split pos="right">
																<output> -0.31591328978538513 </output>
															</split>
														</split>
														<split pos="right">
															<output> -3.564251184463501 </output>
														</split>
													</split>
													<split pos="right">
														<output> -4.961479663848877 </output>
													</split>
												</split>
												<split pos="right">
													<output> 0.3290744423866272 </output>
												</split>
											</split>
											<split pos="right">
												<output> -1.527294397354126 </output>
											</split>
										</split>
										<split pos="right">
											<output> 0.2047506868839264 </output>
										</split>
									</split>
									<split pos="right">
										<output> -0.6475310325622559 </output>
									</split>
								</split>
								<split pos="right">
									<output> 0.21959713101387024 </output>
								</split>
							</split>
							<split pos="right">
								<feature> 64 </feature>
								<threshold> 0.21562482 </threshold>
								<split pos="left">
									<output> 0.23121817409992218 </output>
								</split>
								<split pos="right">
									<output> 0.3914634585380554 </output>
								</split>
							</split>
						</split>
						<split pos="right">
							<output> 0.563279926776886 </output>
						</split>
					</split>
					<split pos="right">
						<output> 0.35411056876182556 </output>
					</split>
				</split>
				<split pos="right">
					<feature> 107 </feature>
					<threshold> 13.472752 </threshold>
					<split pos="left">
						<feature> 110 </feature>
						<threshold> 38.782024 </threshold>
						<split pos="left">
							<feature> 3 </feature>
							<threshold> 1.0 </threshold>
							<split pos="left">
								<feature> 59 </feature>
								<threshold> 0.384615 </threshold>
								<split pos="left">
									<feature> 115 </feature>
									<threshold> -26.933273 </threshold>
									<split pos="left">
										<output> -0.6623055338859558 </output>
									</split>
									<split pos="right">
										<output> -0.21862374246120453 </output>
									</split>
								</split>
								<split pos="right">
									<output> 0.7872849702835083 </output>
								</split>
							</split>
							<split pos="right">
								<feature> 130 </feature>
								<threshold> 57865.953 </threshold>
								<split pos="left">
									<feature> 34 </feature>
									<threshold> 6.0 </threshold>
									<split pos="left">
										<feature> 133 </feature>
										<threshold> 126.0 </threshold>
										<split pos="left">
											<feature> 71 </feature>
											<threshold> 56.361206 </threshold>
											<split pos="left">
												<output> -0.11911320686340332 </output>
											</split>
											<split pos="right">
												<output> 0.03697880730032921 </output>
											</split>
										</split>
										<split pos="right">
											<output> -0.3191570043563843 </output>
										</split>
									</split>
									<split pos="right">
										<output> -3.879059076309204 </output>
									</split>
								</split>
								<split pos="right">
									<output> 0.2548486590385437 </output>
								</split>
							</split>
						</split>
						<split pos="right">
							<output> 0.18510843813419342 </output>
						</split>
					</split>
					<split pos="right">
						<output> 0.15211564302444458 </output>
					</split>
				</split>
			</split>
			<split pos="right">
				<output> 0.41567564010620117 </output>
			</split>
		</split>
	</tree>
	<tree id="17" weight="0.15">
		<split>
			<feature> 77 </feature>
			<threshold> 19.02941 </threshold>
			<split pos="left">
				<feature> 130 </feature>
				<threshold> 56587.945 </threshold>
				<split pos="left">
					<feature> 3 </feature>
					<threshold> 2.0 </threshold>
					<split pos="left">
						<feature> 129 </feature>
						<threshold> 5.0 </threshold>
						<split pos="left">
							<feature> 64 </feature>
							<threshold> 0.23203103 </threshold>
							<split pos="left">
								<feature> 27 </feature>
								<threshold> 3.0 </threshold>
								<split pos="left">
									<feature> 11 </feature>
									<threshold> 1160.8711 </threshold>
									<split pos="left">
										<feature> 14 </feature>
										<threshold> 3.0 </threshold>
										<split pos="left">
											<output> 0.1285717785358429 </output>
										</split>
										<split pos="right">
											<feature> 69 </feature>
											<threshold> 0.04007816 </threshold>
											<split pos="left">
												<feature> 69 </feature>
												<threshold> 0.037265655 </threshold>
												<split pos="left">
													<feature> 101 </feature>
													<threshold> 0.14453125 </threshold>
													<split pos="left">
														<output> 0.01526743732392788 </output>
													</split>
													<split pos="right">
														<feature> 58 </feature>
														<threshold> 0.0703125 </threshold>
														<split pos="left">
															<output> -0.3994664251804352 </output>
														</split>
														<split pos="right">
															<feature> 132 </feature>
															<threshold> 80.0 </threshold>
															<split pos="left">
																<feature> 20 </feature>
																<threshold> 13.410523 </threshold>
																<split pos="left">
																	<output> -0.12793046236038208 </output>
																</split>
																<split pos="right">
																	<output> 0.06513947248458862 </output>
																</split>
															</split>
															<split pos="right">
																<output> -0.41899073123931885 </output>
															</split>
														</split>
													</split>
												</split>
												<split pos="right">
													<output> 1.038233757019043 </output>
												</split>
											</split>
											<split pos="right">
												<output> -3.715055227279663 </output>
											</split>
										</split>
									</split>
									<split pos="right">
										<output> -0.38818225264549255 </output>
									</split>
								</split>
								<split pos="right">
									<output> 1.3249083757400513 </output>
								</split>
							</split>
							<split pos="right">
								<output> -0.20117217302322388 </output>
							</split>
						</split>
						<split pos="right">
							<output> 0.054679304361343384 </output>
						</split>
					</split>
					<split pos="right">
						<output> 0.1704515665769577 </output>
					</split>
				</split>
				<split pos="right">
					<feature> 109 </feature>
					<threshold> 15.793415 </threshold>
					<split pos="left">
						<feature> 108 </feature>
						<threshold> 25.772173 </threshold>
						<split pos="left">
							<feature> 54 </feature>
							<threshold> 0.375 </threshold>
							<split pos="left">
								<feature> 11 </feature>
								<threshold> 504.72656 </threshold>
								<split pos="left">
									<feature> 54 </feature>
									<threshold> 0.3 </threshold>
									<split pos="left">
										<feature> 108 </feature>
										<threshold> 15.859815 </threshold>
										<split pos="left">
											<feature> 49 </feature>
											<threshold> 0.4346596 </threshold>
											<split pos="left">
												<feature> 55 </feature>
												<threshold> 0.22527237 </threshold>
												<split pos="left">
													<feature> 29 </feature>
													<threshold> 1.0 </threshold>
													<split pos="left">
														<feature> 78 </feature>
														<threshold> 8.04277 </threshold>
														<split pos="left">
															<output> 0.07229267060756683 </output>
														</split>
														<split pos="right">
															<output> 0.35066452622413635 </output>
														</split>
													</split>
													<split pos="right">
														<output> -1.39431631565094 </output>
													</split>
												</split>
												<split pos="right">
													<output> 0.5266555547714233 </output>
												</split>
											</split>
											<split pos="right">
												<output> 1.2251204252243042 </output>
											</split>
										</split>
										<split pos="right">
											<output> 0.3107491433620453 </output>
										</split>
									</split>
									<split pos="right">
										<output> 0.8323851823806763 </output>
									</split>
								</split>
								<split pos="right">
									<output> -0.18322095274925232 </output>
								</split>
							</split>
							<split pos="right">
								<output> 0.8519853949546814 </output>
							</split>
						</split>
						<split pos="right">
							<output> 0.7516971230506897 </output>
						</split>
					</split>
					<split pos="right">
						<output> 0.49373966455459595 </output>
					</split>
				</split>
			</split>
			<split pos="right">
				<output> 0.5229388475418091 </output>
			</split>
		</split>
	</tree>
	<tree id="18" weight="0.15">
		<split>
			<feature> 77 </feature>
			<threshold> 19.02941 </threshold>
			<split pos="left">
				<feature> 130 </feature>
				<threshold> 63489.188 </threshold>
				<split pos="left">
					<feature> 3 </feature>
					<threshold> 2.0 </threshold>
					<split pos="left">
						<feature> 130 </feature>
						<threshold> 23359.742 </threshold>
						<split pos="left">
							<feature> 27 </feature>
							<threshold> 3.0 </threshold>
							<split pos="left">
								<feature> 64 </feature>
								<threshold> 0.21328108 </threshold>
								<split pos="left">
									<feature> 129 </feature>
									<threshold> 33.0 </threshold>
									<split pos="left">
										<feature> 14 </feature>
										<threshold> 3.0 </threshold>
										<split pos="left">
											<output> 0.12024884670972824 </output>
										</split>
										<split pos="right">
											<feature> 55 </feature>
											<threshold> 0.0062575703 </threshold>
											<split pos="left">
												<output> -0.25170308351516724 </output>
											</split>
											<split pos="right">
												<feature> 45 </feature>
												<threshold> 0.0 </threshold>
												<split pos="left">
													<output> -0.21743206679821014 </output>
												</split>
												<split pos="right">
													<output> 2.447380102239549E-4 </output>
												</split>
											</split>
										</split>
									</split>
									<split pos="right">
										<output> 0.31298595666885376 </output>
									</split>
								</split>
								<split pos="right">
									<output> -0.3084907531738281 </output>
								</split>
							</split>
							<split pos="right">
								<output> 1.2856401205062866 </output>
							</split>
						</split>
						<split pos="right">
							<feature> 109 </feature>
							<threshold> 19.741756 </threshold>
							<split pos="left">
								<feature> 108 </feature>
								<threshold> 40.64076 </threshold>
								<split pos="left">
									<feature> 108 </feature>
									<threshold> 20.15517 </threshold>
									<split pos="left">
										<feature> 55 </feature>
										<threshold> 0.44741684 </threshold>
										<split pos="left">
											<feature> 54 </feature>
											<threshold> 0.307692 </threshold>
											<split pos="left">
												<feature> 110 </feature>
												<threshold> 29.682604 </threshold>
												<split pos="left">
													<feature> 69 </feature>
													<threshold> 0.012656247 </threshold>
													<split pos="left">
														<feature> 11 </feature>
														<threshold> 252.36328 </threshold>
														<split pos="left">
															<output> 0.06441442668437958 </output>
														</split>
														<split pos="right">
															<output> -0.14185921847820282 </output>
														</split>
													</split>
													<split pos="right">
														<output> -0.36972808837890625 </output>
													</split>
												</split>
												<split pos="right">
													<output> 0.3203969895839691 </output>
												</split>
											</split>
											<split pos="right">
												<output> 0.48505714535713196 </output>
											</split>
										</split>
										<split pos="right">
											<output> 0.9459860324859619 </output>
										</split>
									</split>
									<split pos="right">
										<output> 0.22679969668388367 </output>
									</split>
								</split>
								<split pos="right">
									<output> 1.2810832262039185 </output>
								</split>
							</split>
							<split pos="right">
								<output> 0.5036814212799072 </output>
							</split>
						</split>
					</split>
					<split pos="right">
						<feature> 14 </feature>
						<threshold> 4.0 </threshold>
						<split pos="left">
							<output> 0.2602440118789673 </output>
						</split>
						<split pos="right">
							<output> 0.1370728611946106 </output>
						</split>
					</split>
				</split>
				<split pos="right">
					<feature> 109 </feature>
					<threshold> 15.51139 </threshold>
					<split pos="left">
						<feature> 108 </feature>
						<threshold> 26.432997 </threshold>
						<split pos="left">
							<feature> 64 </feature>
							<threshold> 0.37734318 </threshold>
							<split pos="left">
								<feature> 55 </feature>
								<threshold> 0.012515141 </threshold>
								<split pos="left">
									<output> -0.03888021409511566 </output>
								</split>
								<split pos="right">
									<feature> 69 </feature>
									<threshold> 0.014062496 </threshold>
									<split pos="left">
										<output> 0.2284250259399414 </output>
									</split>
									<split pos="right">
										<output> 0.6760526895523071 </output>
									</split>
								</split>
							</split>
							<split pos="right">
								<output> 0.9844662547111511 </output>
							</split>
						</split>
						<split pos="right">
							<output> 0.7972840070724487 </output>
						</split>
					</split>
					<split pos="right">
						<output> 0.5418277978897095 </output>
					</split>
				</split>
			</split>
			<split pos="right">
				<output> 0.44143691658973694 </output>
			</split>
		</split>
	</tree>
	<tree id="19" weight="0.15">
		<split>
			<feature> 87 </feature>
			<threshold> 24.83837 </threshold>
			<split pos="left">
				<feature> 127 </feature>
				<threshold> 28.140625 </threshold>
				<split pos="left">
					<feature> 129 </feature>
					<threshold> 0.0 </threshold>
					<split pos="left">
						<feature> 11 </feature>
						<threshold> 0.0 </threshold>
						<split pos="left">
							<output> 0.6114662885665894 </output>
						</split>
						<split pos="right">
							<feature> 64 </feature>
							<threshold> 0.20156236 </threshold>
							<split pos="left">
								<feature> 108 </feature>
								<threshold> 31.719587 </threshold>
								<split pos="left">
									<feature> 82 </feature>
									<threshold> 42.170155 </threshold>
									<split pos="left">
										<feature> 69 </feature>
										<threshold> 0.028125016 </threshold>
										<split pos="left">
											<feature> 94 </feature>
											<threshold> 88.17834 </threshold>
											<split pos="left">
												<feature> 11 </feature>
												<threshold> 50.472656 </threshold>
												<split pos="left">
													<output> 0.16462138295173645 </output>
												</split>
												<split pos="right">
													<feature> 48 </feature>
													<threshold> 0.66796875 </threshold>
													<split pos="left">
														<feature> 132 </feature>
														<threshold> 72.0 </threshold>
														<split pos="left">
															<output> -0.0770912915468216 </output>
														</split>
														<split pos="right">
															<output> -0.5969427824020386 </output>
														</split>
													</split>
													<split pos="right">
														<output> 0.1593446582555771 </output>
													</split>
												</split>
											</split>
											<split pos="right">
												<output> 1.3591166734695435 </output>
											</split>
										</split>
										<split pos="right">
											<output> 0.6831352114677429 </output>
										</split>
									</split>
									<split pos="right">
										<output> 1.487993597984314 </output>
									</split>
								</split>
								<split pos="right">
									<output> 0.38253939151763916 </output>
								</split>
							</split>
							<split pos="right">
								<output> -0.24869869649410248 </output>
							</split>
						</split>
					</split>
					<split pos="right">
						<feature> 109 </feature>
						<threshold> 17.203537 </threshold>
						<split pos="left">
							<feature> 108 </feature>
							<threshold> 23.789701 </threshold>
							<split pos="left">
								<feature> 55 </feature>
								<threshold> 0.012515141 </threshold>
								<split pos="left">
									<output> 0.00557407271116972 </output>
								</split>
								<split pos="right">
									<feature> 127 </feature>
									<threshold> 16.070312 </threshold>
									<split pos="left">
										<output> 0.41380852460861206 </output>
									</split>
									<split pos="right">
										<output> 0.2517911195755005 </output>
									</split>
								</split>
							</split>
							<split pos="right">
								<output> 0.5400740504264832 </output>
							</split>
						</split>
						<split pos="right">
							<output> 0.6185331344604492 </output>
						</split>
					</split>
				</split>
				<split pos="right">
					<feature> 2 </feature>
					<threshold> 2.0 </threshold>
					<split pos="left">
						<feature> 110 </feature>
						<threshold> 34.23231 </threshold>
						<split pos="left">
							<feature> 123 </feature>
							<threshold> -14.376099 </threshold>
							<split pos="left">
								<output> -0.29510626196861267 </output>
							</split>
							<split pos="right">
								<feature> 129 </feature>
								<threshold> 33.0 </threshold>
								<split pos="left">
									<feature> 72 </feature>
									<threshold> 71.75529 </threshold>
									<split pos="left">
										<feature> 59 </feature>
										<threshold> 0.384615 </threshold>
										<split pos="left">
											<feature> 32 </feature>
											<threshold> 6.0 </threshold>
											<split pos="left">
												<feature> 92 </feature>
												<threshold> 0.0 </threshold>
												<split pos="left">
													<output> -0.1395382434129715 </output>
												</split>
												<split pos="right">
													<output> 0.06261098384857178 </output>
												</split>
											</split>
											<split pos="right">
												<output> -2.1442699432373047 </output>
											</split>
										</split>
										<split pos="right">
											<output> 0.6737878322601318 </output>
										</split>
									</split>
									<split pos="right">
										<output> -4.881882667541504 </output>
									</split>
								</split>
								<split pos="right">
									<output> 0.30033230781555176 </output>
								</split>
							</split>
						</split>
						<split pos="right">
							<output> 0.09212403744459152 </output>
						</split>
					</split>
					<split pos="right">
						<output> 0.26876336336135864 </output>
					</split>
				</split>
			</split>
			<split pos="right">
				<output> 0.3997643291950226 </output>
			</split>
		</split>
	</tree>
	<tree id="20" weight="0.15">
		<split>
			<feature> 77 </feature>
			<threshold> 35.340332 </threshold>
			<split pos="left">
				<feature> 130 </feature>
				<threshold> 36906.625 </threshold>
				<split pos="left">
					<feature> 3 </feature>
					<threshold> 2.0 </threshold>
					<split pos="left">
						<feature> 129 </feature>
						<threshold> 15.0 </threshold>
						<split pos="left">
							<feature> 133 </feature>
							<threshold> 45.0 </threshold>
							<split pos="left">
								<feature> 69 </feature>
								<threshold> 0.037265655 </threshold>
								<split pos="left">
									<feature> 22 </feature>
									<threshold> 4.0 </threshold>
									<split pos="left">
										<feature> 71 </feature>
										<threshold> 56.361206 </threshold>
										<split pos="left">
											<feature> 15 </feature>
											<threshold> 1044.5781 </threshold>
											<split pos="left">
												<feature> 128 </feature>
												<threshold> 6.1222736E7 </threshold>
												<split pos="left">
													<output> -0.14966681599617004 </output>
												</split>
												<split pos="right">
													<output> 0.6871081590652466 </output>
												</split>
											</split>
											<split pos="right">
												<output> -0.6631612181663513 </output>
											</split>
										</split>
										<split pos="right">
											<feature> 112 </feature>
											<threshold> -0.5533847 </threshold>
											<split pos="left">
												<output> -0.03017510659992695 </output>
											</split>
											<split pos="right">
												<output> 0.3521340489387512 </output>
											</split>
										</split>
									</split>
									<split pos="right">
										<output> 0.46299687027931213 </output>
									</split>
								</split>
								<split pos="right">
									<output> 0.9651825428009033 </output>
								</split>
							</split>
							<split pos="right">
								<output> -0.28175997734069824 </output>
							</split>
						</split>
						<split pos="right">
							<output> 0.12042893469333649 </output>
						</split>
					</split>
					<split pos="right">
						<feature> 62 </feature>
						<threshold> 0.19140625 </threshold>
						<split pos="left">
							<output> 0.0873972624540329 </output>
						</split>
						<split pos="right">
							<output> 0.2649029791355133 </output>
						</split>
					</split>
				</split>
				<split pos="right">
					<feature> 109 </feature>
					<threshold> 18.331635 </threshold>
					<split pos="left">
						<feature> 108 </feature>
						<threshold> 25.772173 </threshold>
						<split pos="left">
							<feature> 59 </feature>
							<threshold> 0.307692 </threshold>
							<split pos="left">
								<feature> 49 </feature>
								<threshold> 0.44744372 </threshold>
								<split pos="left">
									<feature> 65 </feature>
									<threshold> 0.025030283 </threshold>
