## LambdaMART
## No. of trees = 1000
## No. of leaves = 25
## No. of threshold candidates = 256
## Learning rate = 0.15
## Stop early = 50

<ensemble>
	<tree id="1" weight="0.15">
		<split>
			<feature> 108 </feature>
			<threshold> 13.33966 </threshold>
			<split pos="left">
				<feature> 130 </feature>
				<threshold> 355.60547 </threshold>
				<split pos="left">
					<feature> 18 </feature>
					<threshold> 16.653086 </threshold>
					<split pos="left">
						<feature> 54 </feature>
						<threshold> 0.117647 </threshold>
						<split pos="left">
							<feature> 18 </feature>
							<threshold> 10.861764 </threshold>
							<split pos="left">
								<output> -0.6945345997810364 </output>
							</split>
							<split pos="right">
								<feature> 60 </feature>
								<threshold> 0.031287853 </threshold>
								<split pos="left">
									<output> -0.7452844977378845 </output>
								</split>
								<split pos="right">
									<output> -0.2643846571445465 </output>
								</split>
							</split>
						</split>
						<split pos="right">
							<output> -0.09684049338102341 </output>
						</split>
					</split>
					<split pos="right">
						<feature> 63 </feature>
						<threshold> 0.015625 </threshold>
						<split pos="left">
							<output> -0.5034067630767822 </output>
						</split>
						<split pos="right">
							<feature> 122 </feature>
							<threshold> -2.26364 </threshold>
							<split pos="left">
								<feature> 19 </feature>
								<threshold> 26.509682 </threshold>
								<split pos="left">
									<output> -0.3140650689601898 </output>
								</split>
								<split pos="right">
									<output> 0.09496698528528214 </output>
								</split>
							</split>
							<split pos="right">
								<output> 0.7099328637123108 </output>
							</split>
						</split>
					</split>
				</split>
				<split pos="right">
					<feature> 55 </feature>
					<threshold> 0.012515141 </threshold>
					<split pos="left">
						<feature> 15 </feature>
						<threshold> 54.9375 </threshold>
						<split pos="left">
							<output> 0.246138796210289 </output>
						</split>
						<split pos="right">
							<output> -0.3065846562385559 </output>
						</split>
					</split>
					<split pos="right">
						<output> 0.28299906849861145 </output>
					</split>
				</split>
			</split>
			<split pos="right">
				<feature> 17 </feature>
				<threshold> 7.759387 </threshold>
				<split pos="left">
					<output> 1.5171620845794678 </output>
				</split>
				<split pos="right">
					<feature> 109 </feature>
					<threshold> 19.37315 </threshold>
					<split pos="left">
						<feature> 14 </feature>
						<threshold> 4.0 </threshold>
						<split pos="left">
							<output> 0.6224762201309204 </output>
						</split>
						<split pos="right">
							<feature> 129 </feature>
							<threshold> 1.0 </threshold>
							<split pos="left">
								<feature> 131 </feature>
								<threshold> 768.97656 </threshold>
								<split pos="left">
									<output> -0.26822996139526367 </output>
								</split>
								<split pos="right">
									<feature> 133 </feature>
									<threshold> 246.0 </threshold>
									<split pos="left">
										<feature> 108 </feature>
										<threshold> 18.897852 </threshold>
										<split pos="left">
											<output> -0.010065519250929356 </output>
										</split>
										<split pos="right">
											<feature> 66 </feature>
											<threshold> 0.0 </threshold>
											<split pos="left">
												<output> -0.008944456465542316 </output>
											</split>
											<split pos="right">
												<output> 0.28942859172821045 </output>
											</split>
										</split>
									</split>
									<split pos="right">
										<output> -1.9941221475601196 </output>
									</split>
								</split>
							</split>
							<split pos="right">
								<feature> 127 </feature>
								<threshold> 396.28516 </threshold>
								<split pos="left">
									<feature> 126 </feature>
									<threshold> 1.0 </threshold>
									<split pos="left">
										<output> 1.07966947555542 </output>
									</split>
									<split pos="right">
										<feature> 133 </feature>
										<threshold> 1.0 </threshold>
										<split pos="left">
											<output> 0.7389490604400635 </output>
										</split>
										<split pos="right">
											<feature> 108 </feature>
											<threshold> 20.009491 </threshold>
											<split pos="left">
												<output> 0.17638187110424042 </output>
											</split>
											<split pos="right">
												<output> 0.3658043444156647 </output>
											</split>
										</split>
									</split>
								</split>
								<split pos="right">
									<output> 1.9573512077331543 </output>
								</split>
							</split>
						</split>
					</split>
					<split pos="right">
						<feature> 38 </feature>
						<threshold> 0.2 </threshold>
						<split pos="left">
							<output> 1.8909964561462402 </output>
						</split>
						<split pos="right">
							<output> 0.5598039031028748 </output>
						</split>
					</split>
				</split>
			</split>
		</split>
	</tree>
	<tree id="2" weight="0.15">
		<split>
			<feature> 108 </feature>
			<threshold> 13.33966 </threshold>
			<split pos="left">
				<feature> 124 </feature>
				<threshold> -13.74263 </threshold>
				<split pos="left">
					<output> -0.8438270092010498 </output>
				</split>
				<split pos="right">
					<feature> 54 </feature>
					<threshold> 0.24 </threshold>
					<split pos="left">
						<feature> 123 </feature>
						<threshold> -2.2579975 </threshold>
						<split pos="left">
							<output> -0.42349451780319214 </output>
						</split>
						<split pos="right">
							<output> -0.07018295675516129 </output>
						</split>
					</split>
					<split pos="right">
						<output> 0.765052855014801 </output>
					</split>
				</split>
			</split>
			<split pos="right">
				<feature> 126 </feature>
				<threshold> 1.0 </threshold>
				<split pos="left">
					<feature> 129 </feature>
					<threshold> 3.0 </threshold>
					<split pos="left">
						<feature> 108 </feature>
						<threshold> 23.344408 </threshold>
						<split pos="left">
							<feature> 133 </feature>
							<threshold> 11.0 </threshold>
							<split pos="left">
								<feature> 12 </feature>
								<threshold> 7.0 </threshold>
								<split pos="left">
									<feature> 129 </feature>
									<threshold> 1.0 </threshold>
									<split pos="left">
										<feature> 14 </feature>
										<threshold> 3.0 </threshold>
										<split pos="left">
											<output> 0.7872545719146729 </output>
										</split>
										<split pos="right">
											<output> 0.4021890163421631 </output>
										</split>
									</split>
									<split pos="right">
										<output> 0.5983709096908569 </output>
									</split>
								</split>
								<split pos="right">
									<output> 1.471750020980835 </output>
								</split>
							</split>
							<split pos="right">
								<output> 0.02462664805352688 </output>
							</split>
						</split>
						<split pos="right">
							<feature> 130 </feature>
							<threshold> 50709.883 </threshold>
							<split pos="left">
								<output> 0.8458355069160461 </output>
							</split>
							<split pos="right">
								<output> 1.4989782571792603 </output>
							</split>
						</split>
					</split>
					<split pos="right">
						<feature> 14 </feature>
						<threshold> 5.0 </threshold>
						<split pos="left">
							<feature> 110 </feature>
							<threshold> 6.48709 </threshold>
							<split pos="left">
								<output> 1.6686232089996338 </output>
							</split>
							<split pos="right">
								<feature> 31 </feature>
								<threshold> 17.621094 </threshold>
								<split pos="left">
									<output> 1.2547838687896729 </output>
								</split>
								<split pos="right">
									<output> 0.5262301564216614 </output>
								</split>
							</split>
						</split>
						<split pos="right">
							<output> 1.118483543395996 </output>
						</split>
					</split>
				</split>
				<split pos="right">
					<feature> 14 </feature>
					<threshold> 4.0 </threshold>
					<split pos="left">
						<feature> 130 </feature>
						<threshold> 64512.58 </threshold>
						<split pos="left">
							<output> 0.7887592315673828 </output>
						</split>
						<split pos="right">
							<output> 1.3083168268203735 </output>
						</split>
					</split>
					<split pos="right">
						<feature> 133 </feature>
						<threshold> 1.0 </threshold>
						<split pos="left">
							<feature> 129 </feature>
							<threshold> 11.0 </threshold>
							<split pos="left">
								<feature> 17 </feature>
								<threshold> 7.759387 </threshold>
								<split pos="left">
									<output> 1.4783955812454224 </output>
								</split>
								<split pos="right">
									<feature> 129 </feature>
									<threshold> 1.0 </threshold>
									<split pos="left">
										<output> -0.1985785812139511 </output>
									</split>
									<split pos="right">
										<feature> 38 </feature>
										<threshold> 4.0 </threshold>
										<split pos="left">
											<output> 0.35772594809532166 </output>
										</split>
										<split pos="right">
											<output> 1.8496546745300293 </output>
										</split>
									</split>
								</split>
							</split>
							<split pos="right">
								<feature> 36 </feature>
								<threshold> 17.621094 </threshold>
								<split pos="left">
									<output> 0.5920829176902771 </output>
								</split>
								<split pos="right">
									<output> 1.2600557804107666 </output>
								</split>
							</split>
						</split>
						<split pos="right">
							<feature> 109 </feature>
							<threshold> 19.37315 </threshold>
							<split pos="left">
								<output> -0.12724927067756653 </output>
							</split>
							<split pos="right">
								<output> 0.6405479907989502 </output>
							</split>
						</split>
					</split>
				</split>
			</split>
		</split>
	</tree>
	<tree id="3" weight="0.15">
		<split>
			<feature> 108 </feature>
			<threshold> 13.33966 </threshold>
			<split pos="left">
				<feature> 54 </feature>
				<threshold> 0.24 </threshold>
				<split pos="left">
					<output> -0.6624304056167603 </output>
				</split>
				<split pos="right">
					<feature> 130 </feature>
					<threshold> 64768.184 </threshold>
					<split pos="left">
						<output> 0.4971262812614441 </output>
					</split>
					<split pos="right">
						<feature> 128 </feature>
						<threshold> 3.312224E7 </threshold>
						<split pos="left">
							<output> 1.3594677448272705 </output>
						</split>
						<split pos="right">
							<output> 1.8282006978988647 </output>
						</split>
					</split>
				</split>
			</split>
			<split pos="right">
				<feature> 14 </feature>
				<threshold> 4.0 </threshold>
				<split pos="left">
					<feature> 108 </feature>
					<threshold> 24.456047 </threshold>
					<split pos="left">
						<feature> 129 </feature>
						<threshold> 3.0 </threshold>
						<split pos="left">
							<feature> 126 </feature>
							<threshold> 1.0 </threshold>
							<split pos="left">
								<feature> 14 </feature>
								<threshold> 3.0 </threshold>
								<split pos="left">
									<output> 0.5908294916152954 </output>
								</split>
								<split pos="right">
									<output> 0.21336202323436737 </output>
								</split>
							</split>
							<split pos="right">
								<feature> 130 </feature>
								<threshold> 64512.58 </threshold>
								<split pos="left">
									<feature> 20 </feature>
									<threshold> 3.6615512 </threshold>
									<split pos="left">
										<output> 0.8656066060066223 </output>
									</split>
									<split pos="right">
										<output> 0.5745745301246643 </output>
									</split>
								</split>
								<split pos="right">
									<output> 0.973695695400238 </output>
								</split>
							</split>
						</split>
						<split pos="right">
							<feature> 31 </feature>
							<threshold> 17.621094 </threshold>
							<split pos="left">
								<feature> 109 </feature>
								<threshold> 21.077187 </threshold>
								<split pos="left">
									<feature> 18 </feature>
									<threshold> 8.931323 </threshold>
									<split pos="left">
										<output> 1.2476447820663452 </output>
									</split>
									<split pos="right">
										<output> 0.8690128922462463 </output>
									</split>
								</split>
								<split pos="right">
									<output> 1.6385873556137085 </output>
								</split>
							</split>
							<split pos="right">
								<output> 0.651541531085968 </output>
							</split>
						</split>
					</split>
					<split pos="right">
						<feature> 130 </feature>
						<threshold> 53777.15 </threshold>
						<split pos="left">
							<feature> 133 </feature>
							<threshold> 241.0 </threshold>
							<split pos="left">
								<output> 0.8425588607788086 </output>
							</split>
							<split pos="right">
								<output> 1.6911137104034424 </output>
							</split>
						</split>
						<split pos="right">
							<output> 1.295589566230774 </output>
						</split>
					</split>
				</split>
				<split pos="right">
					<feature> 126 </feature>
					<threshold> 1.0 </threshold>
					<split pos="left">
						<feature> 129 </feature>
						<threshold> 3.0 </threshold>
						<split pos="left">
							<output> 0.44885674118995667 </output>
						</split>
						<split pos="right">
							<feature> 133 </feature>
							<threshold> 10.0 </threshold>
							<split pos="left">
								<output> 1.1413296461105347 </output>
							</split>
							<split pos="right">
								<output> 0.4014025628566742 </output>
							</split>
						</split>
					</split>
					<split pos="right">
						<feature> 131 </feature>
						<threshold> 64511.03 </threshold>
						<split pos="left">
							<feature> 109 </feature>
							<threshold> 19.37315 </threshold>
							<split pos="left">
								<feature> 27 </feature>
								<threshold> 19.0 </threshold>
								<split pos="left">
									<feature> 18 </feature>
									<threshold> 24.37485 </threshold>
									<split pos="left">
										<output> -0.2564035952091217 </output>
									</split>
									<split pos="right">
										<output> 0.21095798909664154 </output>
									</split>
								</split>
								<split pos="right">
									<output> 1.6873098611831665 </output>
								</split>
							</split>
							<split pos="right">
								<output> 0.48832911252975464 </output>
							</split>
						</split>
						<split pos="right">
							<feature> 129 </feature>
							<threshold> 16.0 </threshold>
							<split pos="left">
								<output> 0.1691666692495346 </output>
							</split>
							<split pos="right">
								<output> 1.0829925537109375 </output>
							</split>
						</split>
					</split>
				</split>
			</split>
		</split>
	</tree>
	<tree id="4" weight="0.15">
		<split>
			<feature> 54 </feature>
			<threshold> 0.24 </threshold>
			<split pos="left">
				<feature> 108 </feature>
				<threshold> 13.33966 </threshold>
				<split pos="left">
					<feature> 124 </feature>
					<threshold> -14.292355 </threshold>
					<split pos="left">
						<output> -0.7580470442771912 </output>
					</split>
					<split pos="right">
						<output> -0.4135396480560303 </output>
					</split>
				</split>
				<split pos="right">
					<feature> 14 </feature>
					<threshold> 4.0 </threshold>
					<split pos="left">
						<feature> 108 </feature>
						<threshold> 24.456047 </threshold>
						<split pos="left">
							<feature> 129 </feature>
							<threshold> 5.0 </threshold>
							<split pos="left">
								<feature> 126 </feature>
								<threshold> 1.0 </threshold>
								<split pos="left">
									<feature> 14 </feature>
									<threshold> 3.0 </threshold>
									<split pos="left">
										<output> 0.45326364040374756 </output>
									</split>
									<split pos="right">
										<output> 0.17113164067268372 </output>
									</split>
								</split>
								<split pos="right">
									<feature> 16 </feature>
									<threshold> -0.797481 </threshold>
									<split pos="left">
										<output> -2.658396005630493 </output>
									</split>
									<split pos="right">
										<feature> 130 </feature>
										<threshold> 65023.79 </threshold>
										<split pos="left">
											<output> 0.45693260431289673 </output>
										</split>
										<split pos="right">
											<output> 0.7910659909248352 </output>
										</split>
									</split>
								</split>
							</split>
							<split pos="right">
								<output> 0.6617398858070374 </output>
							</split>
						</split>
						<split pos="right">
							<feature> 130 </feature>
							<threshold> 53777.15 </threshold>
							<split pos="left">
								<output> 0.7408072352409363 </output>
							</split>
							<split pos="right">
								<output> 1.0915563106536865 </output>
							</split>
						</split>
					</split>
					<split pos="right">
						<feature> 131 </feature>
						<threshold> 64511.03 </threshold>
						<split pos="left">
							<feature> 126 </feature>
							<threshold> 1.0 </threshold>
							<split pos="left">
								<feature> 129 </feature>
								<threshold> 3.0 </threshold>
								<split pos="left">
									<output> 0.33220919966697693 </output>
								</split>
								<split pos="right">
									<feature> 133 </feature>
									<threshold> 10.0 </threshold>
									<split pos="left">
										<output> 0.9796757102012634 </output>
									</split>
									<split pos="right">
										<output> 0.32164266705513 </output>
									</split>
								</split>
							</split>
							<split pos="right">
								<feature> 109 </feature>
								<threshold> 19.37315 </threshold>
								<split pos="left">
									<feature> 27 </feature>
									<threshold> 19.0 </threshold>
									<split pos="left">
										<feature> 117 </feature>
										<threshold> -4.216857 </threshold>
										<split pos="left">
											<feature> 66 </feature>
											<threshold> 0.0 </threshold>
											<split pos="left">
												<output> -0.5862998366355896 </output>
											</split>
											<split pos="right">
												<output> -0.08311952650547028 </output>
											</split>
										</split>
										<split pos="right">
											<output> 0.6615185141563416 </output>
										</split>
									</split>
									<split pos="right">
										<output> 1.4469714164733887 </output>
									</split>
								</split>
								<split pos="right">
									<output> 0.3837657868862152 </output>
								</split>
							</split>
						</split>
						<split pos="right">
							<feature> 129 </feature>
							<threshold> 16.0 </threshold>
							<split pos="left">
								<output> 0.13260725140571594 </output>
							</split>
							<split pos="right">
								<output> 0.902647852897644 </output>
							</split>
						</split>
					</split>
				</split>
			</split>
			<split pos="right">
				<feature> 130 </feature>
				<threshold> 64768.184 </threshold>
				<split pos="left">
					<feature> 17 </feature>
					<threshold> 15.7242 </threshold>
					<split pos="left">
						<output> 0.18720504641532898 </output>
					</split>
					<split pos="right">
						<output> 0.9999626278877258 </output>
					</split>
				</split>
				<split pos="right">
					<feature> 131 </feature>
					<threshold> 55807.297 </threshold>
					<split pos="left">
						<feature> 133 </feature>
						<threshold> 3.0 </threshold>
						<split pos="left">
							<output> 1.4701871871948242 </output>
						</split>
						<split pos="right">
							<output> 1.1708800792694092 </output>
						</split>
					</split>
					<split pos="right">
						<output> 0.9564845561981201 </output>
					</split>
				</split>
			</split>
		</split>
	</tree>
	<tree id="5" weight="0.15">
		<split>
			<feature> 54 </feature>
			<threshold> 0.24 </threshold>
			<split pos="left">
				<feature> 108 </feature>
				<threshold> 15.562936 </threshold>
				<split pos="left">
					<feature> 8 </feature>
					<threshold> 0.333333 </threshold>
					<split pos="left">
						<output> -0.5982361435890198 </output>
					</split>
					<split pos="right">
						<feature> 129 </feature>
						<threshold> 27.0 </threshold>
						<split pos="left">
							<feature> 14 </feature>
							<threshold> 2.0 </threshold>
							<split pos="left">
								<output> 1.2484887838363647 </output>
							</split>
							<split pos="right">
								<feature> 130 </feature>
								<threshold> 63490.156 </threshold>
								<split pos="left">
									<feature> 101 </feature>
									<threshold> 0.30078125 </threshold>
									<split pos="left">
										<output> 0.18665583431720734 </output>
									</split>
									<split pos="right">
										<feature> 109 </feature>
										<threshold> 14.54504 </threshold>
										<split pos="left">
											<feature> 14 </feature>
											<threshold> 4.0 </threshold>
											<split pos="left">
												<output> -0.0336318165063858 </output>
											</split>
											<split pos="right">
												<output> -0.4460509717464447 </output>
											</split>
										</split>
										<split pos="right">
											<output> 0.16289183497428894 </output>
										</split>
									</split>
								</split>
								<split pos="right">
									<output> 0.22700722515583038 </output>
								</split>
							</split>
						</split>
						<split pos="right">
							<output> 0.38588419556617737 </output>
						</split>
					</split>
				</split>
				<split pos="right">
					<feature> 14 </feature>
					<threshold> 4.0 </threshold>
					<split pos="left">
						<feature> 108 </feature>
						<threshold> 24.456047 </threshold>
						<split pos="left">
							<feature> 129 </feature>
							<threshold> 3.0 </threshold>
							<split pos="left">
								<feature> 126 </feature>
								<threshold> 1.0 </threshold>
								<split pos="left">
									<output> 0.21762286126613617 </output>
								</split>
								<split pos="right">
									<output> 0.521612286567688 </output>
								</split>
							</split>
							<split pos="right">
								<output> 0.582005500793457 </output>
							</split>
						</split>
						<split pos="right">
							<feature> 130 </feature>
							<threshold> 53777.15 </threshold>
							<split pos="left">
								<output> 0.6264128088951111 </output>
							</split>
							<split pos="right">
								<output> 0.9505060315132141 </output>
							</split>
						</split>
					</split>
					<split pos="right">
						<feature> 131 </feature>
						<threshold> 64511.03 </threshold>
						<split pos="left">
							<feature> 126 </feature>
							<threshold> 1.0 </threshold>
							<split pos="left">
								<output> 0.48985525965690613 </output>
							</split>
							<split pos="right">
								<feature> 4 </feature>
								<threshold> 2.0 </threshold>
								<split pos="left">
									<feature> 27 </feature>
									<threshold> 19.0 </threshold>
									<split pos="left">
										<feature> 70 </feature>
										<threshold> 0.0 </threshold>
										<split pos="left">
											<output> -0.5008942484855652 </output>
										</split>
										<split pos="right">
											<output> 0.04283733665943146 </output>
										</split>
									</split>
									<split pos="right">
										<output> 1.2580739259719849 </output>
									</split>
								</split>
								<split pos="right">
									<output> 0.4923962354660034 </output>
								</split>
							</split>
						</split>
						<split pos="right">
							<output> 0.6676397323608398 </output>
						</split>
					</split>
				</split>
			</split>
			<split pos="right">
				<feature> 130 </feature>
				<threshold> 64768.184 </threshold>
				<split pos="left">
					<feature> 17 </feature>
					<threshold> 15.7242 </threshold>
					<split pos="left">
						<output> 0.08167358487844467 </output>
					</split>
					<split pos="right">
						<output> 0.8147708177566528 </output>
					</split>
				</split>
				<split pos="right">
					<feature> 131 </feature>
					<threshold> 55807.297 </threshold>
					<split pos="left">
						<feature> 133 </feature>
						<threshold> 3.0 </threshold>
						<split pos="left">
							<output> 1.3322491645812988 </output>
						</split>
						<split pos="right">
							<feature> 127 </feature>
							<threshold> 22.105469 </threshold>
							<split pos="left">
								<output> 1.0638461112976074 </output>
							</split>
							<split pos="right">
								<output> -0.20976129174232483 </output>
							</split>
						</split>
					</split>
					<split pos="right">
						<output> 0.8029543161392212 </output>
					</split>
				</split>
			</split>
		</split>
	</tree>
	<tree id="6" weight="0.15">
		<split>
			<feature> 54 </feature>
			<threshold> 0.24 </threshold>
			<split pos="left">
				<feature> 108 </feature>
				<threshold> 15.562936 </threshold>
				<split pos="left">
					<feature> 60 </feature>
					<threshold> 0.012515141 </threshold>
					<split pos="left">
						<output> -0.6027868986129761 </output>
					</split>
					<split pos="right">
						<feature> 129 </feature>
						<threshold> 22.0 </threshold>
						<split pos="left">
							<feature> 14 </feature>
							<threshold> 2.0 </threshold>
							<split pos="left">
								<output> 1.2068570852279663 </output>
							</split>
							<split pos="right">
								<feature> 49 </feature>
								<threshold> 0.24289778 </threshold>
								<split pos="left">
									<feature> 105 </feature>
									<threshold> 0.28515625 </threshold>
									<split pos="left">
										<output> 0.10475531965494156 </output>
									</split>
									<split pos="right">
										<feature> 130 </feature>
										<threshold> 55310.78 </threshold>
										<split pos="left">
											<output> -0.3658205270767212 </output>
										</split>
										<split pos="right">
											<output> -0.02432195097208023 </output>
										</split>
									</split>
								</split>
								<split pos="right">
									<output> 0.19666436314582825 </output>
								</split>
							</split>
						</split>
						<split pos="right">
							<output> 0.31301164627075195 </output>
						</split>
					</split>
				</split>
				<split pos="right">
					<feature> 14 </feature>
					<threshold> 4.0 </threshold>
					<split pos="left">
						<feature> 108 </feature>
						<threshold> 24.456047 </threshold>
						<split pos="left">
							<feature> 129 </feature>
							<threshold> 3.0 </threshold>
							<split pos="left">
								<feature> 126 </feature>
								<threshold> 1.0 </threshold>
								<split pos="left">
									<output> 0.10656937956809998 </output>
								</split>
								<split pos="right">
									<output> 0.4472888708114624 </output>
								</split>
							</split>
							<split pos="right">
								<output> 0.46140119433403015 </output>
							</split>
						</split>
						<split pos="right">
							<feature> 130 </feature>
							<threshold> 53777.15 </threshold>
							<split pos="left">
								<output> 0.5272548794746399 </output>
							</split>
							<split pos="right">
								<output> 0.8428909182548523 </output>
							</split>
						</split>
					</split>
					<split pos="right">
						<feature> 129 </feature>
						<threshold> 16.0 </threshold>
						<split pos="left">
							<feature> 4 </feature>
							<threshold> 2.0 </threshold>
							<split pos="left">
								<feature> 126 </feature>
								<threshold> 1.0 </threshold>
								<split pos="left">
									<output> 0.3399660587310791 </output>
								</split>
								<split pos="right">
									<feature> 70 </feature>
									<threshold> 0.0 </threshold>
									<split pos="left">
										<output> -0.4842328727245331 </output>
									</split>
									<split pos="right">
										<feature> 117 </feature>
										<threshold> -5.6225567 </threshold>
										<split pos="left">
											<feature> 47 </feature>
											<threshold> 0.328125 </threshold>
											<split pos="left">
												<output> -0.0646115392446518 </output>
											</split>
											<split pos="right">
												<output> 0.30861589312553406 </output>
											</split>
										</split>
										<split pos="right">
											<output> 0.8336164355278015 </output>
										</split>
									</split>
								</split>
							</split>
							<split pos="right">
								<output> 0.4169537127017975 </output>
							</split>
						</split>
						<split pos="right">
							<output> 0.6331159472465515 </output>
						</split>
					</split>
				</split>
			</split>
			<split pos="right">
				<feature> 130 </feature>
				<threshold> 64768.184 </threshold>
				<split pos="left">
					<feature> 16 </feature>
					<threshold> 9.972301 </threshold>
					<split pos="left">
						<output> 0.0021024697925895452 </output>
					</split>
					<split pos="right">
						<output> 0.7527346014976501 </output>
					</split>
				</split>
				<split pos="right">
					<feature> 131 </feature>
					<threshold> 55807.297 </threshold>
					<split pos="left">
						<feature> 133 </feature>
						<threshold> 3.0 </threshold>
						<split pos="left">
							<output> 1.2128946781158447 </output>
						</split>
						<split pos="right">
							<feature> 129 </feature>
							<threshold> 3.0 </threshold>
							<split pos="left">
								<output> 0.766207218170166 </output>
							</split>
							<split pos="right">
								<output> 1.2248684167861938 </output>
							</split>
						</split>
					</split>
					<split pos="right">
						<output> 0.6865805387496948 </output>
					</split>
				</split>
			</split>
		</split>
	</tree>
	<tree id="7" weight="0.15">
		<split>
			<feature> 54 </feature>
			<threshold> 0.24 </threshold>
			<split pos="left">
				<feature> 108 </feature>
				<threshold> 16.674574 </threshold>
				<split pos="left">
					<feature> 60 </feature>
					<threshold> 0.012515141 </threshold>
					<split pos="left">
						<output> -0.5516291856765747 </output>
					</split>
					<split pos="right">
						<feature> 129 </feature>
						<threshold> 16.0 </threshold>
						<split pos="left">
							<feature> 14 </feature>
							<threshold> 2.0 </threshold>
							<split pos="left">
								<output> 1.1797659397125244 </output>
							</split>
							<split pos="right">
								<feature> 130 </feature>
								<threshold> 64768.184 </threshold>
								<split pos="left">
									<feature> 109 </feature>
									<threshold> 17.1011 </threshold>
									<split pos="left">
										<feature> 3 </feature>
										<threshold> 1.0 </threshold>
										<split pos="left">
											<feature> 101 </feature>
											<threshold> 0.2890625 </threshold>
											<split pos="left">
												<output> 3.577041206881404E-4 </output>
											</split>
											<split pos="right">
												<output> -0.38006967306137085 </output>
											</split>
										</split>
										<split pos="right">
											<feature> 14 </feature>
											<threshold> 3.0 </threshold>
											<split pos="left">
												<output> 0.3087505102157593 </output>
											</split>
											<split pos="right">
												<feature> 127 </feature>
												<threshold> 28.140625 </threshold>
												<split pos="left">
													<output> 0.081864133477211 </output>
												</split>
												<split pos="right">
													<output> -0.18216048181056976 </output>
												</split>
											</split>
										</split>
									</split>
									<split pos="right">
										<output> 0.2464471459388733 </output>
									</split>
								</split>
								<split pos="right">
									<output> 0.3070981204509735 </output>
								</split>
							</split>
						</split>
						<split pos="right">
							<output> 0.28303250670433044 </output>
						</split>
					</split>
				</split>
				<split pos="right">
					<feature> 14 </feature>
					<threshold> 4.0 </threshold>
					<split pos="left">
						<feature> 130 </feature>
						<threshold> 60167.285 </threshold>
						<split pos="left">
							<feature> 48 </feature>
							<threshold> 0.66796875 </threshold>
							<split pos="left">
								<feature> 129 </feature>
								<threshold> 3.0 </threshold>
								<split pos="left">
									<feature> 133 </feature>
									<threshold> 20.0 </threshold>
									<split pos="left">
										<output> 0.3544448912143707 </output>
									</split>
									<split pos="right">
										<output> -0.20504643023014069 </output>
									</split>
								</split>
								<split pos="right">
									<output> 0.47417116165161133 </output>
								</split>
							</split>
							<split pos="right">
								<output> 0.5713386535644531 </output>
							</split>
						</split>
						<split pos="right">
							<output> 0.7672675251960754 </output>
						</split>
					</split>
					<split pos="right">
						<feature> 129 </feature>
						<threshold> 17.0 </threshold>
						<split pos="left">
							<feature> 4 </feature>
							<threshold> 2.0 </threshold>
							<split pos="left">
								<feature> 126 </feature>
								<threshold> 1.0 </threshold>
								<split pos="left">
									<output> 0.2515948712825775 </output>
								</split>
								<split pos="right">
									<feature> 47 </feature>
									<threshold> 0.328125 </threshold>
									<split pos="left">
										<output> -0.15225698053836823 </output>
									</split>
									<split pos="right">
										<output> 0.3159253001213074 </output>
									</split>
								</split>
							</split>
							<split pos="right">
								<output> 0.36762306094169617 </output>
							</split>
						</split>
						<split pos="right">
							<output> 0.5815607905387878 </output>
						</split>
					</split>
				</split>
			</split>
			<split pos="right">
				<feature> 130 </feature>
				<threshold> 64768.184 </threshold>
				<split pos="left">
					<feature> 16 </feature>
					<threshold> 9.972301 </threshold>
					<split pos="left">
						<output> -0.02724151685833931 </output>
					</split>
					<split pos="right">
						<output> 0.6212319731712341 </output>
					</split>
				</split>
				<split pos="right">
					<feature> 131 </feature>
					<threshold> 55807.297 </threshold>
					<split pos="left">
						<feature> 133 </feature>
						<threshold> 3.0 </threshold>
						<split pos="left">
							<output> 1.1127867698669434 </output>
						</split>
						<split pos="right">
							<output> 0.805618941783905 </output>
						</split>
					</split>
					<split pos="right">
						<output> 0.5877166986465454 </output>
					</split>
				</split>
			</split>
		</split>
	</tree>
	<tree id="8" weight="0.15">
		<split>
			<feature> 54 </feature>
			<threshold> 0.24 </threshold>
			<split pos="left">
				<feature> 108 </feature>
				<threshold> 18.897852 </threshold>
				<split pos="left">
					<feature> 107 </feature>
					<threshold> 17.860775 </threshold>
					<split pos="left">
						<feature> 65 </feature>
						<threshold> 0.009386355 </threshold>
						<split pos="left">
							<feature> 118 </feature>
							<threshold> -15.188323 </threshold>
							<split pos="left">
								<output> -0.616281270980835 </output>
							</split>
							<split pos="right">
								<output> -0.25178706645965576 </output>
							</split>
						</split>
						<split pos="right">
							<feature> 14 </feature>
							<threshold> 2.0 </threshold>
							<split pos="left">
								<output> 1.0500388145446777 </output>
							</split>
							<split pos="right">
								<feature> 129 </feature>
								<threshold> 12.0 </threshold>
								<split pos="left">
									<feature> 130 </feature>
									<threshold> 63234.55 </threshold>
									<split pos="left">
										<feature> 68 </feature>
										<threshold> 0.028320312 </threshold>
										<split pos="left">
											<feature> 14 </feature>
											<threshold> 4.0 </threshold>
											<split pos="left">
												<feature> 126 </feature>
												<threshold> 1.0 </threshold>
												<split pos="left">
													<output> -0.07492165267467499 </output>
												</split>
												<split pos="right">
													<output> 0.2919616103172302 </output>
												</split>
											</split>
											<split pos="right">
												<feature> 109 </feature>
												<threshold> 17.1011 </threshold>
												<split pos="left">
													<feature> 47 </feature>
													<threshold> 0.2109375 </threshold>
													<split pos="left">
														<output> -0.3116854727268219 </output>
													</split>
													<split pos="right">
														<output> 0.016365790739655495 </output>
													</split>
												</split>
												<split pos="right">
													<output> 0.14283175766468048 </output>
												</split>
											</split>
										</split>
										<split pos="right">
											<output> -0.5846088528633118 </output>
										</split>
									</split>
									<split pos="right">
										<output> 0.22083139419555664 </output>
									</split>
								</split>
								<split pos="right">
									<feature> 63 </feature>
									<threshold> 0.15234375 </threshold>
									<split pos="left">
										<output> 0.02479703724384308 </output>
									</split>
									<split pos="right">
										<output> 0.45927777886390686 </output>
									</split>
								</split>
							</split>
						</split>
					</split>
					<split pos="right">
						<output> 0.5659566521644592 </output>
					</split>
				</split>
				<split pos="right">
					<feature> 14 </feature>
					<threshold> 4.0 </threshold>
					<split pos="left">
						<feature> 130 </feature>
						<threshold> 60167.285 </threshold>
						<split pos="left">
							<feature> 48 </feature>
							<threshold> 0.66796875 </threshold>
							<split pos="left">
								<output> 0.2799692749977112 </output>
							</split>
							<split pos="right">
								<output> 0.5019363760948181 </output>
							</split>
						</split>
						<split pos="right">
							<output> 0.7943180203437805 </output>
						</split>
					</split>
					<split pos="right">
						<feature> 129 </feature>
						<threshold> 17.0 </threshold>
						<split pos="left">
							<feature> 4 </feature>
							<threshold> 2.0 </threshold>
							<split pos="left">
								<feature> 126 </feature>
								<threshold> 1.0 </threshold>
								<split pos="left">
									<output> 0.2461676299571991 </output>
								</split>
								<split pos="right">
									<output> 0.017099743708968163 </output>
								</split>
							</split>
							<split pos="right">
								<output> 0.3266201317310333 </output>
							</split>
						</split>
						<split pos="right">
							<output> 0.5336283445358276 </output>
						</split>
					</split>
				</split>
			</split>
			<split pos="right">
				<feature> 130 </feature>
				<threshold> 64768.184 </threshold>
				<split pos="left">
					<feature> 17 </feature>
					<threshold> 15.7242 </threshold>
					<split pos="left">
						<output> -0.04160033166408539 </output>
					</split>
					<split pos="right">
						<output> 0.5283747911453247 </output>
					</split>
				</split>
				<split pos="right">
					<feature> 131 </feature>
					<threshold> 55807.297 </threshold>
					<split pos="left">
						<feature> 129 </feature>
						<threshold> 8.0 </threshold>
						<split pos="left">
							<output> 0.7375543713569641 </output>
						</split>
						<split pos="right">
							<output> 1.2039430141448975 </output>
						</split>
					</split>
					<split pos="right">
						<output> 0.50568026304245 </output>
					</split>
				</split>
			</split>
		</split>
	</tree>
	<tree id="9" weight="0.15">
		<split>
			<feature> 49 </feature>
			<threshold> 0.23011369 </threshold>
			<split pos="left">
				<feature> 108 </feature>
				<threshold> 18.897852 </threshold>
				<split pos="left">
					<feature> 123 </feature>
					<threshold> -8.186691 </threshold>
					<split pos="left">
						<feature> 65 </feature>
						<threshold> 0.0062575703 </threshold>
						<split pos="left">
							<output> -0.6475792527198792 </output>
						</split>
						<split pos="right">
							<feature> 110 </feature>
							<threshold> 33.82966 </threshold>
							<split pos="left">
								<feature> 6 </feature>
								<threshold> 0.875 </threshold>
								<split pos="left">
									<output> -0.07191023975610733 </output>
								</split>
								<split pos="right">
									<output> -0.3870570659637451 </output>
								</split>
							</split>
							<split pos="right">
								<output> 0.0914304330945015 </output>
							</split>
						</split>
					</split>
					<split pos="right">
						<feature> 129 </feature>
						<threshold> 13.0 </threshold>
						<split pos="left">
							<feature> 14 </feature>
							<threshold> 2.0 </threshold>
							<split pos="left">
								<output> 0.9748910069465637 </output>
							</split>
							<split pos="right">
								<feature> 130 </feature>
								<threshold> 63234.55 </threshold>
								<split pos="left">
									<feature> 14 </feature>
									<threshold> 3.0 </threshold>
									<split pos="left">
										<output> 0.20737537741661072 </output>
									</split>
									<split pos="right">
										<feature> 60 </feature>
										<threshold> 0.031287853 </threshold>
										<split pos="left">
											<output> -0.27868717908859253 </output>
										</split>
										<split pos="right">
											<feature> 126 </feature>
											<threshold> 2.0 </threshold>
											<split pos="left">
												<output> 0.04017189145088196 </output>
											</split>
											<split pos="right">
												<output> -0.2268478274345398 </output>
											</split>
										</split>
									</split>
								</split>
								<split pos="right">
									<output> 0.2457534521818161 </output>
								</split>
							</split>
						</split>
						<split pos="right">
							<output> 0.280941903591156 </output>
						</split>
					</split>
				</split>
				<split pos="right">
					<feature> 14 </feature>
					<threshold> 4.0 </threshold>
					<split pos="left">
						<feature> 130 </feature>
						<threshold> 60167.285 </threshold>
						<split pos="left">
							<feature> 48 </feature>
							<threshold> 0.66796875 </threshold>
							<split pos="left">
								<output> 0.2206435203552246 </output>
							</split>
							<split pos="right">
								<output> 0.41038134694099426 </output>
							</split>
						</split>
						<split pos="right">
							<output> 0.6562668681144714 </output>
						</split>
					</split>
					<split pos="right">
						<feature> 126 </feature>
						<threshold> 1.0 </threshold>
						<split pos="left">
							<output> 0.28318044543266296 </output>
						</split>
						<split pos="right">
							<output> 0.043127503246068954 </output>
						</split>
					</split>
				</split>
			</split>
			<split pos="right">
				<feature> 130 </feature>
				<threshold> 64768.184 </threshold>
				<split pos="left">
					<feature> 129 </feature>
					<threshold> 16.0 </threshold>
					<split pos="left">
						<feature> 130 </feature>
						<threshold> 40996.875 </threshold>
						<split pos="left">
							<feature> 70 </feature>
							<threshold> 0.0 </threshold>
							<split pos="left">
								<output> -0.28315451741218567 </output>
							</split>
							<split pos="right">
								<feature> 3 </feature>
								<threshold> 2.0 </threshold>
								<split pos="left">
									<output> 0.009536185301840305 </output>
								</split>
								<split pos="right">
									<output> 0.26664409041404724 </output>
								</split>
							</split>
						</split>
						<split pos="right">
							<output> 0.4301627576351166 </output>
						</split>
					</split>
					<split pos="right">
						<output> 0.5714876651763916 </output>
					</split>
				</split>
				<split pos="right">
					<feature> 79 </feature>
					<threshold> 9.3580475 </threshold>
					<split pos="left">
						<feature> 51 </feature>
						<threshold> 0.12109375 </threshold>
						<split pos="left">
							<feature> 49 </feature>
							<threshold> 0.46022785 </threshold>
							<split pos="left">
								<output> 0.438427209854126 </output>
							</split>
							<split pos="right">
								<output> 1.0017180442810059 </output>
							</split>
						</split>
						<split pos="right">
							<output> 1.2210252285003662 </output>
						</split>
					</split>
					<split pos="right">
						<output> 0.8083587288856506 </output>
					</split>
				</split>
			</split>
		</split>
	</tree>
	<tree id="10" weight="0.15">
		<split>
			<feature> 54 </feature>
			<threshold> 0.24 </threshold>
			<split pos="left">
				<feature> 107 </feature>
				<threshold> 17.860775 </threshold>
				<split pos="left">
					<feature> 3 </feature>
					<threshold> 2.0 </threshold>
					<split pos="left">
						<feature> 14 </feature>
						<threshold> 4.0 </threshold>
						<split pos="left">
							<feature> 108 </feature>
							<threshold> 22.232769 </threshold>
							<split pos="left">
								<feature> 126 </feature>
								<threshold> 1.0 </threshold>
								<split pos="left">
									<feature> 109 </feature>
									<threshold> 15.397061 </threshold>
									<split pos="left">
										<feature> 58 </feature>
										<threshold> 0.57421875 </threshold>
										<split pos="left">
											<feature> 129 </feature>
											<threshold> 5.0 </threshold>
											<split pos="left">
												<output> -0.10348371416330338 </output>
											</split>
											<split pos="right">
												<output> 0.2782977819442749 </output>
											</split>
										</split>
										<split pos="right">
											<output> -1.0676549673080444 </output>
										</split>
									</split>
									<split pos="right">
										<output> 0.8293343186378479 </output>
									</split>
								</split>
								<split pos="right">
									<output> 0.2652147114276886 </output>
								</split>
							</split>
							<split pos="right">
								<output> 0.29595741629600525 </output>
							</split>
						</split>
						<split pos="right">
							<feature> 129 </feature>
							<threshold> 11.0 </threshold>
							<split pos="left">
								<feature> 60 </feature>
								<threshold> 0.012515141 </threshold>
								<split pos="left">
									<output> -0.5519723296165466 </output>
								</split>
								<split pos="right">
									<feature> 49 </feature>
									<threshold> 0.64559764 </threshold>
									<split pos="left">
										<feature> 102 </feature>
										<threshold> 0.2734375 </threshold>
										<split pos="left">
											<feature> 117 </feature>
											<threshold> -4.216857 </threshold>
											<split pos="left">
												<feature> 49 </feature>
												<threshold> 0.12784094 </threshold>
												<split pos="left">
													<output> -0.3183917999267578 </output>
												</split>
												<split pos="right">
													<output> -0.10110778361558914 </output>
												</split>
											</split>
											<split pos="right">
												<output> 0.18485446274280548 </output>
											</split>
										</split>
										<split pos="right">
											<output> 0.03294992446899414 </output>
										</split>
									</split>
									<split pos="right">
										<output> 1.4271503686904907 </output>
									</split>
								</split>
							</split>
							<split pos="right">
								<feature> 37 </feature>
								<threshold> 19.0 </threshold>
								<split pos="left">
									<feature> 131 </feature>
									<threshold> 65023.016 </threshold>
									<split pos="left">
										<output> -0.1068584993481636 </output>
									</split>
									<split pos="right">
										<output> 0.3266620337963104 </output>
									</split>
								</split>
								<split pos="right">
									<output> 1.4254862070083618 </output>
								</split>
							</split>
						</split>
					</split>
					<split pos="right">
						<feature> 14 </feature>
						<threshold> 4.0 </threshold>
						<split pos="left">
							<feature> 53 </feature>
							<threshold> 0.22265625 </threshold>
							<split pos="left">
								<output> 0.34283995628356934 </output>
							</split>
							<split pos="right">
								<output> 0.7437254786491394 </output>
							</split>
						</split>
						<split pos="right">
							<feature> 101 </feature>
							<threshold> 0.140625 </threshold>
							<split pos="left">
								<output> 1.5275459289550781 </output>
							</split>
							<split pos="right">
								<feature> 129 </feature>
								<threshold> 86.0 </threshold>
								<split pos="left">
									<output> 0.17453332245349884 </output>
								</split>
								<split pos="right">
									<output> 1.282714605331421 </output>
								</split>
							</split>
						</split>
					</split>
				</split>
				<split pos="right">
					<output> 0.47587937116622925 </output>
				</split>
			</split>
			<split pos="right">
				<feature> 130 </feature>
				<threshold> 65279.395 </threshold>
				<split pos="left">
					<feature> 129 </feature>
					<threshold> 2.0 </threshold>
					<split pos="left">
						<feature> 130 </feature>
						<threshold> 54032.754 </threshold>
						<split pos="left">
							<output> -0.22216594219207764 </output>
						</split>
						<split pos="right">
							<output> 0.28337153792381287 </output>
						</split>
					</split>
					<split pos="right">
						<output> 0.6417611837387085 </output>
					</split>
				</split>
				<split pos="right">
					<output> 0.7357347011566162 </output>
				</split>
			</split>
		</split>
	</tree>
	<tree id="11" weight="0.15">
		<split>
			<feature> 54 </feature>
			<threshold> 0.24 </threshold>
			<split pos="left">
				<feature> 107 </feature>
				<threshold> 17.860775 </threshold>
				<split pos="left">
					<feature> 3 </feature>
					<threshold> 1.0 </threshold>
					<split pos="left">
						<feature> 129 </feature>
						<threshold> 33.0 </threshold>
						<split pos="left">
							<feature> 15 </feature>
							<threshold> 2331.25 </threshold>
							<split pos="left">
								<feature> 14 </feature>
								<threshold> 2.0 </threshold>
								<split pos="left">
									<output> 0.9231760501861572 </output>
								</split>
								<split pos="right">
									<feature> 49 </feature>
									<threshold> 0.16619322 </threshold>
									<split pos="left">
										<feature> 14 </feature>
										<threshold> 4.0 </threshold>
										<split pos="left">
											<output> -0.0555185005068779 </output>
										</split>
										<split pos="right">
											<output> -0.3413357138633728 </output>
										</split>
									</split>
									<split pos="right">
										<output> 0.02071569673717022 </output>
									</split>
								</split>
							</split>
							<split pos="right">
								<output> -0.8414735198020935 </output>
							</split>
						</split>
						<split pos="right">
							<output> 0.2836005985736847 </output>
						</split>
					</split>
					<split pos="right">
						<feature> 27 </feature>
						<threshold> 16.0 </threshold>
						<split pos="left">
							<feature> 14 </feature>
							<threshold> 4.0 </threshold>
							<split pos="left">
								<feature> 108 </feature>
								<threshold> 25.567686 </threshold>
								<split pos="left">
									<feature> 84 </feature>
									<threshold> 11.072018 </threshold>
									<split pos="left">
										<feature> 129 </feature>
										<threshold> 3.0 </threshold>
										<split pos="left">
											<feature> 126 </feature>
											<threshold> 1.0 </threshold>
											<split pos="left">
												<output> 0.01684131845831871 </output>
											</split>
											<split pos="right">
												<output> 0.23949411511421204 </output>
											</split>
										</split>
										<split pos="right">
											<output> 0.4035744369029999 </output>
										</split>
									</split>
									<split pos="right">
										<output> 1.11344575881958 </output>
									</split>
								</split>
								<split pos="right">
									<output> 0.4332767128944397 </output>
								</split>
							</split>
							<split pos="right">
								<feature> 112 </feature>
								<threshold> -3.9664 </threshold>
								<split pos="left">
									<feature> 3 </feature>
									<threshold> 2.0 </threshold>
									<split pos="left">
										<feature> 130 </feature>
										<threshold> 56844.414 </threshold>
										<split pos="left">
											<feature> 129 </feature>
											<threshold> 29.0 </threshold>
											<split pos="left">
												<feature> 64 </feature>
												<threshold> 0.28710893 </threshold>
												<split pos="left">
													<feature> 126 </feature>
													<threshold> 11.0 </threshold>
													<split pos="left">
														<output> -0.13393759727478027 </output>
													</split>
													<split pos="right">
														<output> 1.1035068035125732 </output>
													</split>
												</split>
												<split pos="right">
													<output> -2.3092174530029297 </output>
												</split>
											</split>
											<split pos="right">
												<output> 0.17218421399593353 </output>
											</split>
										</split>
										<split pos="right">
											<output> 0.28426191210746765 </output>
										</split>
									</split>
									<split pos="right">
										<output> 0.15785746276378632 </output>
									</split>
								</split>
								<split pos="right">
									<output> 0.6514356136322021 </output>
								</split>
							</split>
						</split>
						<split pos="right">
							<output> 1.4010018110275269 </output>
						</split>
					</split>
				</split>
				<split pos="right">
					<output> 0.40808653831481934 </output>
				</split>
			</split>
			<split pos="right">
				<feature> 130 </feature>
				<threshold> 63745.76 </threshold>
				<split pos="left">
					<feature> 129 </feature>
					<threshold> 1.0 </threshold>
					<split pos="left">
						<output> -0.07386766374111176 </output>
					</split>
					<split pos="right">
						<output> 0.4425850212574005 </output>
					</split>
				</split>
				<split pos="right">
					<feature> 17 </feature>
					<threshold> 13.732997 </threshold>
					<split pos="left">
						<feature> 129 </feature>
						<threshold> 2.0 </threshold>
						<split pos="left">
							<output> 0.2331942468881607 </output>
						</split>
						<split pos="right">
							<output> 0.7583409547805786 </output>
						</split>
					</split>
					<split pos="right">
						<output> 1.0905675888061523 </output>
					</split>
				</split>
			</split>
		</split>
	</tree>
	<tree id="12" weight="0.15">
		<split>
			<feature> 64 </feature>
			<threshold> 0.24126805 </threshold>
			<split pos="left">
				<feature> 72 </feature>
				<threshold> 26.810936 </threshold>
				<split pos="left">
					<feature> 3 </feature>
					<threshold> 2.0 </threshold>
					<split pos="left">
						<feature> 129 </feature>
						<threshold> 31.0 </threshold>
						<split pos="left">
							<feature> 130 </feature>
							<threshold> 47131.406 </threshold>
							<split pos="left">
								<feature> 65 </feature>
								<threshold> 0.0062575703 </threshold>
								<split pos="left">
									<output> -0.47979164123535156 </output>
								</split>
								<split pos="right">
									<feature> 14 </feature>
									<threshold> 2.0 </threshold>
									<split pos="left">
										<output> 0.9431382417678833 </output>
									</split>
									<split pos="right">
										<feature> 14 </feature>
										<threshold> 3.0 </threshold>
										<split pos="left">
											<output> 0.19432604312896729 </output>
										</split>
										<split pos="right">
											<feature> 47 </feature>
											<threshold> 0.66796875 </threshold>
											<split pos="left">
												<feature> 16 </feature>
												<threshold> 18.947119 </threshold>
												<split pos="left">
													<feature> 133 </feature>
													<threshold> 128.0 </threshold>
													<split pos="left">
														<feature> 26 </feature>
														<threshold> 17.621094 </threshold>
														<split pos="left">
															<feature> 23 </feature>
															<threshold> 7.0 </threshold>
															<split pos="left">
																<feature> 110 </feature>
																<threshold> 33.82966 </threshold>
																<split pos="left">
																	<feature> 130 </feature>
																	<threshold> 13647.09 </threshold>
																	<split pos="left">
																		<feature> 38 </feature>
																		<threshold> 4.0 </threshold>
																		<split pos="left">
																			<output> -0.2681151032447815 </output>
																		</split>
																		<split pos="right">
																			<output> 1.2289137840270996 </output>
																		</split>
																	</split>
																	<split pos="right">
																		<output> -0.11860217154026031 </output>
																	</split>
																</split>
																<split pos="right">
																	<output> -0.016258396208286285 </output>
																</split>
															</split>
															<split pos="right">
																<output> -1.0399842262268066 </output>
															</split>
														</split>
														<split pos="right">
															<output> 0.04588255658745766 </output>
														</split>
													</split>
													<split pos="right">
														<output> -0.4738183915615082 </output>
													</split>
												</split>
												<split pos="right">
													<output> 0.08075574785470963 </output>
												</split>
											</split>
											<split pos="right">
												<output> 0.21164323389530182 </output>
											</split>
										</split>
									</split>
								</split>
							</split>
							<split pos="right">
								<feature> 108 </feature>
								<threshold> 21.12113 </threshold>
								<split pos="left">
									<feature> 49 </feature>
									<threshold> 0.5561088 </threshold>
									<split pos="left">
										<feature> 109 </feature>
										<threshold> 17.1011 </threshold>
										<split pos="left">
											<feature> 108 </feature>
											<threshold> 14.451298 </threshold>
											<split pos="left">
												<output> -0.09731243550777435 </output>
											</split>
											<split pos="right">
												<output> 0.18861550092697144 </output>
											</split>
										</split>
										<split pos="right">
											<output> 0.7995626330375671 </output>
										</split>
									</split>
									<split pos="right">
										<output> 1.4136290550231934 </output>
									</split>
								</split>
								<split pos="right">
									<output> 0.5324997305870056 </output>
								</split>
							</split>
						</split>
						<split pos="right">
							<output> 0.26699379086494446 </output>
						</split>
					</split>
					<split pos="right">
						<feature> 14 </feature>
						<threshold> 4.0 </threshold>
						<split pos="left">
							<output> 0.37724438309669495 </output>
						</split>
						<split pos="right">
							<output> 0.1656443178653717 </output>
						</split>
					</split>
				</split>
				<split pos="right">
					<output> 0.5133351683616638 </output>
				</split>
			</split>
			<split pos="right">
				<feature> 130 </feature>
				<threshold> 61956.523 </threshold>
				<split pos="left">
					<output> 0.05518460273742676 </output>
				</split>
				<split pos="right">
					<feature> 109 </feature>
					<threshold> 16.817095 </threshold>
					<split pos="left">
						<feature> 127 </feature>
						<threshold> 16.070312 </threshold>
						<split pos="left">
							<output> 0.5811203718185425 </output>
						</split>
						<split pos="right">
							<output> -0.01170642301440239 </output>
						</split>
					</split>
					<split pos="right">
						<output> 0.9695061445236206 </output>
					</split>
				</split>
			</split>
		</split>
	</tree>
	<tree id="13" weight="0.15">
		<split>
			<feature> 49 </feature>
			<threshold> 0.23011369 </threshold>
			<split pos="left">
				<feature> 87 </feature>
				<threshold> 36.41496 </threshold>
				<split pos="left">
					<feature> 3 </feature>
					<threshold> 2.0 </threshold>
					<split pos="left">
						<feature> 127 </feature>
						<threshold> 28.140625 </threshold>
						<split pos="left">
							<feature> 129 </feature>
							<threshold> 3.0 </threshold>
							<split pos="left">
								<feature> 11 </feature>
								<threshold> 952.03125 </threshold>
								<split pos="left">
									<feature> 133 </feature>
									<threshold> 71.0 </threshold>
									<split pos="left">
										<feature> 108 </feature>
										<threshold> 22.232769 </threshold>
										<split pos="left">
											<feature> 14 </feature>
											<threshold> 2.0 </threshold>
											<split pos="left">
												<output> 0.8252770900726318 </output>
											</split>
											<split pos="right">
												<feature> 11 </feature>
												<threshold> 52.890625 </threshold>
												<split pos="left">
													<output> 0.24822641909122467 </output>
												</split>
												<split pos="right">
													<output> -0.03743530064821243 </output>
												</split>
											</split>
										</split>
										<split pos="right">
											<output> 0.2082752138376236 </output>
										</split>
									</split>
									<split pos="right">
										<output> -0.38728952407836914 </output>
									</split>
								</split>
								<split pos="right">
									<output> -0.5556106567382812 </output>
								</split>
							</split>
							<split pos="right">
								<feature> 108 </feature>
								<threshold> 13.33966 </threshold>
								<split pos="left">
									<output> 0.11816935241222382 </output>
								</split>
								<split pos="right">
									<output> 0.36528152227401733 </output>
								</split>
							</split>
						</split>
						<split pos="right">
							<feature> 22 </feature>
							<threshold> 1.0 </threshold>
							<split pos="left">
								<feature> 129 </feature>
								<threshold> 44.0 </threshold>
								<split pos="left">
									<feature> 84 </feature>
									<threshold> 4.258468 </threshold>
									<split pos="left">
										<output> -0.3399670124053955 </output>
									</split>
									<split pos="right">
										<output> -0.13906490802764893 </output>
									</split>
								</split>
								<split pos="right">
									<output> 0.24101966619491577 </output>
								</split>
							</split>
							<split pos="right">
								<output> 0.12410848587751389 </output>
							</split>
						</split>
					</split>
					<split pos="right">
						<feature> 14 </feature>
						<threshold> 4.0 </threshold>
						<split pos="left">
							<output> 0.3272801339626312 </output>
						</split>
						<split pos="right">
							<output> 0.16405385732650757 </output>
						</split>
					</split>
				</split>
				<split pos="right">
					<output> 0.8291066884994507 </output>
				</split>
			</split>
			<split pos="right">
				<feature> 27 </feature>
				<threshold> 16.0 </threshold>
				<split pos="left">
					<feature> 130 </feature>
					<threshold> 61956.523 </threshold>
					<split pos="left">
						<feature> 129 </feature>
						<threshold> 16.0 </threshold>
						<split pos="left">
							<feature> 130 </feature>
							<threshold> 37418.4 </threshold>
							<split pos="left">
								<feature> 73 </feature>
								<threshold> 22.728405 </threshold>
								<split pos="left">
									<output> -0.11034385114908218 </output>
								</split>
								<split pos="right">
									<output> 0.1857118457555771 </output>
								</split>
							</split>
							<split pos="right">
								<output> 0.2819317579269409 </output>
							</split>
						</split>
						<split pos="right">
							<output> 0.4219483435153961 </output>
						</split>
					</split>
					<split pos="right">
						<feature> 78 </feature>
						<threshold> 9.117352 </threshold>
						<split pos="left">
							<feature> 109 </feature>
							<threshold> 19.941162 </threshold>
							<split pos="left">
								<feature> 27 </feature>
								<threshold> 15.0 </threshold>
								<split pos="left">
									<feature> 64 </feature>
									<threshold> 0.37637797 </threshold>
									<split pos="left">
										<output> 0.2524172067642212 </output>
									</split>
									<split pos="right">
										<output> 1.1645859479904175 </output>
									</split>
								</split>
								<split pos="right">
									<output> -5.44428825378418 </output>
								</split>
							</split>
							<split pos="right">
								<output> 1.011993408203125 </output>
							</split>
						</split>
						<split pos="right">
							<output> 0.6616536974906921 </output>
						</split>
					</split>
				</split>
				<split pos="right">
					<output> 1.372265338897705 </output>
				</split>
			</split>
		</split>
	</tree>
	<tree id="14" weight="0.15">
		<split>
			<feature> 87 </feature>
			<threshold> 36.41496 </threshold>
			<split pos="left">
				<feature> 49 </feature>
				<threshold> 0.23011369 </threshold>
				<split pos="left">
					<feature> 3 </feature>
					<threshold> 1.0 </threshold>
					<split pos="left">
						<feature> 129 </feature>
						<threshold> 77.0 </threshold>
						<split pos="left">
							<feature> 116 </feature>
							<threshold> -6.5269184 </threshold>
							<split pos="left">
								<output> -0.29319679737091064 </output>
							</split>
							<split pos="right">
								<feature> 14 </feature>
								<threshold> 2.0 </threshold>
								<split pos="left">
									<output> 0.9064943790435791 </output>
								</split>
								<split pos="right">
									<feature> 22 </feature>
									<threshold> 6.0 </threshold>
									<split pos="left">
										<feature> 129 </feature>
										<threshold> 33.0 </threshold>
										<split pos="left">
											<output> -0.06773977726697922 </output>
										</split>
										<split pos="right">
											<output> 0.24824315309524536 </output>
										</split>
									</split>
									<split pos="right">
										<output> -1.4086730480194092 </output>
									</split>
								</split>
							</split>
						</split>
						<split pos="right">
							<output> 0.8001654148101807 </output>
						</split>
					</split>
					<split pos="right">
						<feature> 130 </feature>
						<threshold> 63234.55 </threshold>
						<split pos="left">
							<feature> 14 </feature>
							<threshold> 3.0 </threshold>
							<split pos="left">
								<output> 0.2664550542831421 </output>
							</split>
							<split pos="right">
								<feature> 130 </feature>
								<threshold> 40996.875 </threshold>
								<split pos="left">
									<feature> 112 </feature>
									<threshold> -1.3221734 </threshold>
									<split pos="left">
										<feature> 107 </feature>
										<threshold> 16.13231 </threshold>
										<split pos="left">
											<feature> 26 </feature>
											<threshold> 299.5586 </threshold>
											<split pos="left">
												<feature> 3 </feature>
												<threshold> 2.0 </threshold>
												<split pos="left">
													<output> -0.1005043238401413 </output>
												</split>
												<split pos="right">
													<output> 0.06714921444654465 </output>
												</split>
											</split>
											<split pos="right">
												<output> -3.0562782287597656 </output>
											</split>
										</split>
										<split pos="right">
											<output> 0.20458278059959412 </output>
										</split>
									</split>
									<split pos="right">
										<output> 0.5959163308143616 </output>
									</split>
								</split>
								<split pos="right">
									<output> 0.21505656838417053 </output>
								</split>
							</split>
						</split>
						<split pos="right">
							<output> 0.4301987886428833 </output>
						</split>
					</split>
				</split>
				<split pos="right">
					<feature> 130 </feature>
					<threshold> 65279.395 </threshold>
					<split pos="left">
						<feature> 129 </feature>
						<threshold> 13.0 </threshold>
						<split pos="left">
							<feature> 130 </feature>
							<threshold> 54032.754 </threshold>
							<split pos="left">
								<feature> 132 </feature>
								<threshold> 125.0 </threshold>
								<split pos="left">
									<feature> 118 </feature>
									<threshold> -2.7616787 </threshold>
									<split pos="left">
										<feature> 14 </feature>
										<threshold> 2.0 </threshold>
										<split pos="left">
											<output> 1.270297884941101 </output>
										</split>
										<split pos="right">
											<feature> 3 </feature>
											<threshold> 3.0 </threshold>
											<split pos="left">
												<feature> 29 </feature>
												<threshold> 1.0 </threshold>
												<split pos="left">
													<feature> 49 </feature>
													<threshold> 0.47940403 </threshold>
													<split pos="left">
														<output> 0.010706685483455658 </output>
													</split>
													<split pos="right">
														<output> 0.46175575256347656 </output>
													</split>
												</split>
												<split pos="right">
													<output> -0.4888432025909424 </output>
												</split>
											</split>
											<split pos="right">
												<output> 0.3973446190357208 </output>
											</split>
										</split>
									</split>
									<split pos="right">
										<output> 0.534874677658081 </output>
									</split>
								</split>
								<split pos="right">
									<output> -0.653174102306366 </output>
								</split>
							</split>
							<split pos="right">
								<output> 0.2665705978870392 </output>
							</split>
						</split>
						<split pos="right">
							<output> 0.3599833548069 </output>
						</split>
					</split>
					<split pos="right">
						<output> 0.5391480326652527 </output>
					</split>
				</split>
			</split>
			<split pos="right">
				<output> 0.7947637438774109 </output>
			</split>
		</split>
	</tree>
	<tree id="15" weight="0.15">
		<split>
			<feature> 87 </feature>
			<threshold> 36.41496 </threshold>
			<split pos="left">
				<feature> 49 </feature>
				<threshold> 0.23011369 </threshold>
				<split pos="left">
					<feature> 108 </feature>
					<threshold> 22.232769 </threshold>
					<split pos="left">
						<feature> 55 </feature>
						<threshold> 0.0062575703 </threshold>
						<split pos="left">
							<feature> 15 </feature>
							<threshold> 54.9375 </threshold>
							<split pos="left">
								<output> 0.2827320396900177 </output>
							</split>
							<split pos="right">
								<feature> 115 </feature>
								<threshold> -5.2566366 </threshold>
								<split pos="left">
									<feature> 65 </feature>
									<threshold> 0.0031287852 </threshold>
									<split pos="left">
										<output> -0.5772746801376343 </output>
									</split>
									<split pos="right">
										<feature> 18 </feature>
										<threshold> 28.235731 </threshold>
										<split pos="left">
											<output> -0.2843768000602722 </output>
										</split>
										<split pos="right">
											<output> 0.02225029468536377 </output>
										</split>
									</split>
								</split>
								<split pos="right">
									<output> 0.04887259379029274 </output>
								</split>
							</split>
						</split>
						<split pos="right">
							<feature> 129 </feature>
							<threshold> 5.0 </threshold>
							<split pos="left">
								<feature> 5 </feature>
								<threshold> 2.0 </threshold>
								<split pos="left">
									<feature> 14 </feature>
									<threshold> 2.0 </threshold>
									<split pos="left">
										<output> 0.6394994854927063 </output>
									</split>
									<split pos="right">
										<feature> 130 </feature>
										<threshold> 65279.395 </threshold>
										<split pos="left">
											<feature> 133 </feature>
											<threshold> 201.0 </threshold>
											<split pos="left">
												<feature> 130 </feature>
												<threshold> 9813.008 </threshold>
												<split pos="left">
													<output> -0.2158597707748413 </output>
												</split>
												<split pos="right">
													<output> -0.0684984028339386 </output>
												</split>
											</split>
											<split pos="right">
												<output> -1.0705727338790894 </output>
											</split>
										</split>
										<split pos="right">
											<output> 0.44672447443008423 </output>
										</split>
									</split>
								</split>
								<split pos="right">
									<output> 0.12684568762779236 </output>
								</split>
							</split>
							<split pos="right">
								<output> 0.15081898868083954 </output>
							</split>
						</split>
					</split>
					<split pos="right">
						<feature> 127 </feature>
						<threshold> 22.105469 </threshold>
						<split pos="left">
							<output> 0.3328782021999359 </output>
						</split>
						<split pos="right">
							<output> 0.09566058963537216 </output>
						</split>
					</split>
				</split>
				<split pos="right">
					<feature> 130 </feature>
					<threshold> 65279.395 </threshold>
					<split pos="left">
						<feature> 129 </feature>
						<threshold> 13.0 </threshold>
						<split pos="left">
							<feature> 127 </feature>
							<threshold> 16.070312 </threshold>
							<split pos="left">
								<output> 0.27304574847221375 </output>
							</split>
							<split pos="right">
								<feature> 19 </feature>
								<threshold> 9.291407 </threshold>
								<split pos="left">
									<output> -0.7144237160682678 </output>
								</split>
								<split pos="right">
									<feature> 130 </feature>
									<threshold> 56588.81 </threshold>
									<split pos="left">
										<feature> 120 </feature>
										<threshold> -2.1784587 </threshold>
										<split pos="left">
											<feature> 110 </feature>
											<threshold> 1.0185757 </threshold>
											<split pos="left">
												<output> 1.324643611907959 </output>
											</split>
											<split pos="right">
												<feature> 2 </feature>
												<threshold> 3.0 </threshold>
												<split pos="left">
													<feature> 3 </feature>
													<threshold> 3.0 </threshold>
													<split pos="left">
														<output> -0.01169584970921278 </output>
													</split>
													<split pos="right">
														<output> 0.3285681903362274 </output>
													</split>
												</split>
												<split pos="right">
													<output> 0.5698977112770081 </output>
												</split>
											</split>
										</split>
										<split pos="right">
											<output> 1.2785117626190186 </output>
										</split>
									</split>
									<split pos="right">
										<output> 0.38747426867485046 </output>
									</split>
								</split>
							</split>
						</split>
						<split pos="right">
							<output> 0.30112937092781067 </output>
						</split>
					</split>
					<split pos="right">
						<output> 0.4783945083618164 </output>
					</split>
				</split>
			</split>
			<split pos="right">
				<output> 0.6626787185668945 </output>
			</split>
		</split>
	</tree>
	<tree id="16" weight="0.15">
		<split>
			<feature> 87 </feature>
			<threshold> 36.41496 </threshold>
			<split pos="left">
				<feature> 49 </feature>
				<threshold> 0.23011369 </threshold>
				<split pos="left">
					<feature> 3 </feature>
					<threshold> 2.0 </threshold>
					<split pos="left">
						<feature> 127 </feature>
						<threshold> 34.17578 </threshold>
						<split pos="left">
							<feature> 77 </feature>
							<threshold> 11.204601 </threshold>
							<split pos="left">
								<feature> 133 </feature>
								<threshold> 21.0 </threshold>
								<split pos="left">
									<feature> 3 </feature>
									<threshold> 1.0 </threshold>
									<split pos="left">
										<feature> 15 </feature>
										<threshold> 478.4375 </threshold>
										<split pos="left">
											<output> 0.04535168781876564 </output>
										</split>
										<split pos="right">
											<output> -0.197801411151886 </output>
										</split>
									</split>
									<split pos="right">
										<feature> 58 </feature>
										<threshold> 0.57421875 </threshold>
										<split pos="left">
											<feature> 130 </feature>
											<threshold> 62467.734 </threshold>
											<split pos="left">
												<feature> 129 </feature>
												<threshold> 5.0 </threshold>
												<split pos="left">
													<output> 0.07746321707963943 </output>
												</split>
												<split pos="right">
													<output> 0.36152538657188416 </output>
												</split>
											</split>
											<split pos="right">
												<output> 0.45862749218940735 </output>
											</split>
										</split>
										<split pos="right">
											<output> 1.2938930988311768 </output>
										</split>
									</split>
								</split>
								<split pos="right">
									<output> -0.19927118718624115 </output>
								</split>
							</split>
							<split pos="right">
								<output> 0.5379034876823425 </output>
							</split>
						</split>
						<split pos="right">
							<feature> 92 </feature>
							<threshold> 0.0 </threshold>
							<split pos="left">
								<feature> 15 </feature>
								<threshold> 2278.3125 </threshold>
								<split pos="left">
									<feature> 129 </feature>
									<threshold> 77.0 </threshold>
									<split pos="left">
										<feature> 117 </feature>
										<threshold> -7.0282564 </threshold>
										<split pos="left">
											<output> -0.2615912854671478 </output>
										</split>
										<split pos="right">
											<output> -0.027134928852319717 </output>
										</split>
									</split>
									<split pos="right">
										<output> 0.5320075154304504 </output>
									</split>
								</split>
								<split pos="right">
									<output> -0.6733766198158264 </output>
								</split>
							</split>
							<split pos="right">
								<output> 0.03574052080512047 </output>
							</split>
						</split>
					</split>
					<split pos="right">
						<feature> 14 </feature>
						<threshold> 4.0 </threshold>
						<split pos="left">
							<output> 0.25465548038482666 </output>
						</split>
						<split pos="right">
							<output> 0.133226677775383 </output>
						</split>
					</split>
				</split>
				<split pos="right">
					<feature> 130 </feature>
					<threshold> 57100.02 </threshold>
					<split pos="left">
						<feature> 129 </feature>
						<threshold> 23.0 </threshold>
						<split pos="left">
							<feature> 105 </feature>
							<threshold> 0.03125 </threshold>
							<split pos="left">
								<output> 0.9499742984771729 </output>
							</split>
							<split pos="right">
								<feature> 129 </feature>
								<threshold> 1.0 </threshold>
								<split pos="left">
									<output> -0.0906740203499794 </output>
								</split>
								<split pos="right">
									<output> 0.17660322785377502 </output>
								</split>
							</split>
						</split>
						<split pos="right">
							<output> 0.27248042821884155 </output>
						</split>
					</split>
					<split pos="right">
						<feature> 78 </feature>
						<threshold> 12.156468 </threshold>
						<split pos="left">
							<feature> 109 </feature>
							<threshold> 17.1011 </threshold>
							<split pos="left">
								<feature> 14 </feature>
								<threshold> 3.0 </threshold>
								<split pos="left">
									<output> 0.8077644109725952 </output>
								</split>
								<split pos="right">
									<feature> 130 </feature>
									<threshold> 65279.395 </threshold>
									<split pos="left">
										<output> -0.14500215649604797 </output>
									</split>
									<split pos="right">
										<output> 0.36076620221138 </output>
									</split>
								</split>
							</split>
							<split pos="right">
								<output> 0.7120509147644043 </output>
							</split>
						</split>
						<split pos="right">
							<output> 0.7189915776252747 </output>
						</split>
					</split>
				</split>
			</split>
			<split pos="right">
				<output> 0.5499748587608337 </output>
			</split>
		</split>
	</tree>
	<tree id="17" weight="0.15">
		<split>
			<feature> 87 </feature>
			<threshold> 39.21611 </threshold>
			<split pos="left">
				<feature> 127 </feature>
				<threshold> 4.0 </threshold>
				<split pos="left">
					<output> -9.065442085266113 </output>
				</split>
				<split pos="right">
					<feature> 130 </feature>
					<threshold> 53777.15 </threshold>
					<split pos="left">
						<feature> 107 </feature>
						<threshold> 19.013084 </threshold>
						<split pos="left">
							<feature> 3 </feature>
							<threshold> 3.0 </threshold>
							<split pos="left">
								<feature> 27 </feature>
								<threshold> 4.0 </threshold>
								<split pos="left">
									<feature> 129 </feature>
									<threshold> 0.0 </threshold>
									<split pos="left">
										<feature> 54 </feature>
										<threshold> 0.222222 </threshold>
										<split pos="left">
											<feature> 14 </feature>
											<threshold> 3.0 </threshold>
											<split pos="left">
												<output> 0.15011800825595856 </output>
											</split>
											<split pos="right">
												<feature> 110 </feature>
												<threshold> 33.82966 </threshold>
												<split pos="left">
													<feature> 11 </feature>
													<threshold> 0.0 </threshold>
													<split pos="left">
														<output> 0.2522890567779541 </output>
													</split>
													<split pos="right">
														<feature> 60 </feature>
														<threshold> 0.021901498 </threshold>
														<split pos="left">
															<output> -0.4108371436595917 </output>
														</split>
														<split pos="right">
															<output> -0.15647557377815247 </output>
														</split>
													</split>
												</split>
												<split pos="right">
													<output> 0.02336716651916504 </output>
												</split>
											</split>
										</split>
										<split pos="right">
											<output> -0.3880767524242401 </output>
										</split>
									</split>
									<split pos="right">
										<feature> 14 </feature>
										<threshold> 4.0 </threshold>
										<split pos="left">
											<output> 0.23648639023303986 </output>
										</split>
										<split pos="right">
											<feature> 131 </feature>
											<threshold> 63743.055 </threshold>
											<split pos="left">
												<feature> 126 </feature>
												<threshold> 1.0 </threshold>
												<split pos="left">
													<output> 0.2361302524805069 </output>
												</split>
												<split pos="right">
													<output> -0.14124323427677155 </output>
												</split>
											</split>
											<split pos="right">
												<output> 0.12603025138378143 </output>
											</split>
										</split>
									</split>
								</split>
								<split pos="right">
									<output> -1.1417722702026367 </output>
								</split>
							</split>
							<split pos="right">
								<output> 0.33142104744911194 </output>
							</split>
						</split>
						<split pos="right">
							<output> 0.2145649790763855 </output>
						</split>
					</split>
					<split pos="right">
						<feature> 109 </feature>
						<threshold> 17.1011 </threshold>
						<split pos="left">
							<feature> 108 </feature>
							<threshold> 26.679325 </threshold>
							<split pos="left">
								<feature> 64 </feature>
								<threshold> 0.23161735 </threshold>
								<split pos="left">
									<feature> 108 </feature>
									<threshold> 17.786213 </threshold>
									<split pos="left">
										<feature> 77 </feature>
										<threshold> 36.41496 </threshold>
										<split pos="left">
											<feature> 69 </feature>
											<threshold> 0.035859402 </threshold>
											<split pos="left">
												<feature> 72 </feature>
												<threshold> 142.99167 </threshold>
												<split pos="left">
													<feature> 65 </feature>
													<threshold> 0.03441664 </threshold>
													<split pos="left">
														<output> -0.05945635586977005 </output>
													</split>
													<split pos="right">
														<output> 0.21219651401042938 </output>
													</split>
												</split>
												<split pos="right">
													<output> 1.2040218114852905 </output>
												</split>
											</split>
											<split pos="right">
												<output> 1.2378959655761719 </output>
											</split>
										</split>
										<split pos="right">
											<output> 0.6037763953208923 </output>
										</split>
									</split>
									<split pos="right">
										<output> 0.3056509494781494 </output>
									</split>
								</split>
								<split pos="right">
									<feature> 120 </feature>
									<threshold> -3.6304307 </threshold>
									<split pos="left">
										<output> 0.15676476061344147 </output>
									</split>
									<split pos="right">
										<output> 0.9631154537200928 </output>
									</split>
								</split>
							</split>
							<split pos="right">
								<output> 0.5608216524124146 </output>
							</split>
						</split>
						<split pos="right">
							<output> 0.6434342861175537 </output>
						</split>
					</split>
				</split>
			</split>
			<split pos="right">
				<output> 0.4944193363189697 </output>
			</split>
		</split>
	</tree>
	<tree id="18" weight="0.15">
		<split>
			<feature> 27 </feature>
			<threshold> 4.0 </threshold>
			<split pos="left">
				<feature> 127 </feature>
				<threshold> 22.105469 </threshold>
				<split pos="left">
					<feature> 109 </feature>
					<threshold> 15.113054 </threshold>
					<split pos="left">
						<feature> 59 </feature>
						<threshold> 0.285714 </threshold>
						<split pos="left">
							<feature> 108 </feature>
							<threshold> 27.790964 </threshold>
							<split pos="left">
								<feature> 129 </feature>
								<threshold> 2.0 </threshold>
								<split pos="left">
									<feature> 22 </feature>
									<threshold> 26.0 </threshold>
									<split pos="left">
										<feature> 54 </feature>
										<threshold> 0.2 </threshold>
										<split pos="left">
											<feature> 126 </feature>
											<threshold> 1.0 </threshold>
											<split pos="left">
												<output> -0.08640961349010468 </output>
											</split>
											<split pos="right">
												<output> 0.18047596514225006 </output>
											</split>
										</split>
										<split pos="right">
											<output> -0.2152796983718872 </output>
										</split>
									</split>
									<split pos="right">
										<output> 1.4566787481307983 </output>
									</split>
								</split>
								<split pos="right">
									<feature> 64 </feature>
									<threshold> 0.20025255 </threshold>
									<split pos="left">
										<output> 0.18511678278446198 </output>
									</split>
									<split pos="right">
										<output> 0.5857943296432495 </output>
									</split>
								</split>
							</split>
							<split pos="right">
								<output> 0.3979860544204712 </output>
							</split>
						</split>
						<split pos="right">
							<output> 0.7240514159202576 </output>
						</split>
					</split>
					<split pos="right">
						<output> 0.4298417270183563 </output>
					</split>
				</split>
				<split pos="right">
					<feature> 22 </feature>
					<threshold> 2.0 </threshold>
					<split pos="left">
						<feature> 54 </feature>
						<threshold> 0.24 </threshold>
						<split pos="left">
							<feature> 3 </feature>
							<threshold> 2.0 </threshold>
							<split pos="left">
								<feature> 30 </feature>
								<threshold> 35.242188 </threshold>
								<split pos="left">
									<feature> 15 </feature>
									<threshold> 2437.125 </threshold>
									<split pos="left">
										<feature> 133 </feature>
										<threshold> 49.0 </threshold>
										<split pos="left">
											<feature> 126 </feature>
											<threshold> 1.0 </threshold>
											<split pos="left">
												<output> 0.11144999414682388 </output>
											</split>
											<split pos="right">
												<feature> 129 </feature>
												<threshold> 44.0 </threshold>
												<split pos="left">
													<feature> 110 </feature>
													<threshold> 36.563915 </threshold>
													<split pos="left">
														<feature> 62 </feature>
														<threshold> 0.40234375 </threshold>
														<split pos="left">
															<feature> 82 </feature>
															<threshold> 33.613808 </threshold>
															<split pos="left">
																<feature> 101 </feature>
																<threshold> 0.30078125 </threshold>
																<split pos="left">
																	<output> -0.05310772731900215 </output>
																</split>
																<split pos="right">
																	<feature> 55 </feature>
																	<threshold> 0.0062575703 </threshold>
																	<split pos="left">
																		<output> -0.3150845170021057 </output>
																	</split>
																	<split pos="right">
																		<output> -0.12106619030237198 </output>
																	</split>
																</split>
															</split>
															<split pos="right">
																<output> -3.4836652278900146 </output>
															</split>
														</split>
														<split pos="right">
															<output> 0.11123539507389069 </output>
														</split>
													</split>
													<split pos="right">
														<output> 0.081146739423275 </output>
													</split>
												</split>
												<split pos="right">
													<output> 0.16117040812969208 </output>
												</split>
											</split>
										</split>
										<split pos="right">
											<output> -0.2829534113407135 </output>
										</split>
									</split>
									<split pos="right">
										<output> -0.600001871585846 </output>
									</split>
								</split>
								<split pos="right">
									<output> 0.2783736288547516 </output>
								</split>
							</split>
							<split pos="right">
								<feature> 110 </feature>
								<threshold> 1.0185757 </threshold>
								<split pos="left">
									<output> 1.2132139205932617 </output>
								</split>
								<split pos="right">
									<output> 0.10948676615953445 </output>
								</split>
							</split>
						</split>
						<split pos="right">
							<output> -0.6094052791595459 </output>
						</split>
					</split>
					<split pos="right">
						<output> 0.23035980761051178 </output>
					</split>
				</split>
			</split>
			<split pos="right">
				<output> 0.48207876086235046 </output>
			</split>
		</split>
	</tree>
	<tree id="19" weight="0.15">
		<split>
			<feature> 27 </feature>
			<threshold> 4.0 </threshold>
			<split pos="left">
				<feature> 130 </feature>
				<threshold> 53777.15 </threshold>
				<split pos="left">
					<feature> 3 </feature>
					<threshold> 3.0 </threshold>
					<split pos="left">
						<feature> 47 </feature>
						<threshold> 0.69140625 </threshold>
						<split pos="left">
							<feature> 129 </feature>
							<threshold> 87.0 </threshold>
							<split pos="left">
								<feature> 106 </feature>
								<threshold> 33.86572 </threshold>
								<split pos="left">
									<feature> 14 </feature>
									<threshold> 2.0 </threshold>
									<split pos="left">
										<output> 0.864334762096405 </output>
									</split>
									<split pos="right">
										<feature> 123 </feature>
										<threshold> -9.668865 </threshold>
										<split pos="left">
											<output> -0.23461949825286865 </output>
										</split>
										<split pos="right">
											<feature> 42 </feature>
											<threshold> 67.27539 </threshold>
											<split pos="left">
												<feature> 129 </feature>
												<threshold> 33.0 </threshold>
												<split pos="left">
													<feature> 72 </feature>
													<threshold> 62.558846 </threshold>
													<split pos="left">
														<feature> 132 </feature>
														<threshold> 97.0 </threshold>
														<split pos="left">
															<feature> 14 </feature>
															<threshold> 3.0 </threshold>
															<split pos="left">
																<output> 0.15732483565807343 </output>
															</split>
															<split pos="right">
																<feature> 49 </feature>
																<threshold> 0.47940403 </threshold>
																<split pos="left">
																	<feature> 129 </feature>
																	<threshold> 0.0 </threshold>
																	<split pos="left">
																		<output> -0.15764950215816498 </output>
																	</split>
																	<split pos="right">
																		<feature> 14 </feature>
																		<threshold> 4.0 </threshold>
																		<split pos="left">
																			<output> 0.20577238500118256 </output>
																		</split>
																		<split pos="right">
																			<output> -0.05128265172243118 </output>
																		</split>
																	</split>
																</split>
																<split pos="right">
																	<output> 0.44673120975494385 </output>
																</split>
															</split>
														</split>
														<split pos="right">
															<output> -0.44201090931892395 </output>
														</split>
													</split>
													<split pos="right">
														<output> 0.5611616969108582 </output>
													</split>
												</split>
												<split pos="right">
													<output> 0.1541762351989746 </output>
												</split>
											</split>
											<split pos="right">
												<output> -2.711838722229004 </output>
											</split>
										</split>
									</split>
								</split>
								<split pos="right">
									<output> 0.07361067831516266 </output>
								</split>
							</split>
							<split pos="right">
								<output> 0.6099340915679932 </output>
							</split>
						</split>
						<split pos="right">
							<output> 0.17153508961200714 </output>
						</split>
					</split>
					<split pos="right">
						<output> 0.33831343054771423 </output>
					</split>
				</split>
				<split pos="right">
					<feature> 109 </feature>
					<threshold> 17.1011 </threshold>
					<split pos="left">
						<feature> 108 </feature>
						<threshold> 21.12113 </threshold>
						<split pos="left">
							<feature> 54 </feature>
							<threshold> 0.428571 </threshold>
							<split pos="left">
								<feature> 59 </feature>
								<threshold> 0.375 </threshold>
								<split pos="left">
									<feature> 64 </feature>
									<threshold> 0.23161735 </threshold>
									<split pos="left">
										<feature> 27 </feature>
										<threshold> 3.0 </threshold>
										<split pos="left">
											<feature> 110 </feature>
											<threshold> 25.626888 </threshold>
											<split pos="left">
												<feature> 11 </feature>
												<threshold> 52.890625 </threshold>
												<split pos="left">
													<output> 0.4262831211090088 </output>
												</split>
												<split pos="right">
													<output> -0.04663652181625366 </output>
												</split>
											</split>
											<split pos="right">
												<output> 0.4097864329814911 </output>
											</split>
										</split>
										<split pos="right">
											<output> 0.6762571334838867 </output>
										</split>
									</split>
									<split pos="right">
										<output> 0.14045551419258118 </output>
									</split>
								</split>
								<split pos="right">
									<output> 0.9881166815757751 </output>
								</split>
							</split>
							<split pos="right">
								<output> -10.498481750488281 </output>
							</split>
						</split>
						<split pos="right">
							<output> 0.36415329575538635 </output>
						</split>
					</split>
					<split pos="right">
						<output> 0.5301271677017212 </output>
					</split>
				</split>
			</split>
			<split pos="right">
				<output> 0.405779093503952 </output>
			</split>
		</split>
	</tree>
	<tree id="20" weight="0.15">
		<split>
			<feature> 77 </feature>
			<threshold> 56.023018 </threshold>
			<split pos="left">
				<feature> 55 </feature>
				<threshold> 0.0062575703 </threshold>
				<split pos="left">
					<feature> 11 </feature>
					<threshold> 105.78125 </threshold>
					<split pos="left">
						<output> 0.2071378082036972 </output>
					</split>
					<split pos="right">
						<feature> 109 </feature>
						<threshold> 27.325321 </threshold>
						<split pos="left">
							<feature> 123 </feature>
							<threshold> -9.668865 </threshold>
							<split pos="left">
								<feature> 49 </feature>
								<threshold> 0.24289778 </threshold>
								<split pos="left">
									<output> -0.23730705678462982 </output>
								</split>
								<split pos="right">
									<output> -0.3067353665828705 </output>
								</split>
							</split>
							<split pos="right">
								<feature> 129 </feature>
								<threshold> 77.0 </threshold>
								<split pos="left">
									<feature> 32 </feature>
									<threshold> 15.0 </threshold>
									<split pos="left">
										<feature> 72 </feature>
										<threshold> 89.36979 </threshold>
										<split pos="left">
											<feature> 82 </feature>
											<threshold> 81.23335 </threshold>
											<split pos="left">
												<output> -0.036641769111156464 </output>
											</split>
											<split pos="right">
												<output> -2.0699591636657715 </output>
											</split>
										</split>
										<split pos="right">
											<output> 1.1358776092529297 </output>
										</split>
									</split>
									<split pos="right">
										<output> -2.5721144676208496 </output>
									</split>
								</split>
								<split pos="right">
									<output> 0.7383333444595337 </output>
								</split>
							</split>
						</split>
						<split pos="right">
							<output> 0.4211650788784027 </output>
						</split>
					</split>
				</split>
				<split pos="right">
					<feature> 22 </feature>
					<threshold> 4.0 </threshold>
					<split pos="left">
						<feature> 130 </feature>
						<threshold> 65279.395 </threshold>
						<split pos="left">
							<feature> 130 </feature>
							<threshold> 21315.254 </threshold>
							<split pos="left">
								<feature> 18 </feature>
								<threshold> 24.37485 </threshold>
								<split pos="left">
									<feature> 129 </feature>
									<threshold> 87.0 </threshold>
									<split pos="left">
										<feature> 64 </feature>
										<threshold> 0.18577649 </threshold>
										<split pos="left">
											<feature> 35 </feature>
											<threshold> 35.242188 </threshold>
											<split pos="left">
												<feature> 105 </feature>
												<threshold> 0.99609375 </threshold>
												<split pos="left">
													<output> -0.012192640453577042 </output>
												</split>
												<split pos="right">
